digraph Tree {
node [shape=box, style="filled, rounded", color="black", fontname=helvetica] ;
edge [fontname=helvetica] ;
0 [label="Composure <= 58.5\nentropy = 1.58\nsamples = 6958\nvalue = [3685.67, 3685.67, 3685.67]\nclass = 0", fillcolor="#ffffff"] ;
1 [label="Reactions <= 59.5\nentropy = 1.39\nsamples = 2936\nvalue = [2399.24, 1125.6, 669.49]\nclass = 2", fillcolor="#f4cbad"] ;
0 -> 1 [labeldistance=2.5, labelangle=45, headlabel="True"] ;
2 [label="Potential <= 66.5\nentropy = 1.12\nsamples = 2029\nvalue = [1939.56, 571.47, 227.77]\nclass = 2", fillcolor="#efaf82"] ;
1 -> 2 ;
3 [label="Value <= 19500000.0\nentropy = 1.51\nsamples = 766\nvalue = [458.85, 399.7, 200.16]\nclass = 2", fillcolor="#fdf4ed"] ;
2 -> 3 ;
4 [label="Overall <= 56.5\nentropy = 1.23\nsamples = 459\nvalue = [414.2, 118.09, 81.1]\nclass = 2", fillcolor="#efb489"] ;
3 -> 4 ;
5 [label="Potential <= 56.5\nentropy = 0.68\nsamples = 299\nvalue = [319.13, 40.47, 10.35]\nclass = 2", fillcolor="#e99458"] ;
4 -> 5 ;
6 [label="FKAccuracy <= 24.5\nentropy = 1.07\nsamples = 19\nvalue = [0.83, 20.65, 10.35]\nclass = 1", fillcolor="#a0f3c3"] ;
5 -> 6 ;
7 [label="entropy = 0.0\nsamples = 2\nvalue = [0.0, 0.0, 5.18]\nclass = 0", fillcolor="#8139e5"] ;
6 -> 7 ;
8 [label="Release Clause <= 6000000.0\nentropy = 0.9\nsamples = 17\nvalue = [0.83, 20.65, 5.18]\nclass = 1", fillcolor="#70eca4"] ;
6 -> 8 ;
9 [label="entropy = 0.0\nsamples = 2\nvalue = [0.0, 0.0, 5.18]\nclass = 0", fillcolor="#8139e5"] ;
8 -> 9 ;
10 [label="Finishing <= 26.0\nentropy = 0.24\nsamples = 15\nvalue = [0.83, 20.65, 0.0]\nclass = 1", fillcolor="#41e686"] ;
8 -> 10 ;
11 [label="entropy = 0.0\nsamples = 1\nvalue = [0.83, 0.0, 0.0]\nclass = 2", fillcolor="#e58139"] ;
10 -> 11 ;
12 [label="entropy = 0.0\nsamples = 14\nvalue = [0.0, 20.65, 0.0]\nclass = 1", fillcolor="#39e581"] ;
10 -> 12 ;
13 [label="Overall <= 53.5\nentropy = 0.32\nsamples = 280\nvalue = [318.3, 19.82, 0.0]\nclass = 2", fillcolor="#e78945"] ;
5 -> 13 ;
14 [label="entropy = 0.0\nsamples = 150\nvalue = [174.44, 0.0, 0.0]\nclass = 2", fillcolor="#e58139"] ;
13 -> 14 ;
15 [label="StandingTackle <= 58.5\nentropy = 0.53\nsamples = 130\nvalue = [143.86, 19.82, 0.0]\nclass = 2", fillcolor="#e99254"] ;
13 -> 15 ;
16 [label="Potential <= 61.5\nentropy = 0.38\nsamples = 110\nvalue = [132.28, 10.74, 0.0]\nclass = 2", fillcolor="#e78b49"] ;
15 -> 16 ;
17 [label="Vision <= 41.5\nentropy = 0.9\nsamples = 24\nvalue = [23.15, 10.74, 0.0]\nclass = 2", fillcolor="#f1bb95"] ;
16 -> 17 ;
18 [label="entropy = 0.0\nsamples = 10\nvalue = [17.36, 0.0, 0.0]\nclass = 2", fillcolor="#e58139"] ;
17 -> 18 ;
19 [label="Marking <= 47.5\nentropy = 0.93\nsamples = 14\nvalue = [5.79, 10.74, 0.0]\nclass = 1", fillcolor="#a4f3c5"] ;
17 -> 19 ;
20 [label="StandingTackle <= 33.5\nentropy = 0.98\nsamples = 9\nvalue = [5.79, 4.13, 0.0]\nclass = 2", fillcolor="#f8dbc6"] ;
19 -> 20 ;
21 [label="Strength <= 62.0\nentropy = 0.86\nsamples = 5\nvalue = [1.65, 4.13, 0.0]\nclass = 1", fillcolor="#88efb3"] ;
20 -> 21 ;
22 [label="entropy = 0.0\nsamples = 3\nvalue = [0.0, 4.13, 0.0]\nclass = 1", fillcolor="#39e581"] ;
21 -> 22 ;
23 [label="entropy = -0.0\nsamples = 2\nvalue = [1.65, 0.0, 0.0]\nclass = 2", fillcolor="#e58139"] ;
21 -> 23 ;
24 [label="entropy = -0.0\nsamples = 4\nvalue = [4.13, 0.0, 0.0]\nclass = 2", fillcolor="#e58139"] ;
20 -> 24 ;
25 [label="entropy = 0.0\nsamples = 5\nvalue = [0.0, 6.61, 0.0]\nclass = 1", fillcolor="#39e581"] ;
19 -> 25 ;
26 [label="entropy = 0.0\nsamples = 86\nvalue = [109.13, 0.0, 0.0]\nclass = 2", fillcolor="#e58139"] ;
16 -> 26 ;
27 [label="GKReflexes <= 9.5\nentropy = 0.99\nsamples = 20\nvalue = [11.57, 9.08, 0.0]\nclass = 2", fillcolor="#f9e4d4"] ;
15 -> 27 ;
28 [label="Reactions <= 51.5\nentropy = 0.68\nsamples = 8\nvalue = [1.65, 7.43, 0.0]\nclass = 1", fillcolor="#65eb9d"] ;
27 -> 28 ;
29 [label="entropy = 0.0\nsamples = 5\nvalue = [0.0, 6.61, 0.0]\nclass = 1", fillcolor="#39e581"] ;
28 -> 29 ;
30 [label="Crossing <= 49.0\nentropy = 0.92\nsamples = 3\nvalue = [1.65, 0.83, 0.0]\nclass = 2", fillcolor="#f2c09c"] ;
28 -> 30 ;
31 [label="entropy = 0.0\nsamples = 2\nvalue = [1.65, 0.0, 0.0]\nclass = 2", fillcolor="#e58139"] ;
30 -> 31 ;
32 [label="entropy = -0.0\nsamples = 1\nvalue = [0.0, 0.83, 0.0]\nclass = 1", fillcolor="#39e581"] ;
30 -> 32 ;
33 [label="GKDiving <= 13.5\nentropy = 0.59\nsamples = 12\nvalue = [9.92, 1.65, 0.0]\nclass = 2", fillcolor="#e9965a"] ;
27 -> 33 ;
34 [label="entropy = 0.0\nsamples = 8\nvalue = [8.27, 0.0, 0.0]\nclass = 2", fillcolor="#e58139"] ;
33 -> 34 ;
35 [label="Acceleration <= 62.5\nentropy = 1.0\nsamples = 4\nvalue = [1.65, 1.65, 0.0]\nclass = 2", fillcolor="#ffffff"] ;
33 -> 35 ;
36 [label="SprintSpeed <= 73.0\nentropy = 0.92\nsamples = 3\nvalue = [1.65, 0.83, 0.0]\nclass = 2", fillcolor="#f2c09c"] ;
35 -> 36 ;
37 [label="entropy = 0.0\nsamples = 2\nvalue = [1.65, 0.0, 0.0]\nclass = 2", fillcolor="#e58139"] ;
36 -> 37 ;
38 [label="entropy = -0.0\nsamples = 1\nvalue = [0.0, 0.83, 0.0]\nclass = 1", fillcolor="#39e581"] ;
36 -> 38 ;
39 [label="entropy = -0.0\nsamples = 1\nvalue = [0.0, 0.83, 0.0]\nclass = 1", fillcolor="#39e581"] ;
35 -> 39 ;
40 [label="Potential <= 62.5\nentropy = 1.57\nsamples = 160\nvalue = [95.08, 77.63, 70.75]\nclass = 2", fillcolor="#fcf2ea"] ;
4 -> 40 ;
41 [label="SprintSpeed <= 58.5\nentropy = 1.19\nsamples = 77\nvalue = [4.96, 66.89, 60.39]\nclass = 1", fillcolor="#edfdf4"] ;
40 -> 41 ;
42 [label="Release Clause <= 13400000.0\nentropy = 0.75\nsamples = 28\nvalue = [0.0, 13.21, 48.31]\nclass = 0", fillcolor="#a36fec"] ;
41 -> 42 ;
43 [label="entropy = 0.0\nsamples = 10\nvalue = [0.0, 0.0, 24.16]\nclass = 0", fillcolor="#8139e5"] ;
42 -> 43 ;
44 [label="LongShots <= 52.5\nentropy = 0.94\nsamples = 18\nvalue = [0.0, 13.21, 24.16]\nclass = 0", fillcolor="#c6a5f3"] ;
42 -> 44 ;
45 [label="Overall <= 60.5\nentropy = 0.99\nsamples = 15\nvalue = [0.0, 13.21, 10.35]\nclass = 1", fillcolor="#d4f9e4"] ;
44 -> 45 ;
46 [label="entropy = 0.0\nsamples = 10\nvalue = [0.0, 13.21, 0.0]\nclass = 1", fillcolor="#39e581"] ;
45 -> 46 ;
47 [label="entropy = -0.0\nsamples = 5\nvalue = [0.0, 0.0, 10.35]\nclass = 0", fillcolor="#8139e5"] ;
45 -> 47 ;
48 [label="entropy = -0.0\nsamples = 3\nvalue = [0.0, 0.0, 13.8]\nclass = 0", fillcolor="#8139e5"] ;
44 -> 48 ;
49 [label="CDM <= 59.5\nentropy = 1.01\nsamples = 49\nvalue = [4.96, 53.68, 12.08]\nclass = 1", fillcolor="#73eda6"] ;
41 -> 49 ;
50 [label="Release Clause <= 13900000.0\nentropy = 0.74\nsamples = 43\nvalue = [4.96, 49.55, 3.45]\nclass = 1", fillcolor="#58e995"] ;
49 -> 50 ;
51 [label="Stamina <= 65.5\nentropy = 0.91\nsamples = 4\nvalue = [0.0, 1.65, 3.45]\nclass = 0", fillcolor="#bd98f1"] ;
50 -> 51 ;
52 [label="entropy = 0.0\nsamples = 2\nvalue = [0.0, 0.0, 3.45]\nclass = 0", fillcolor="#8139e5"] ;
51 -> 52 ;
53 [label="entropy = 0.0\nsamples = 2\nvalue = [0.0, 1.65, 0.0]\nclass = 1", fillcolor="#39e581"] ;
51 -> 53 ;
54 [label="Potential <= 61.5\nentropy = 0.45\nsamples = 39\nvalue = [4.96, 47.9, 0.0]\nclass = 1", fillcolor="#4ee88e"] ;
50 -> 54 ;
55 [label="entropy = 0.0\nsamples = 33\nvalue = [0.0, 42.94, 0.0]\nclass = 1", fillcolor="#39e581"] ;
54 -> 55 ;
56 [label="Positioning <= 55.0\nentropy = 1.0\nsamples = 6\nvalue = [4.96, 4.95, 0.0]\nclass = 2", fillcolor="#ffffff"] ;
54 -> 56 ;
57 [label="entropy = 0.0\nsamples = 3\nvalue = [4.96, 0.0, 0.0]\nclass = 2", fillcolor="#e58139"] ;
56 -> 57 ;
58 [label="entropy = 0.0\nsamples = 3\nvalue = [0.0, 4.95, 0.0]\nclass = 1", fillcolor="#39e581"] ;
56 -> 58 ;
59 [label="Curve <= 41.5\nentropy = 0.91\nsamples = 6\nvalue = [0.0, 4.13, 8.63]\nclass = 0", fillcolor="#bd98f1"] ;
49 -> 59 ;
60 [label="entropy = 0.0\nsamples = 3\nvalue = [0.0, 0.0, 8.63]\nclass = 0", fillcolor="#8139e5"] ;
59 -> 60 ;
61 [label="entropy = 0.0\nsamples = 3\nvalue = [0.0, 4.13, 0.0]\nclass = 1", fillcolor="#39e581"] ;
59 -> 61 ;
62 [label="RCB <= 63.5\nentropy = 0.89\nsamples = 83\nvalue = [90.12, 10.74, 10.35]\nclass = 2", fillcolor="#ea9b63"] ;
40 -> 62 ;
63 [label="Interceptions <= 12.0\nentropy = 0.49\nsamples = 80\nvalue = [90.12, 10.74, 0.0]\nclass = 2", fillcolor="#e89051"] ;
62 -> 63 ;
64 [label="entropy = 0.0\nsamples = 1\nvalue = [0.0, 1.65, 0.0]\nclass = 1", fillcolor="#39e581"] ;
63 -> 64 ;
65 [label="Penalties <= 45.5\nentropy = 0.44\nsamples = 79\nvalue = [90.12, 9.08, 0.0]\nclass = 2", fillcolor="#e88e4d"] ;
63 -> 65 ;
66 [label="Penalties <= 36.5\nentropy = 0.64\nsamples = 45\nvalue = [47.12, 9.08, 0.0]\nclass = 2", fillcolor="#ea995f"] ;
65 -> 66 ;
67 [label="entropy = 0.0\nsamples = 15\nvalue = [21.5, 0.0, 0.0]\nclass = 2", fillcolor="#e58139"] ;
66 -> 67 ;
68 [label="Positioning <= 55.5\nentropy = 0.83\nsamples = 30\nvalue = [25.63, 9.08, 0.0]\nclass = 2", fillcolor="#eeae7f"] ;
66 -> 68 ;
69 [label="Overall <= 57.5\nentropy = 0.94\nsamples = 24\nvalue = [16.54, 9.08, 0.0]\nclass = 2", fillcolor="#f3c6a6"] ;
68 -> 69 ;
70 [label="entropy = 0.0\nsamples = 7\nvalue = [8.27, 0.0, 0.0]\nclass = 2", fillcolor="#e58139"] ;
69 -> 70 ;
71 [label="Release Clause <= 33750000.0\nentropy = 1.0\nsamples = 17\nvalue = [8.27, 9.08, 0.0]\nclass = 1", fillcolor="#edfdf4"] ;
69 -> 71 ;
72 [label="Weight <= 156.5\nentropy = 0.9\nsamples = 13\nvalue = [4.13, 9.08, 0.0]\nclass = 1", fillcolor="#93f1ba"] ;
71 -> 72 ;
73 [label="StandingTackle <= 61.0\nentropy = 0.47\nsamples = 7\nvalue = [0.83, 7.43, 0.0]\nclass = 1", fillcolor="#4fe88f"] ;
72 -> 73 ;
74 [label="entropy = 0.0\nsamples = 5\nvalue = [0.0, 6.61, 0.0]\nclass = 1", fillcolor="#39e581"] ;
73 -> 74 ;
75 [label="Weight <= 153.0\nentropy = 1.0\nsamples = 2\nvalue = [0.83, 0.83, 0.0]\nclass = 2", fillcolor="#ffffff"] ;
73 -> 75 ;
76 [label="entropy = 0.0\nsamples = 1\nvalue = [0.83, 0.0, 0.0]\nclass = 2", fillcolor="#e58139"] ;
75 -> 76 ;
77 [label="entropy = 0.0\nsamples = 1\nvalue = [0.0, 0.83, 0.0]\nclass = 1", fillcolor="#39e581"] ;
75 -> 77 ;
78 [label="Stamina <= 64.5\nentropy = 0.92\nsamples = 6\nvalue = [3.31, 1.65, 0.0]\nclass = 2", fillcolor="#f2c09c"] ;
72 -> 78 ;
79 [label="RCM <= 44.5\nentropy = 0.92\nsamples = 3\nvalue = [0.83, 1.65, 0.0]\nclass = 1", fillcolor="#9cf2c0"] ;
78 -> 79 ;
80 [label="entropy = 0.0\nsamples = 1\nvalue = [0.83, 0.0, 0.0]\nclass = 2", fillcolor="#e58139"] ;
79 -> 80 ;
81 [label="entropy = 0.0\nsamples = 2\nvalue = [0.0, 1.65, 0.0]\nclass = 1", fillcolor="#39e581"] ;
79 -> 81 ;
82 [label="entropy = -0.0\nsamples = 3\nvalue = [2.48, 0.0, 0.0]\nclass = 2", fillcolor="#e58139"] ;
78 -> 82 ;
83 [label="entropy = 0.0\nsamples = 4\nvalue = [4.13, 0.0, 0.0]\nclass = 2", fillcolor="#e58139"] ;
71 -> 83 ;
84 [label="entropy = 0.0\nsamples = 6\nvalue = [9.09, 0.0, 0.0]\nclass = 2", fillcolor="#e58139"] ;
68 -> 84 ;
85 [label="entropy = 0.0\nsamples = 34\nvalue = [42.99, 0.0, 0.0]\nclass = 2", fillcolor="#e58139"] ;
65 -> 85 ;
86 [label="entropy = -0.0\nsamples = 3\nvalue = [0.0, 0.0, 10.35]\nclass = 0", fillcolor="#8139e5"] ;
62 -> 86 ;
87 [label="Interceptions <= 56.5\nentropy = 1.26\nsamples = 307\nvalue = [44.64, 281.61, 119.06]\nclass = 1", fillcolor="#9cf2c0"] ;
3 -> 87 ;
88 [label="Overall <= 60.5\nentropy = 1.14\nsamples = 178\nvalue = [33.9, 182.51, 37.96]\nclass = 1", fillcolor="#7beeab"] ;
87 -> 88 ;
89 [label="Potential <= 63.5\nentropy = 1.12\nsamples = 56\nvalue = [31.42, 42.12, 1.73]\nclass = 1", fillcolor="#cff9e0"] ;
88 -> 89 ;
90 [label="CAM <= 61.5\nentropy = 0.74\nsamples = 18\nvalue = [1.65, 19.82, 1.73]\nclass = 1", fillcolor="#58e995"] ;
89 -> 90 ;
91 [label="ShortPassing <= 46.5\nentropy = 0.4\nsamples = 17\nvalue = [0.0, 19.82, 1.73]\nclass = 1", fillcolor="#4ae78c"] ;
90 -> 91 ;
92 [label="Penalties <= 63.0\nentropy = 0.91\nsamples = 2\nvalue = [0.0, 0.83, 1.73]\nclass = 0", fillcolor="#bd98f1"] ;
91 -> 92 ;
93 [label="entropy = 0.0\nsamples = 1\nvalue = [0.0, 0.0, 1.73]\nclass = 0", fillcolor="#8139e5"] ;
92 -> 93 ;
94 [label="entropy = -0.0\nsamples = 1\nvalue = [0.0, 0.83, 0.0]\nclass = 1", fillcolor="#39e581"] ;
92 -> 94 ;
95 [label="entropy = 0.0\nsamples = 15\nvalue = [0.0, 18.99, 0.0]\nclass = 1", fillcolor="#39e581"] ;
91 -> 95 ;
96 [label="entropy = 0.0\nsamples = 1\nvalue = [1.65, 0.0, 0.0]\nclass = 2", fillcolor="#e58139"] ;
90 -> 96 ;
97 [label="SlidingTackle <= 54.5\nentropy = 0.99\nsamples = 38\nvalue = [29.76, 22.3, 0.0]\nclass = 2", fillcolor="#f8dfcd"] ;
89 -> 97 ;
98 [label="ShortPassing <= 53.5\nentropy = 0.87\nsamples = 31\nvalue = [29.76, 12.39, 0.0]\nclass = 2", fillcolor="#f0b58b"] ;
97 -> 98 ;
99 [label="HeadingAccuracy <= 57.0\nentropy = 0.9\nsamples = 10\nvalue = [4.13, 9.08, 0.0]\nclass = 1", fillcolor="#93f1ba"] ;
98 -> 99 ;
100 [label="entropy = 0.0\nsamples = 4\nvalue = [0.0, 7.43, 0.0]\nclass = 1", fillcolor="#39e581"] ;
99 -> 100 ;
101 [label="Penalties <= 65.5\nentropy = 0.86\nsamples = 6\nvalue = [4.13, 1.65, 0.0]\nclass = 2", fillcolor="#efb388"] ;
99 -> 101 ;
102 [label="entropy = -0.0\nsamples = 4\nvalue = [4.13, 0.0, 0.0]\nclass = 2", fillcolor="#e58139"] ;
101 -> 102 ;
103 [label="entropy = 0.0\nsamples = 2\nvalue = [0.0, 1.65, 0.0]\nclass = 1", fillcolor="#39e581"] ;
101 -> 103 ;
104 [label="Strength <= 61.5\nentropy = 0.51\nsamples = 21\nvalue = [25.63, 3.3, 0.0]\nclass = 2", fillcolor="#e89153"] ;
98 -> 104 ;
105 [label="entropy = 0.0\nsamples = 13\nvalue = [19.84, 0.0, 0.0]\nclass = 2", fillcolor="#e58139"] ;
104 -> 105 ;
106 [label="Aggression <= 41.5\nentropy = 0.95\nsamples = 8\nvalue = [5.79, 3.3, 0.0]\nclass = 2", fillcolor="#f4c9aa"] ;
104 -> 106 ;
107 [label="entropy = 0.0\nsamples = 2\nvalue = [0.0, 2.48, 0.0]\nclass = 1", fillcolor="#39e581"] ;
106 -> 107 ;
108 [label="Strength <= 65.5\nentropy = 0.54\nsamples = 6\nvalue = [5.79, 0.83, 0.0]\nclass = 2", fillcolor="#e99355"] ;
106 -> 108 ;
109 [label="entropy = 0.0\nsamples = 1\nvalue = [0.0, 0.83, 0.0]\nclass = 1", fillcolor="#39e581"] ;
108 -> 109 ;
110 [label="entropy = 0.0\nsamples = 5\nvalue = [5.79, 0.0, 0.0]\nclass = 2", fillcolor="#e58139"] ;
108 -> 110 ;
111 [label="entropy = 0.0\nsamples = 7\nvalue = [0.0, 9.91, 0.0]\nclass = 1", fillcolor="#39e581"] ;
97 -> 111 ;
112 [label="FKAccuracy <= 51.5\nentropy = 0.83\nsamples = 122\nvalue = [2.48, 140.39, 36.24]\nclass = 1", fillcolor="#6feca3"] ;
88 -> 112 ;
113 [label="LS <= 62.5\nentropy = 0.51\nsamples = 88\nvalue = [2.48, 110.66, 8.63]\nclass = 1", fillcolor="#4ce88d"] ;
112 -> 113 ;
114 [label="Acceleration <= 89.5\nentropy = 0.19\nsamples = 63\nvalue = [2.48, 80.93, 0.0]\nclass = 1", fillcolor="#3fe685"] ;
113 -> 114 ;
115 [label="HeadingAccuracy <= 37.0\nentropy = 0.08\nsamples = 62\nvalue = [0.83, 80.93, 0.0]\nclass = 1", fillcolor="#3be582"] ;
114 -> 115 ;
116 [label="Vision <= 58.5\nentropy = 0.65\nsamples = 4\nvalue = [0.83, 4.13, 0.0]\nclass = 1", fillcolor="#61ea9a"] ;
115 -> 116 ;
117 [label="entropy = 0.0\nsamples = 3\nvalue = [0.0, 4.13, 0.0]\nclass = 1", fillcolor="#39e581"] ;
116 -> 117 ;
118 [label="entropy = -0.0\nsamples = 1\nvalue = [0.83, 0.0, 0.0]\nclass = 2", fillcolor="#e58139"] ;
116 -> 118 ;
119 [label="entropy = 0.0\nsamples = 58\nvalue = [0.0, 76.8, 0.0]\nclass = 1", fillcolor="#39e581"] ;
115 -> 119 ;
120 [label="entropy = -0.0\nsamples = 1\nvalue = [1.65, 0.0, 0.0]\nclass = 2", fillcolor="#e58139"] ;
114 -> 120 ;
121 [label="Value <= 24500000.0\nentropy = 0.77\nsamples = 25\nvalue = [0.0, 29.73, 8.63]\nclass = 1", fillcolor="#72eda6"] ;
113 -> 121 ;
122 [label="entropy = 0.0\nsamples = 2\nvalue = [0.0, 0.0, 3.45]\nclass = 0", fillcolor="#8139e5"] ;
121 -> 122 ;
123 [label="SprintSpeed <= 68.5\nentropy = 0.61\nsamples = 23\nvalue = [0.0, 29.73, 5.18]\nclass = 1", fillcolor="#5bea97"] ;
121 -> 123 ;
124 [label="StandingTackle <= 18.5\nentropy = 0.98\nsamples = 9\nvalue = [0.0, 7.43, 5.18]\nclass = 1", fillcolor="#c3f7d9"] ;
123 -> 124 ;
125 [label="entropy = 0.0\nsamples = 6\nvalue = [0.0, 7.43, 0.0]\nclass = 1", fillcolor="#39e581"] ;
124 -> 125 ;
126 [label="entropy = -0.0\nsamples = 3\nvalue = [0.0, 0.0, 5.18]\nclass = 0", fillcolor="#8139e5"] ;
124 -> 126 ;
127 [label="entropy = -0.0\nsamples = 14\nvalue = [0.0, 22.3, 0.0]\nclass = 1", fillcolor="#39e581"] ;
123 -> 127 ;
128 [label="Reactions <= 55.5\nentropy = 1.0\nsamples = 34\nvalue = [0.0, 29.73, 27.61]\nclass = 1", fillcolor="#f1fdf6"] ;
112 -> 128 ;
129 [label="RCM <= 58.0\nentropy = 0.93\nsamples = 22\nvalue = [0.0, 14.86, 27.61]\nclass = 0", fillcolor="#c5a4f3"] ;
128 -> 129 ;
130 [label="Volleys <= 62.0\nentropy = 0.56\nsamples = 11\nvalue = [0.0, 11.56, 1.73]\nclass = 1", fillcolor="#57e994"] ;
129 -> 130 ;
131 [label="entropy = 0.0\nsamples = 10\nvalue = [0.0, 11.56, 0.0]\nclass = 1", fillcolor="#39e581"] ;
130 -> 131 ;
132 [label="entropy = 0.0\nsamples = 1\nvalue = [0.0, 0.0, 1.73]\nclass = 0", fillcolor="#8139e5"] ;
130 -> 132 ;
133 [label="Height <= 5.95\nentropy = 0.51\nsamples = 11\nvalue = [0.0, 3.3, 25.88]\nclass = 0", fillcolor="#9152e8"] ;
129 -> 133 ;
134 [label="Balance <= 60.5\nentropy = 0.33\nsamples = 9\nvalue = [0.0, 1.65, 25.88]\nclass = 0", fillcolor="#8946e7"] ;
133 -> 134 ;
135 [label="entropy = 0.0\nsamples = 2\nvalue = [0.0, 1.65, 0.0]\nclass = 1", fillcolor="#39e581"] ;
134 -> 135 ;
136 [label="entropy = 0.0\nsamples = 7\nvalue = [0.0, 0.0, 25.88]\nclass = 0", fillcolor="#8139e5"] ;
134 -> 136 ;
137 [label="entropy = 0.0\nsamples = 2\nvalue = [0.0, 1.65, 0.0]\nclass = 1", fillcolor="#39e581"] ;
133 -> 137 ;
138 [label="entropy = 0.0\nsamples = 12\nvalue = [0.0, 14.86, 0.0]\nclass = 1", fillcolor="#39e581"] ;
128 -> 138 ;
139 [label="Overall <= 61.5\nentropy = 1.25\nsamples = 129\nvalue = [10.75, 99.1, 81.1]\nclass = 1", fillcolor="#dffbea"] ;
87 -> 139 ;
140 [label="Value <= 26500000.0\nentropy = 0.94\nsamples = 24\nvalue = [10.75, 18.99, 0.0]\nclass = 1", fillcolor="#a9f4c8"] ;
139 -> 140 ;
141 [label="GKReflexes <= 10.5\nentropy = 0.53\nsamples = 17\nvalue = [2.48, 18.17, 0.0]\nclass = 1", fillcolor="#54e992"] ;
140 -> 141 ;
142 [label="entropy = 0.0\nsamples = 12\nvalue = [0.0, 16.52, 0.0]\nclass = 1", fillcolor="#39e581"] ;
141 -> 142 ;
143 [label="LS <= 49.5\nentropy = 0.97\nsamples = 5\nvalue = [2.48, 1.65, 0.0]\nclass = 2", fillcolor="#f6d5bd"] ;
141 -> 143 ;
144 [label="entropy = 0.0\nsamples = 3\nvalue = [2.48, 0.0, 0.0]\nclass = 2", fillcolor="#e58139"] ;
143 -> 144 ;
145 [label="entropy = -0.0\nsamples = 2\nvalue = [0.0, 1.65, 0.0]\nclass = 1", fillcolor="#39e581"] ;
143 -> 145 ;
146 [label="Volleys <= 25.5\nentropy = 0.44\nsamples = 7\nvalue = [8.27, 0.83, 0.0]\nclass = 2", fillcolor="#e88e4d"] ;
140 -> 146 ;
147 [label="entropy = 0.0\nsamples = 1\nvalue = [0.0, 0.83, 0.0]\nclass = 1", fillcolor="#39e581"] ;
146 -> 147 ;
148 [label="entropy = 0.0\nsamples = 6\nvalue = [8.27, 0.0, 0.0]\nclass = 2", fillcolor="#e58139"] ;
146 -> 148 ;
149 [label="Acceleration <= 54.5\nentropy = 1.0\nsamples = 105\nvalue = [0.0, 80.11, 81.1]\nclass = 0", fillcolor="#fdfdff"] ;
139 -> 149 ;
150 [label="Crossing <= 34.0\nentropy = 0.73\nsamples = 27\nvalue = [0.0, 10.74, 41.41]\nclass = 0", fillcolor="#a26cec"] ;
149 -> 150 ;
151 [label="RB <= 54.5\nentropy = 0.98\nsamples = 11\nvalue = [0.0, 7.43, 5.18]\nclass = 1", fillcolor="#c3f7d9"] ;
150 -> 151 ;
152 [label="entropy = 0.0\nsamples = 2\nvalue = [0.0, 0.0, 3.45]\nclass = 0", fillcolor="#8139e5"] ;
151 -> 152 ;
153 [label="Agility <= 33.5\nentropy = 0.7\nsamples = 9\nvalue = [0.0, 7.43, 1.73]\nclass = 1", fillcolor="#67eb9e"] ;
151 -> 153 ;
154 [label="entropy = 0.0\nsamples = 1\nvalue = [0.0, 0.0, 1.73]\nclass = 0", fillcolor="#8139e5"] ;
153 -> 154 ;
155 [label="entropy = -0.0\nsamples = 8\nvalue = [0.0, 7.43, 0.0]\nclass = 1", fillcolor="#39e581"] ;
153 -> 155 ;
156 [label="FKAccuracy <= 35.0\nentropy = 0.41\nsamples = 16\nvalue = [0.0, 3.3, 36.24]\nclass = 0", fillcolor="#8c4be7"] ;
150 -> 156 ;
157 [label="SlidingTackle <= 59.5\nentropy = 0.15\nsamples = 13\nvalue = [0.0, 0.83, 36.24]\nclass = 0", fillcolor="#843ee6"] ;
156 -> 157 ;
158 [label="entropy = 0.0\nsamples = 1\nvalue = [0.0, 0.83, 0.0]\nclass = 1", fillcolor="#39e581"] ;
157 -> 158 ;
159 [label="entropy = 0.0\nsamples = 12\nvalue = [0.0, 0.0, 36.24]\nclass = 0", fillcolor="#8139e5"] ;
157 -> 159 ;
160 [label="entropy = 0.0\nsamples = 3\nvalue = [0.0, 2.48, 0.0]\nclass = 1", fillcolor="#39e581"] ;
156 -> 160 ;
161 [label="Volleys <= 52.5\nentropy = 0.95\nsamples = 78\nvalue = [0.0, 69.37, 39.69]\nclass = 1", fillcolor="#aaf4c9"] ;
149 -> 161 ;
162 [label="Weight <= 169.0\nentropy = 0.83\nsamples = 68\nvalue = [0.0, 63.59, 22.43]\nclass = 1", fillcolor="#7feead"] ;
161 -> 162 ;
163 [label="Reactions <= 56.5\nentropy = 0.97\nsamples = 42\nvalue = [0.0, 33.03, 22.43]\nclass = 1", fillcolor="#bff7d7"] ;
162 -> 163 ;
164 [label="Weak Foot <= 3.5\nentropy = 0.98\nsamples = 22\nvalue = [0.0, 14.86, 20.71]\nclass = 0", fillcolor="#dbc7f8"] ;
163 -> 164 ;
165 [label="Agility <= 74.5\nentropy = 0.86\nsamples = 19\nvalue = [0.0, 8.26, 20.71]\nclass = 0", fillcolor="#b388ef"] ;
164 -> 165 ;
166 [label="Marking <= 62.0\nentropy = 0.71\nsamples = 15\nvalue = [0.0, 4.95, 20.71]\nclass = 0", fillcolor="#9f68eb"] ;
165 -> 166 ;
167 [label="GKKicking <= 11.0\nentropy = 0.95\nsamples = 10\nvalue = [0.0, 4.95, 8.63]\nclass = 0", fillcolor="#c9abf4"] ;
166 -> 167 ;
168 [label="entropy = 0.0\nsamples = 5\nvalue = [0.0, 4.13, 0.0]\nclass = 1", fillcolor="#39e581"] ;
167 -> 168 ;
169 [label="CM <= 47.5\nentropy = 0.43\nsamples = 5\nvalue = [0.0, 0.83, 8.63]\nclass = 0", fillcolor="#8d4ce7"] ;
167 -> 169 ;
170 [label="entropy = 0.0\nsamples = 1\nvalue = [0.0, 0.83, 0.0]\nclass = 1", fillcolor="#39e581"] ;
169 -> 170 ;
171 [label="entropy = 0.0\nsamples = 4\nvalue = [0.0, 0.0, 8.63]\nclass = 0", fillcolor="#8139e5"] ;
169 -> 171 ;
172 [label="entropy = -0.0\nsamples = 5\nvalue = [0.0, 0.0, 12.08]\nclass = 0", fillcolor="#8139e5"] ;
166 -> 172 ;
173 [label="entropy = 0.0\nsamples = 4\nvalue = [0.0, 3.3, 0.0]\nclass = 1", fillcolor="#39e581"] ;
165 -> 173 ;
174 [label="entropy = 0.0\nsamples = 3\nvalue = [0.0, 6.61, 0.0]\nclass = 1", fillcolor="#39e581"] ;
164 -> 174 ;
175 [label="RCB <= 67.0\nentropy = 0.43\nsamples = 20\nvalue = [0.0, 18.17, 1.73]\nclass = 1", fillcolor="#4ce78d"] ;
163 -> 175 ;
176 [label="entropy = 0.0\nsamples = 19\nvalue = [0.0, 18.17, 0.0]\nclass = 1", fillcolor="#39e581"] ;
175 -> 176 ;
177 [label="entropy = -0.0\nsamples = 1\nvalue = [0.0, 0.0, 1.73]\nclass = 0", fillcolor="#8139e5"] ;
175 -> 177 ;
178 [label="entropy = 0.0\nsamples = 26\nvalue = [0.0, 30.56, 0.0]\nclass = 1", fillcolor="#39e581"] ;
162 -> 178 ;
179 [label="Penalties <= 52.0\nentropy = 0.81\nsamples = 10\nvalue = [0.0, 5.78, 17.25]\nclass = 0", fillcolor="#ab7bee"] ;
161 -> 179 ;
180 [label="Curve <= 41.5\nentropy = 0.43\nsamples = 7\nvalue = [0.0, 1.65, 17.25]\nclass = 0", fillcolor="#8d4ce7"] ;
179 -> 180 ;
181 [label="entropy = 0.0\nsamples = 2\nvalue = [0.0, 1.65, 0.0]\nclass = 1", fillcolor="#39e581"] ;
180 -> 181 ;
182 [label="entropy = 0.0\nsamples = 5\nvalue = [0.0, 0.0, 17.25]\nclass = 0", fillcolor="#8139e5"] ;
180 -> 182 ;
183 [label="entropy = 0.0\nsamples = 3\nvalue = [0.0, 4.13, 0.0]\nclass = 1", fillcolor="#39e581"] ;
179 -> 183 ;
184 [label="Value <= 33750000.0\nentropy = 0.59\nsamples = 1263\nvalue = [1480.72, 171.77, 27.61]\nclass = 2", fillcolor="#e89253"] ;
2 -> 184 ;
185 [label="Interceptions <= 64.5\nentropy = 0.27\nsamples = 657\nvalue = [848.25, 23.95, 10.35]\nclass = 2", fillcolor="#e68641"] ;
184 -> 185 ;
186 [label="Overall <= 66.5\nentropy = 0.16\nsamples = 639\nvalue = [835.02, 19.82, 0.0]\nclass = 2", fillcolor="#e6843e"] ;
185 -> 186 ;
187 [label="Overall <= 59.5\nentropy = 0.06\nsamples = 606\nvalue = [806.08, 5.78, 0.0]\nclass = 2", fillcolor="#e5823a"] ;
186 -> 187 ;
188 [label="entropy = -0.0\nsamples = 498\nvalue = [663.88, 0.0, 0.0]\nclass = 2", fillcolor="#e58139"] ;
187 -> 188 ;
189 [label="Curve <= 25.0\nentropy = 0.24\nsamples = 108\nvalue = [142.2, 5.78, 0.0]\nclass = 2", fillcolor="#e68641"] ;
187 -> 189 ;
190 [label="LWB <= 53.5\nentropy = 0.92\nsamples = 5\nvalue = [1.65, 3.3, 0.0]\nclass = 1", fillcolor="#9cf2c0"] ;
189 -> 190 ;
191 [label="entropy = 0.0\nsamples = 4\nvalue = [0.0, 3.3, 0.0]\nclass = 1", fillcolor="#39e581"] ;
190 -> 191 ;
192 [label="entropy = 0.0\nsamples = 1\nvalue = [1.65, 0.0, 0.0]\nclass = 2", fillcolor="#e58139"] ;
190 -> 192 ;
193 [label="GKDiving <= 13.5\nentropy = 0.13\nsamples = 103\nvalue = [140.55, 2.48, 0.0]\nclass = 2", fillcolor="#e5833c"] ;
189 -> 193 ;
194 [label="entropy = 0.0\nsamples = 77\nvalue = [109.96, 0.0, 0.0]\nclass = 2", fillcolor="#e58139"] ;
193 -> 194 ;
195 [label="Vision <= 43.0\nentropy = 0.38\nsamples = 26\nvalue = [30.59, 2.48, 0.0]\nclass = 2", fillcolor="#e78b49"] ;
193 -> 195 ;
196 [label="LongShots <= 28.5\nentropy = 0.99\nsamples = 6\nvalue = [3.31, 2.48, 0.0]\nclass = 2", fillcolor="#f8dfcd"] ;
195 -> 196 ;
197 [label="entropy = 0.0\nsamples = 3\nvalue = [3.31, 0.0, 0.0]\nclass = 2", fillcolor="#e58139"] ;
196 -> 197 ;
198 [label="entropy = -0.0\nsamples = 3\nvalue = [0.0, 2.48, 0.0]\nclass = 1", fillcolor="#39e581"] ;
196 -> 198 ;
199 [label="entropy = 0.0\nsamples = 20\nvalue = [27.28, 0.0, 0.0]\nclass = 2", fillcolor="#e58139"] ;
195 -> 199 ;
200 [label="LongPassing <= 41.5\nentropy = 0.91\nsamples = 33\nvalue = [28.94, 14.04, 0.0]\nclass = 2", fillcolor="#f2be99"] ;
186 -> 200 ;
201 [label="entropy = 0.0\nsamples = 4\nvalue = [0.0, 5.78, 0.0]\nclass = 1", fillcolor="#39e581"] ;
200 -> 201 ;
202 [label="Acceleration <= 70.0\nentropy = 0.76\nsamples = 29\nvalue = [28.94, 8.26, 0.0]\nclass = 2", fillcolor="#eca572"] ;
200 -> 202 ;
203 [label="entropy = 0.0\nsamples = 7\nvalue = [13.23, 0.0, 0.0]\nclass = 2", fillcolor="#e58139"] ;
202 -> 203 ;
204 [label="LCB <= 40.5\nentropy = 0.93\nsamples = 22\nvalue = [15.71, 8.26, 0.0]\nclass = 2", fillcolor="#f3c3a1"] ;
202 -> 204 ;
205 [label="entropy = 0.0\nsamples = 4\nvalue = [5.79, 0.0, 0.0]\nclass = 2", fillcolor="#e58139"] ;
204 -> 205 ;
206 [label="Potential <= 71.5\nentropy = 0.99\nsamples = 18\nvalue = [9.92, 8.26, 0.0]\nclass = 2", fillcolor="#fbeade"] ;
204 -> 206 ;
207 [label="entropy = 0.0\nsamples = 5\nvalue = [0.0, 5.78, 0.0]\nclass = 1", fillcolor="#39e581"] ;
206 -> 207 ;
208 [label="Positioning <= 59.5\nentropy = 0.72\nsamples = 13\nvalue = [9.92, 2.48, 0.0]\nclass = 2", fillcolor="#eba06a"] ;
206 -> 208 ;
209 [label="Composure <= 56.0\nentropy = 0.97\nsamples = 4\nvalue = [1.65, 2.48, 0.0]\nclass = 1", fillcolor="#bdf6d5"] ;
208 -> 209 ;
210 [label="entropy = 0.0\nsamples = 3\nvalue = [0.0, 2.48, 0.0]\nclass = 1", fillcolor="#39e581"] ;
209 -> 210 ;
211 [label="entropy = 0.0\nsamples = 1\nvalue = [1.65, 0.0, 0.0]\nclass = 2", fillcolor="#e58139"] ;
209 -> 211 ;
212 [label="entropy = 0.0\nsamples = 9\nvalue = [8.27, 0.0, 0.0]\nclass = 2", fillcolor="#e58139"] ;
208 -> 212 ;
213 [label="Potential <= 74.0\nentropy = 1.45\nsamples = 18\nvalue = [13.23, 4.13, 10.35]\nclass = 2", fillcolor="#fbeade"] ;
185 -> 213 ;
214 [label="GKDiving <= 9.5\nentropy = 0.71\nsamples = 7\nvalue = [0.0, 2.48, 10.35]\nclass = 0", fillcolor="#9f68eb"] ;
213 -> 214 ;
215 [label="entropy = 0.0\nsamples = 4\nvalue = [0.0, 0.0, 10.35]\nclass = 0", fillcolor="#8139e5"] ;
214 -> 215 ;
216 [label="entropy = 0.0\nsamples = 3\nvalue = [0.0, 2.48, 0.0]\nclass = 1", fillcolor="#39e581"] ;
214 -> 216 ;
217 [label="SlidingTackle <= 71.0\nentropy = 0.5\nsamples = 11\nvalue = [13.23, 1.65, 0.0]\nclass = 2", fillcolor="#e89152"] ;
213 -> 217 ;
218 [label="entropy = 0.0\nsamples = 9\nvalue = [13.23, 0.0, 0.0]\nclass = 2", fillcolor="#e58139"] ;
217 -> 218 ;
219 [label="entropy = 0.0\nsamples = 2\nvalue = [0.0, 1.65, 0.0]\nclass = 1", fillcolor="#39e581"] ;
217 -> 219 ;
220 [label="CB <= 64.5\nentropy = 0.84\nsamples = 606\nvalue = [632.47, 147.82, 17.25]\nclass = 2", fillcolor="#eca16b"] ;
184 -> 220 ;
221 [label="Overall <= 61.5\nentropy = 0.63\nsamples = 526\nvalue = [581.21, 94.14, 3.45]\nclass = 2", fillcolor="#e9965a"] ;
220 -> 221 ;
222 [label="Curve <= 69.5\nentropy = 0.04\nsamples = 159\nvalue = [184.37, 0.83, 0.0]\nclass = 2", fillcolor="#e5823a"] ;
221 -> 222 ;
223 [label="entropy = 0.0\nsamples = 158\nvalue = [184.37, 0.0, 0.0]\nclass = 2", fillcolor="#e58139"] ;
222 -> 223 ;
224 [label="entropy = -0.0\nsamples = 1\nvalue = [0.0, 0.83, 0.0]\nclass = 1", fillcolor="#39e581"] ;
222 -> 224 ;
225 [label="Potential <= 69.5\nentropy = 0.76\nsamples = 367\nvalue = [396.84, 93.32, 3.45]\nclass = 2", fillcolor="#eb9f69"] ;
221 -> 225 ;
226 [label="Overall <= 67.5\nentropy = 1.14\nsamples = 107\nvalue = [60.35, 74.32, 3.45]\nclass = 1", fillcolor="#dbfae8"] ;
225 -> 226 ;
227 [label="RCB <= 38.5\nentropy = 0.99\nsamples = 106\nvalue = [60.35, 74.32, 0.0]\nclass = 1", fillcolor="#dafae7"] ;
226 -> 227 ;
228 [label="entropy = 0.0\nsamples = 7\nvalue = [11.57, 0.0, 0.0]\nclass = 2", fillcolor="#e58139"] ;
227 -> 228 ;
229 [label="RWB <= 63.5\nentropy = 0.97\nsamples = 99\nvalue = [48.78, 74.32, 0.0]\nclass = 1", fillcolor="#bbf6d4"] ;
227 -> 229 ;
230 [label="Release Clause <= 61300000.0\nentropy = 0.99\nsamples = 85\nvalue = [48.78, 58.63, 0.0]\nclass = 1", fillcolor="#defbea"] ;
229 -> 230 ;
231 [label="Composure <= 47.5\nentropy = 0.74\nsamples = 31\nvalue = [9.09, 33.86, 0.0]\nclass = 1", fillcolor="#6eeca3"] ;
230 -> 231 ;
232 [label="entropy = 0.0\nsamples = 10\nvalue = [0.0, 16.52, 0.0]\nclass = 1", fillcolor="#39e581"] ;
231 -> 232 ;
233 [label="RWB <= 54.0\nentropy = 0.93\nsamples = 21\nvalue = [9.09, 17.34, 0.0]\nclass = 1", fillcolor="#a1f3c3"] ;
231 -> 233 ;
234 [label="entropy = 0.0\nsamples = 8\nvalue = [0.0, 10.74, 0.0]\nclass = 1", fillcolor="#39e581"] ;
233 -> 234 ;
235 [label="LongPassing <= 51.5\nentropy = 0.98\nsamples = 13\nvalue = [9.09, 6.61, 0.0]\nclass = 2", fillcolor="#f8ddc9"] ;
233 -> 235 ;
236 [label="entropy = 0.0\nsamples = 4\nvalue = [5.79, 0.0, 0.0]\nclass = 2", fillcolor="#e58139"] ;
235 -> 236 ;
237 [label="Value <= 63750000.0\nentropy = 0.92\nsamples = 9\nvalue = [3.31, 6.61, 0.0]\nclass = 1", fillcolor="#9cf2c0"] ;
235 -> 237 ;
238 [label="Release Clause <= 27800000.0\nentropy = 0.92\nsamples = 4\nvalue = [3.31, 1.65, 0.0]\nclass = 2", fillcolor="#f2c09c"] ;
237 -> 238 ;
239 [label="entropy = 0.0\nsamples = 3\nvalue = [3.31, 0.0, 0.0]\nclass = 2", fillcolor="#e58139"] ;
238 -> 239 ;
240 [label="entropy = -0.0\nsamples = 1\nvalue = [0.0, 1.65, 0.0]\nclass = 1", fillcolor="#39e581"] ;
238 -> 240 ;
241 [label="entropy = 0.0\nsamples = 5\nvalue = [0.0, 4.95, 0.0]\nclass = 1", fillcolor="#39e581"] ;
237 -> 241 ;
242 [label="Balance <= 72.5\nentropy = 0.96\nsamples = 54\nvalue = [39.68, 24.77, 0.0]\nclass = 2", fillcolor="#f5d0b5"] ;
230 -> 242 ;
243 [label="Potential <= 67.5\nentropy = 0.86\nsamples = 45\nvalue = [38.03, 14.86, 0.0]\nclass = 2", fillcolor="#efb286"] ;
242 -> 243 ;
244 [label="Composure <= 50.5\nentropy = 0.9\nsamples = 13\nvalue = [4.13, 9.08, 0.0]\nclass = 1", fillcolor="#93f1ba"] ;
243 -> 244 ;
245 [label="entropy = 0.0\nsamples = 4\nvalue = [4.13, 0.0, 0.0]\nclass = 2", fillcolor="#e58139"] ;
244 -> 245 ;
246 [label="entropy = 0.0\nsamples = 9\nvalue = [0.0, 9.08, 0.0]\nclass = 1", fillcolor="#39e581"] ;
244 -> 246 ;
247 [label="RB <= 55.5\nentropy = 0.6\nsamples = 32\nvalue = [33.9, 5.78, 0.0]\nclass = 2", fillcolor="#e9965b"] ;
243 -> 247 ;
248 [label="Strength <= 80.0\nentropy = 0.8\nsamples = 19\nvalue = [18.19, 5.78, 0.0]\nclass = 2", fillcolor="#eda978"] ;
247 -> 248 ;
249 [label="RCM <= 60.0\nentropy = 0.53\nsamples = 17\nvalue = [18.19, 2.48, 0.0]\nclass = 2", fillcolor="#e99254"] ;
248 -> 249 ;
250 [label="GKPositioning <= 14.5\nentropy = 0.26\nsamples = 15\nvalue = [18.19, 0.83, 0.0]\nclass = 2", fillcolor="#e68742"] ;
249 -> 250 ;
251 [label="entropy = 0.0\nsamples = 14\nvalue = [18.19, 0.0, 0.0]\nclass = 2", fillcolor="#e58139"] ;
250 -> 251 ;
252 [label="entropy = 0.0\nsamples = 1\nvalue = [0.0, 0.83, 0.0]\nclass = 1", fillcolor="#39e581"] ;
250 -> 252 ;
253 [label="entropy = 0.0\nsamples = 2\nvalue = [0.0, 1.65, 0.0]\nclass = 1", fillcolor="#39e581"] ;
249 -> 253 ;
254 [label="entropy = 0.0\nsamples = 2\nvalue = [0.0, 3.3, 0.0]\nclass = 1", fillcolor="#39e581"] ;
248 -> 254 ;
255 [label="entropy = -0.0\nsamples = 13\nvalue = [15.71, 0.0, 0.0]\nclass = 2", fillcolor="#e58139"] ;
247 -> 255 ;
256 [label="Reactions <= 56.5\nentropy = 0.59\nsamples = 9\nvalue = [1.65, 9.91, 0.0]\nclass = 1", fillcolor="#5ae996"] ;
242 -> 256 ;
257 [label="entropy = 0.0\nsamples = 6\nvalue = [0.0, 9.08, 0.0]\nclass = 1", fillcolor="#39e581"] ;
256 -> 257 ;
258 [label="CB <= 52.5\nentropy = 0.92\nsamples = 3\nvalue = [1.65, 0.83, 0.0]\nclass = 2", fillcolor="#f2c09c"] ;
256 -> 258 ;
259 [label="entropy = 0.0\nsamples = 2\nvalue = [1.65, 0.0, 0.0]\nclass = 2", fillcolor="#e58139"] ;
258 -> 259 ;
260 [label="entropy = -0.0\nsamples = 1\nvalue = [0.0, 0.83, 0.0]\nclass = 1", fillcolor="#39e581"] ;
258 -> 260 ;
261 [label="entropy = 0.0\nsamples = 14\nvalue = [0.0, 15.69, 0.0]\nclass = 1", fillcolor="#39e581"] ;
229 -> 261 ;
262 [label="entropy = -0.0\nsamples = 1\nvalue = [0.0, 0.0, 3.45]\nclass = 0", fillcolor="#8139e5"] ;
226 -> 262 ;
263 [label="Potential <= 72.5\nentropy = 0.3\nsamples = 260\nvalue = [336.49, 18.99, 0.0]\nclass = 2", fillcolor="#e68844"] ;
225 -> 263 ;
264 [label="Value <= 70000000.0\nentropy = 0.54\nsamples = 106\nvalue = [135.59, 18.99, 0.0]\nclass = 2", fillcolor="#e99355"] ;
263 -> 264 ;
265 [label="RWB <= 64.5\nentropy = 0.34\nsamples = 88\nvalue = [124.01, 8.26, 0.0]\nclass = 2", fillcolor="#e78946"] ;
264 -> 265 ;
266 [label="Balance <= 52.5\nentropy = 0.18\nsamples = 81\nvalue = [120.71, 3.3, 0.0]\nclass = 2", fillcolor="#e6843e"] ;
265 -> 266 ;
267 [label="Crossing <= 40.5\nentropy = 0.76\nsamples = 13\nvalue = [11.57, 3.3, 0.0]\nclass = 2", fillcolor="#eca572"] ;
266 -> 267 ;
268 [label="entropy = 0.0\nsamples = 10\nvalue = [11.57, 0.0, 0.0]\nclass = 2", fillcolor="#e58139"] ;
267 -> 268 ;
269 [label="entropy = 0.0\nsamples = 3\nvalue = [0.0, 3.3, 0.0]\nclass = 1", fillcolor="#39e581"] ;
267 -> 269 ;
270 [label="entropy = 0.0\nsamples = 68\nvalue = [109.13, 0.0, 0.0]\nclass = 2", fillcolor="#e58139"] ;
266 -> 270 ;
271 [label="ShotPower <= 48.0\nentropy = 0.97\nsamples = 7\nvalue = [3.31, 4.95, 0.0]\nclass = 1", fillcolor="#bdf6d5"] ;
265 -> 271 ;
272 [label="RWB <= 65.5\nentropy = 0.72\nsamples = 4\nvalue = [3.31, 0.83, 0.0]\nclass = 2", fillcolor="#eba06a"] ;
271 -> 272 ;
273 [label="entropy = -0.0\nsamples = 3\nvalue = [3.31, 0.0, 0.0]\nclass = 2", fillcolor="#e58139"] ;
272 -> 273 ;
274 [label="entropy = -0.0\nsamples = 1\nvalue = [0.0, 0.83, 0.0]\nclass = 1", fillcolor="#39e581"] ;
272 -> 274 ;
275 [label="entropy = 0.0\nsamples = 3\nvalue = [0.0, 4.13, 0.0]\nclass = 1", fillcolor="#39e581"] ;
271 -> 275 ;
276 [label="Potential <= 71.5\nentropy = 1.0\nsamples = 18\nvalue = [11.57, 10.74, 0.0]\nclass = 2", fillcolor="#fdf6f1"] ;
264 -> 276 ;
277 [label="GKPositioning <= 7.5\nentropy = 0.81\nsamples = 12\nvalue = [3.31, 9.91, 0.0]\nclass = 1", fillcolor="#7beeab"] ;
276 -> 277 ;
278 [label="entropy = 0.0\nsamples = 5\nvalue = [0.0, 6.61, 0.0]\nclass = 1", fillcolor="#39e581"] ;
277 -> 278 ;
279 [label="Interceptions <= 29.5\nentropy = 1.0\nsamples = 7\nvalue = [3.31, 3.3, 0.0]\nclass = 2", fillcolor="#ffffff"] ;
277 -> 279 ;
280 [label="entropy = 0.0\nsamples = 3\nvalue = [2.48, 0.0, 0.0]\nclass = 2", fillcolor="#e58139"] ;
279 -> 280 ;
281 [label="Composure <= 56.5\nentropy = 0.72\nsamples = 4\nvalue = [0.83, 3.3, 0.0]\nclass = 1", fillcolor="#6beca1"] ;
279 -> 281 ;
282 [label="entropy = 0.0\nsamples = 3\nvalue = [0.0, 3.3, 0.0]\nclass = 1", fillcolor="#39e581"] ;
281 -> 282 ;
283 [label="entropy = -0.0\nsamples = 1\nvalue = [0.83, 0.0, 0.0]\nclass = 2", fillcolor="#e58139"] ;
281 -> 283 ;
284 [label="LAM <= 66.5\nentropy = 0.44\nsamples = 6\nvalue = [8.27, 0.83, 0.0]\nclass = 2", fillcolor="#e88e4d"] ;
276 -> 284 ;
285 [label="entropy = 0.0\nsamples = 5\nvalue = [8.27, 0.0, 0.0]\nclass = 2", fillcolor="#e58139"] ;
284 -> 285 ;
286 [label="entropy = 0.0\nsamples = 1\nvalue = [0.0, 0.83, 0.0]\nclass = 1", fillcolor="#39e581"] ;
284 -> 286 ;
287 [label="entropy = -0.0\nsamples = 154\nvalue = [200.9, 0.0, 0.0]\nclass = 2", fillcolor="#e58139"] ;
263 -> 287 ;
288 [label="Potential <= 69.5\nentropy = 1.4\nsamples = 80\nvalue = [51.26, 53.68, 13.8]\nclass = 1", fillcolor="#f8fefa"] ;
220 -> 288 ;
289 [label="Positioning <= 57.0\nentropy = 1.27\nsamples = 36\nvalue = [6.61, 36.34, 13.8]\nclass = 1", fillcolor="#97f1bd"] ;
288 -> 289 ;
290 [label="Value <= 47500000.0\nentropy = 1.06\nsamples = 33\nvalue = [6.61, 35.51, 5.18]\nclass = 1", fillcolor="#72eda6"] ;
289 -> 290 ;
291 [label="Vision <= 50.5\nentropy = 0.98\nsamples = 4\nvalue = [2.48, 0.0, 3.45]\nclass = 0", fillcolor="#dcc7f8"] ;
290 -> 291 ;
292 [label="entropy = 0.0\nsamples = 2\nvalue = [0.0, 0.0, 3.45]\nclass = 0", fillcolor="#8139e5"] ;
291 -> 292 ;
293 [label="entropy = 0.0\nsamples = 2\nvalue = [2.48, 0.0, 0.0]\nclass = 2", fillcolor="#e58139"] ;
291 -> 293 ;
294 [label="StandingTackle <= 63.5\nentropy = 0.71\nsamples = 29\nvalue = [4.13, 35.51, 1.73]\nclass = 1", fillcolor="#58e995"] ;
290 -> 294 ;
295 [label="LongShots <= 29.0\nentropy = 1.5\nsamples = 6\nvalue = [4.13, 3.3, 1.73]\nclass = 2", fillcolor="#fbede3"] ;
294 -> 295 ;
296 [label="entropy = 0.0\nsamples = 3\nvalue = [4.13, 0.0, 0.0]\nclass = 2", fillcolor="#e58139"] ;
295 -> 296 ;
297 [label="RM <= 51.5\nentropy = 0.93\nsamples = 3\nvalue = [0.0, 3.3, 1.73]\nclass = 1", fillcolor="#a0f3c3"] ;
295 -> 297 ;
298 [label="entropy = 0.0\nsamples = 1\nvalue = [0.0, 0.0, 1.73]\nclass = 0", fillcolor="#8139e5"] ;
297 -> 298 ;
299 [label="entropy = 0.0\nsamples = 2\nvalue = [0.0, 3.3, 0.0]\nclass = 1", fillcolor="#39e581"] ;
297 -> 299 ;
300 [label="entropy = 0.0\nsamples = 23\nvalue = [0.0, 32.21, 0.0]\nclass = 1", fillcolor="#39e581"] ;
294 -> 300 ;
301 [label="Composure <= 55.5\nentropy = 0.43\nsamples = 3\nvalue = [0.0, 0.83, 8.63]\nclass = 0", fillcolor="#8d4ce7"] ;
289 -> 301 ;
302 [label="entropy = 0.0\nsamples = 1\nvalue = [0.0, 0.83, 0.0]\nclass = 1", fillcolor="#39e581"] ;
301 -> 302 ;
303 [label="entropy = 0.0\nsamples = 2\nvalue = [0.0, 0.0, 8.63]\nclass = 0", fillcolor="#8139e5"] ;
301 -> 303 ;
304 [label="FKAccuracy <= 23.0\nentropy = 0.86\nsamples = 44\nvalue = [44.64, 17.34, 0.0]\nclass = 2", fillcolor="#efb286"] ;
288 -> 304 ;
305 [label="Reactions <= 55.5\nentropy = 0.47\nsamples = 4\nvalue = [0.83, 7.43, 0.0]\nclass = 1", fillcolor="#4fe88f"] ;
304 -> 305 ;
306 [label="entropy = 0.0\nsamples = 3\nvalue = [0.0, 7.43, 0.0]\nclass = 1", fillcolor="#39e581"] ;
305 -> 306 ;
307 [label="entropy = -0.0\nsamples = 1\nvalue = [0.83, 0.0, 0.0]\nclass = 2", fillcolor="#e58139"] ;
305 -> 307 ;
308 [label="RCB <= 66.5\nentropy = 0.69\nsamples = 40\nvalue = [43.82, 9.91, 0.0]\nclass = 2", fillcolor="#eb9d66"] ;
304 -> 308 ;
309 [label="Marking <= 59.5\nentropy = 0.33\nsamples = 28\nvalue = [38.03, 2.48, 0.0]\nclass = 2", fillcolor="#e78946"] ;
308 -> 309 ;
310 [label="Balance <= 57.0\nentropy = 0.97\nsamples = 3\nvalue = [1.65, 2.48, 0.0]\nclass = 1", fillcolor="#bdf6d5"] ;
309 -> 310 ;
311 [label="entropy = 0.0\nsamples = 2\nvalue = [0.0, 2.48, 0.0]\nclass = 1", fillcolor="#39e581"] ;
310 -> 311 ;
312 [label="entropy = 0.0\nsamples = 1\nvalue = [1.65, 0.0, 0.0]\nclass = 2", fillcolor="#e58139"] ;
310 -> 312 ;
313 [label="entropy = 0.0\nsamples = 25\nvalue = [36.38, 0.0, 0.0]\nclass = 2", fillcolor="#e58139"] ;
309 -> 313 ;
314 [label="Agility <= 52.5\nentropy = 0.99\nsamples = 12\nvalue = [5.79, 7.43, 0.0]\nclass = 1", fillcolor="#d3f9e3"] ;
308 -> 314 ;
315 [label="entropy = 0.0\nsamples = 3\nvalue = [0.0, 4.13, 0.0]\nclass = 1", fillcolor="#39e581"] ;
314 -> 315 ;
316 [label="LongPassing <= 60.5\nentropy = 0.95\nsamples = 9\nvalue = [5.79, 3.3, 0.0]\nclass = 2", fillcolor="#f4c9aa"] ;
314 -> 316 ;
317 [label="GKDiving <= 8.5\nentropy = 0.54\nsamples = 7\nvalue = [5.79, 0.83, 0.0]\nclass = 2", fillcolor="#e99355"] ;
316 -> 317 ;
318 [label="entropy = 0.0\nsamples = 1\nvalue = [0.0, 0.83, 0.0]\nclass = 1", fillcolor="#39e581"] ;
317 -> 318 ;
319 [label="entropy = 0.0\nsamples = 6\nvalue = [5.79, 0.0, 0.0]\nclass = 2", fillcolor="#e58139"] ;
317 -> 319 ;
320 [label="entropy = 0.0\nsamples = 2\nvalue = [0.0, 2.48, 0.0]\nclass = 1", fillcolor="#39e581"] ;
316 -> 320 ;
321 [label="Interceptions <= 63.5\nentropy = 1.58\nsamples = 907\nvalue = [459.67, 554.13, 441.73]\nclass = 1", fillcolor="#ecfdf3"] ;
1 -> 321 ;
322 [label="Potential <= 68.5\nentropy = 1.56\nsamples = 618\nvalue = [377.83, 357.58, 239.84]\nclass = 2", fillcolor="#fefbf9"] ;
321 -> 322 ;
323 [label="Special <= 1630.5\nentropy = 1.34\nsamples = 296\nvalue = [46.3, 248.57, 227.77]\nclass = 1", fillcolor="#f1fdf6"] ;
322 -> 323 ;
324 [label="Value <= 23500000.0\nentropy = 1.46\nsamples = 158\nvalue = [43.82, 126.35, 79.37]\nclass = 1", fillcolor="#c8f8dc"] ;
323 -> 324 ;
325 [label="Potential <= 65.0\nentropy = 1.49\nsamples = 50\nvalue = [32.24, 16.52, 43.14]\nclass = 0", fillcolor="#e8dbfa"] ;
324 -> 325 ;
326 [label="Acceleration <= 60.5\nentropy = 1.29\nsamples = 33\nvalue = [8.27, 15.69, 41.41]\nclass = 0", fillcolor="#be98f2"] ;
325 -> 326 ;
327 [label="ShotPower <= 53.0\nentropy = 0.29\nsamples = 13\nvalue = [0.0, 1.65, 31.06]\nclass = 0", fillcolor="#8844e6"] ;
326 -> 327 ;
328 [label="entropy = 0.0\nsamples = 9\nvalue = [0.0, 0.0, 27.61]\nclass = 0", fillcolor="#8139e5"] ;
327 -> 328 ;
329 [label="Curve <= 51.5\nentropy = 0.91\nsamples = 4\nvalue = [0.0, 1.65, 3.45]\nclass = 0", fillcolor="#bd98f1"] ;
327 -> 329 ;
330 [label="entropy = 0.0\nsamples = 2\nvalue = [0.0, 0.0, 3.45]\nclass = 0", fillcolor="#8139e5"] ;
329 -> 330 ;
331 [label="entropy = -0.0\nsamples = 2\nvalue = [0.0, 1.65, 0.0]\nclass = 1", fillcolor="#39e581"] ;
329 -> 331 ;
332 [label="Overall <= 59.5\nentropy = 1.55\nsamples = 20\nvalue = [8.27, 14.04, 10.35]\nclass = 1", fillcolor="#defbea"] ;
326 -> 332 ;
333 [label="Special <= 1523.0\nentropy = 0.99\nsamples = 11\nvalue = [7.44, 9.91, 0.0]\nclass = 1", fillcolor="#cef9e0"] ;
332 -> 333 ;
334 [label="entropy = 0.0\nsamples = 5\nvalue = [7.44, 0.0, 0.0]\nclass = 2", fillcolor="#e58139"] ;
333 -> 334 ;
335 [label="entropy = 0.0\nsamples = 6\nvalue = [0.0, 9.91, 0.0]\nclass = 1", fillcolor="#39e581"] ;
333 -> 335 ;
336 [label="LS <= 49.5\nentropy = 1.12\nsamples = 9\nvalue = [0.83, 4.13, 10.35]\nclass = 0", fillcolor="#b991f1"] ;
332 -> 336 ;
337 [label="SprintSpeed <= 66.5\nentropy = 0.81\nsamples = 3\nvalue = [0.83, 2.48, 0.0]\nclass = 1", fillcolor="#7beeab"] ;
336 -> 337 ;
338 [label="entropy = 0.0\nsamples = 2\nvalue = [0.0, 2.48, 0.0]\nclass = 1", fillcolor="#39e581"] ;
337 -> 338 ;
339 [label="entropy = -0.0\nsamples = 1\nvalue = [0.83, 0.0, 0.0]\nclass = 2", fillcolor="#e58139"] ;
337 -> 339 ;
340 [label="Stamina <= 56.0\nentropy = 0.58\nsamples = 6\nvalue = [0.0, 1.65, 10.35]\nclass = 0", fillcolor="#9559e9"] ;
336 -> 340 ;
341 [label="entropy = 0.0\nsamples = 1\nvalue = [0.0, 1.65, 0.0]\nclass = 1", fillcolor="#39e581"] ;
340 -> 341 ;
342 [label="entropy = 0.0\nsamples = 5\nvalue = [0.0, 0.0, 10.35]\nclass = 0", fillcolor="#8139e5"] ;
340 -> 342 ;
343 [label="RF <= 49.5\nentropy = 0.54\nsamples = 17\nvalue = [23.98, 0.83, 1.73]\nclass = 2", fillcolor="#e88e4d"] ;
325 -> 343 ;
344 [label="Curve <= 44.5\nentropy = 0.91\nsamples = 2\nvalue = [0.0, 0.83, 1.73]\nclass = 0", fillcolor="#bd98f1"] ;
343 -> 344 ;
345 [label="entropy = 0.0\nsamples = 1\nvalue = [0.0, 0.0, 1.73]\nclass = 0", fillcolor="#8139e5"] ;
344 -> 345 ;
346 [label="entropy = -0.0\nsamples = 1\nvalue = [0.0, 0.83, 0.0]\nclass = 1", fillcolor="#39e581"] ;
344 -> 346 ;
347 [label="entropy = 0.0\nsamples = 15\nvalue = [23.98, 0.0, 0.0]\nclass = 2", fillcolor="#e58139"] ;
343 -> 347 ;
348 [label="LongPassing <= 34.5\nentropy = 1.13\nsamples = 108\nvalue = [11.57, 109.84, 36.24]\nclass = 1", fillcolor="#87efb3"] ;
324 -> 348 ;
349 [label="GKReflexes <= 10.5\nentropy = 0.99\nsamples = 14\nvalue = [0.0, 13.21, 17.25]\nclass = 0", fillcolor="#e1d1f9"] ;
348 -> 349 ;
350 [label="Curve <= 36.0\nentropy = 0.62\nsamples = 6\nvalue = [0.0, 2.48, 13.8]\nclass = 0", fillcolor="#985dea"] ;
349 -> 350 ;
351 [label="entropy = 0.0\nsamples = 2\nvalue = [0.0, 2.48, 0.0]\nclass = 1", fillcolor="#39e581"] ;
350 -> 351 ;
352 [label="entropy = 0.0\nsamples = 4\nvalue = [0.0, 0.0, 13.8]\nclass = 0", fillcolor="#8139e5"] ;
350 -> 352 ;
353 [label="Interceptions <= 16.0\nentropy = 0.8\nsamples = 8\nvalue = [0.0, 10.74, 3.45]\nclass = 1", fillcolor="#79edaa"] ;
349 -> 353 ;
354 [label="entropy = 0.0\nsamples = 1\nvalue = [0.0, 0.0, 3.45]\nclass = 0", fillcolor="#8139e5"] ;
353 -> 354 ;
355 [label="entropy = 0.0\nsamples = 7\nvalue = [0.0, 10.74, 0.0]\nclass = 1", fillcolor="#39e581"] ;
353 -> 355 ;
356 [label="Composure <= 51.5\nentropy = 1.03\nsamples = 94\nvalue = [11.57, 96.62, 18.98]\nclass = 1", fillcolor="#71eca5"] ;
348 -> 356 ;
357 [label="Stamina <= 41.0\nentropy = 0.58\nsamples = 33\nvalue = [6.61, 41.29, 0.0]\nclass = 1", fillcolor="#59e995"] ;
356 -> 357 ;
358 [label="entropy = 0.0\nsamples = 2\nvalue = [4.13, 0.0, 0.0]\nclass = 2", fillcolor="#e58139"] ;
357 -> 358 ;
359 [label="Overall <= 60.5\nentropy = 0.31\nsamples = 31\nvalue = [2.48, 41.29, 0.0]\nclass = 1", fillcolor="#45e789"] ;
357 -> 359 ;
360 [label="entropy = 0.0\nsamples = 2\nvalue = [1.65, 0.0, 0.0]\nclass = 2", fillcolor="#e58139"] ;
359 -> 360 ;
361 [label="GKHandling <= 5.5\nentropy = 0.14\nsamples = 29\nvalue = [0.83, 41.29, 0.0]\nclass = 1", fillcolor="#3de684"] ;
359 -> 361 ;
362 [label="entropy = 0.0\nsamples = 1\nvalue = [0.83, 0.0, 0.0]\nclass = 2", fillcolor="#e58139"] ;
361 -> 362 ;
363 [label="entropy = 0.0\nsamples = 28\nvalue = [0.0, 41.29, 0.0]\nclass = 1", fillcolor="#39e581"] ;
361 -> 363 ;
364 [label="LCB <= 40.5\nentropy = 1.11\nsamples = 61\nvalue = [4.96, 55.33, 18.98]\nclass = 1", fillcolor="#88efb3"] ;
356 -> 364 ;
365 [label="Stamina <= 58.0\nentropy = 0.96\nsamples = 11\nvalue = [0.0, 6.61, 10.35]\nclass = 0", fillcolor="#d1b7f6"] ;
364 -> 365 ;
366 [label="entropy = 0.0\nsamples = 5\nvalue = [0.0, 4.95, 0.0]\nclass = 1", fillcolor="#39e581"] ;
365 -> 366 ;
367 [label="Aggression <= 38.5\nentropy = 0.58\nsamples = 6\nvalue = [0.0, 1.65, 10.35]\nclass = 0", fillcolor="#9559e9"] ;
365 -> 367 ;
368 [label="entropy = 0.0\nsamples = 2\nvalue = [0.0, 1.65, 0.0]\nclass = 1", fillcolor="#39e581"] ;
367 -> 368 ;
369 [label="entropy = 0.0\nsamples = 4\nvalue = [0.0, 0.0, 10.35]\nclass = 0", fillcolor="#8139e5"] ;
367 -> 369 ;
370 [label="SprintSpeed <= 43.0\nentropy = 0.96\nsamples = 50\nvalue = [4.96, 48.72, 8.63]\nclass = 1", fillcolor="#6beca1"] ;
364 -> 370 ;
371 [label="entropy = 0.0\nsamples = 3\nvalue = [0.0, 0.0, 5.18]\nclass = 0", fillcolor="#8139e5"] ;
370 -> 371 ;
372 [label="Finishing <= 11.5\nentropy = 0.75\nsamples = 47\nvalue = [4.96, 48.72, 3.45]\nclass = 1", fillcolor="#59e995"] ;
370 -> 372 ;
373 [label="entropy = 0.0\nsamples = 1\nvalue = [0.0, 0.0, 1.73]\nclass = 0", fillcolor="#8139e5"] ;
372 -> 373 ;
374 [label="Marking <= 22.5\nentropy = 0.63\nsamples = 46\nvalue = [4.96, 48.72, 1.73]\nclass = 1", fillcolor="#53e892"] ;
372 -> 374 ;
375 [label="GKKicking <= 11.0\nentropy = 0.91\nsamples = 2\nvalue = [0.0, 0.83, 1.73]\nclass = 0", fillcolor="#bd98f1"] ;
374 -> 375 ;
376 [label="entropy = 0.0\nsamples = 1\nvalue = [0.0, 0.0, 1.73]\nclass = 0", fillcolor="#8139e5"] ;
375 -> 376 ;
377 [label="entropy = -0.0\nsamples = 1\nvalue = [0.0, 0.83, 0.0]\nclass = 1", fillcolor="#39e581"] ;
375 -> 377 ;
378 [label="Finishing <= 38.5\nentropy = 0.45\nsamples = 44\nvalue = [4.96, 47.9, 0.0]\nclass = 1", fillcolor="#4ee88e"] ;
374 -> 378 ;
379 [label="entropy = 0.0\nsamples = 24\nvalue = [0.0, 27.25, 0.0]\nclass = 1", fillcolor="#39e581"] ;
378 -> 379 ;
380 [label="RF <= 59.5\nentropy = 0.71\nsamples = 20\nvalue = [4.96, 20.65, 0.0]\nclass = 1", fillcolor="#69eb9f"] ;
378 -> 380 ;
381 [label="Special <= 1594.5\nentropy = 1.0\nsamples = 10\nvalue = [4.96, 4.95, 0.0]\nclass = 2", fillcolor="#ffffff"] ;
380 -> 381 ;
382 [label="LM <= 53.0\nentropy = 0.59\nsamples = 6\nvalue = [4.96, 0.83, 0.0]\nclass = 2", fillcolor="#e9965a"] ;
381 -> 382 ;
383 [label="entropy = 0.0\nsamples = 1\nvalue = [0.0, 0.83, 0.0]\nclass = 1", fillcolor="#39e581"] ;
382 -> 383 ;
384 [label="entropy = 0.0\nsamples = 5\nvalue = [4.96, 0.0, 0.0]\nclass = 2", fillcolor="#e58139"] ;
382 -> 384 ;
385 [label="entropy = 0.0\nsamples = 4\nvalue = [0.0, 4.13, 0.0]\nclass = 1", fillcolor="#39e581"] ;
381 -> 385 ;
386 [label="entropy = -0.0\nsamples = 10\nvalue = [0.0, 15.69, 0.0]\nclass = 1", fillcolor="#39e581"] ;
380 -> 386 ;
387 [label="Value <= 31250000.0\nentropy = 1.06\nsamples = 138\nvalue = [2.48, 122.22, 148.39]\nclass = 0", fillcolor="#e9ddfa"] ;
323 -> 387 ;
388 [label="Crossing <= 40.5\nentropy = 0.68\nsamples = 32\nvalue = [2.48, 9.08, 72.47]\nclass = 0", fillcolor="#9458e9"] ;
387 -> 388 ;
389 [label="entropy = 0.0\nsamples = 2\nvalue = [0.0, 3.3, 0.0]\nclass = 1", fillcolor="#39e581"] ;
388 -> 389 ;
390 [label="SprintSpeed <= 74.0\nentropy = 0.57\nsamples = 30\nvalue = [2.48, 5.78, 72.47]\nclass = 0", fillcolor="#8f4fe8"] ;
388 -> 390 ;
391 [label="Weight <= 144.5\nentropy = 0.31\nsamples = 26\nvalue = [0.0, 4.13, 70.75]\nclass = 0", fillcolor="#8845e7"] ;
390 -> 391 ;
392 [label="entropy = 0.0\nsamples = 2\nvalue = [0.0, 2.48, 0.0]\nclass = 1", fillcolor="#39e581"] ;
391 -> 392 ;
393 [label="Agility <= 82.0\nentropy = 0.16\nsamples = 24\nvalue = [0.0, 1.65, 70.75]\nclass = 0", fillcolor="#843ee6"] ;
391 -> 393 ;
394 [label="Overall <= 61.5\nentropy = 0.09\nsamples = 22\nvalue = [0.0, 0.83, 69.02]\nclass = 0", fillcolor="#833be5"] ;
393 -> 394 ;
395 [label="LongPassing <= 57.5\nentropy = 0.71\nsamples = 3\nvalue = [0.0, 0.83, 3.45]\nclass = 0", fillcolor="#9f68eb"] ;
394 -> 395 ;
396 [label="entropy = 0.0\nsamples = 2\nvalue = [0.0, 0.0, 3.45]\nclass = 0", fillcolor="#8139e5"] ;
395 -> 396 ;
397 [label="entropy = -0.0\nsamples = 1\nvalue = [0.0, 0.83, 0.0]\nclass = 1", fillcolor="#39e581"] ;
395 -> 397 ;
398 [label="entropy = 0.0\nsamples = 19\nvalue = [0.0, 0.0, 65.57]\nclass = 0", fillcolor="#8139e5"] ;
394 -> 398 ;
399 [label="Strength <= 72.0\nentropy = 0.91\nsamples = 2\nvalue = [0.0, 0.83, 1.73]\nclass = 0", fillcolor="#bd98f1"] ;
393 -> 399 ;
400 [label="entropy = 0.0\nsamples = 1\nvalue = [0.0, 0.0, 1.73]\nclass = 0", fillcolor="#8139e5"] ;
399 -> 400 ;
401 [label="entropy = -0.0\nsamples = 1\nvalue = [0.0, 0.83, 0.0]\nclass = 1", fillcolor="#39e581"] ;
399 -> 401 ;
402 [label="Release Clause <= 39150000.0\nentropy = 1.56\nsamples = 4\nvalue = [2.48, 1.65, 1.73]\nclass = 2", fillcolor="#fae8db"] ;
390 -> 402 ;
403 [label="ShotPower <= 63.5\nentropy = 1.0\nsamples = 2\nvalue = [0.0, 1.65, 1.73]\nclass = 0", fillcolor="#faf7fe"] ;
402 -> 403 ;
404 [label="entropy = 0.0\nsamples = 1\nvalue = [0.0, 1.65, 0.0]\nclass = 1", fillcolor="#39e581"] ;
403 -> 404 ;
405 [label="entropy = -0.0\nsamples = 1\nvalue = [0.0, 0.0, 1.73]\nclass = 0", fillcolor="#8139e5"] ;
403 -> 405 ;
406 [label="entropy = -0.0\nsamples = 2\nvalue = [2.48, 0.0, 0.0]\nclass = 2", fillcolor="#e58139"] ;
402 -> 406 ;
407 [label="RWB <= 54.5\nentropy = 0.97\nsamples = 106\nvalue = [0.0, 113.14, 75.92]\nclass = 1", fillcolor="#bef6d6"] ;
387 -> 407 ;
408 [label="SlidingTackle <= 19.5\nentropy = 0.72\nsamples = 19\nvalue = [0.0, 10.74, 43.14]\nclass = 0", fillcolor="#a06aeb"] ;
407 -> 408 ;
409 [label="Acceleration <= 76.0\nentropy = 0.87\nsamples = 7\nvalue = [0.0, 8.26, 3.45]\nclass = 1", fillcolor="#8cf0b6"] ;
408 -> 409 ;
410 [label="entropy = 0.0\nsamples = 4\nvalue = [0.0, 7.43, 0.0]\nclass = 1", fillcolor="#39e581"] ;
409 -> 410 ;
411 [label="FKAccuracy <= 62.5\nentropy = 0.71\nsamples = 3\nvalue = [0.0, 0.83, 3.45]\nclass = 0", fillcolor="#9f68eb"] ;
409 -> 411 ;
412 [label="entropy = 0.0\nsamples = 2\nvalue = [0.0, 0.0, 3.45]\nclass = 0", fillcolor="#8139e5"] ;
411 -> 412 ;
413 [label="entropy = -0.0\nsamples = 1\nvalue = [0.0, 0.83, 0.0]\nclass = 1", fillcolor="#39e581"] ;
411 -> 413 ;
414 [label="RW <= 66.5\nentropy = 0.32\nsamples = 12\nvalue = [0.0, 2.48, 39.69]\nclass = 0", fillcolor="#8945e7"] ;
408 -> 414 ;
415 [label="entropy = 0.0\nsamples = 9\nvalue = [0.0, 0.0, 37.96]\nclass = 0", fillcolor="#8139e5"] ;
414 -> 415 ;
416 [label="CB <= 47.0\nentropy = 0.98\nsamples = 3\nvalue = [0.0, 2.48, 1.73]\nclass = 1", fillcolor="#c3f7d9"] ;
414 -> 416 ;
417 [label="entropy = 0.0\nsamples = 2\nvalue = [0.0, 2.48, 0.0]\nclass = 1", fillcolor="#39e581"] ;
416 -> 417 ;
418 [label="entropy = 0.0\nsamples = 1\nvalue = [0.0, 0.0, 1.73]\nclass = 0", fillcolor="#8139e5"] ;
416 -> 418 ;
419 [label="LS <= 64.5\nentropy = 0.8\nsamples = 87\nvalue = [0.0, 102.4, 32.78]\nclass = 1", fillcolor="#78eda9"] ;
407 -> 419 ;
420 [label="LongPassing <= 56.5\nentropy = 0.89\nsamples = 71\nvalue = [0.0, 74.32, 32.78]\nclass = 1", fillcolor="#90f0b9"] ;
419 -> 420 ;
421 [label="StandingTackle <= 40.5\nentropy = 0.3\nsamples = 23\nvalue = [0.0, 30.56, 1.73]\nclass = 1", fillcolor="#44e688"] ;
420 -> 421 ;
422 [label="Curve <= 58.5\nentropy = 0.91\nsamples = 2\nvalue = [0.0, 0.83, 1.73]\nclass = 0", fillcolor="#bd98f1"] ;
421 -> 422 ;
423 [label="entropy = 0.0\nsamples = 1\nvalue = [0.0, 0.0, 1.73]\nclass = 0", fillcolor="#8139e5"] ;
422 -> 423 ;
424 [label="entropy = -0.0\nsamples = 1\nvalue = [0.0, 0.83, 0.0]\nclass = 1", fillcolor="#39e581"] ;
422 -> 424 ;
425 [label="entropy = -0.0\nsamples = 21\nvalue = [0.0, 29.73, 0.0]\nclass = 1", fillcolor="#39e581"] ;
421 -> 425 ;
426 [label="ShortPassing <= 58.5\nentropy = 0.98\nsamples = 48\nvalue = [0.0, 43.77, 31.06]\nclass = 1", fillcolor="#c6f7da"] ;
420 -> 426 ;
427 [label="entropy = 0.0\nsamples = 3\nvalue = [0.0, 0.0, 12.08]\nclass = 0", fillcolor="#8139e5"] ;
426 -> 427 ;
428 [label="Wage <= 250000.0\nentropy = 0.88\nsamples = 45\nvalue = [0.0, 43.77, 18.98]\nclass = 1", fillcolor="#8ff0b8"] ;
426 -> 428 ;
429 [label="entropy = 0.0\nsamples = 24\nvalue = [0.0, 32.21, 0.0]\nclass = 1", fillcolor="#39e581"] ;
428 -> 429 ;
430 [label="GKHandling <= 8.5\nentropy = 0.96\nsamples = 21\nvalue = [0.0, 11.56, 18.98]\nclass = 0", fillcolor="#ceb2f5"] ;
428 -> 430 ;
431 [label="entropy = 0.0\nsamples = 6\nvalue = [0.0, 7.43, 0.0]\nclass = 1", fillcolor="#39e581"] ;
430 -> 431 ;
432 [label="Jumping <= 47.5\nentropy = 0.68\nsamples = 15\nvalue = [0.0, 4.13, 18.98]\nclass = 0", fillcolor="#9c64eb"] ;
430 -> 432 ;
433 [label="entropy = 0.0\nsamples = 2\nvalue = [0.0, 1.65, 0.0]\nclass = 1", fillcolor="#39e581"] ;
432 -> 433 ;
434 [label="SprintSpeed <= 69.0\nentropy = 0.52\nsamples = 13\nvalue = [0.0, 2.48, 18.98]\nclass = 0", fillcolor="#9153e8"] ;
432 -> 434 ;
435 [label="entropy = 0.0\nsamples = 6\nvalue = [0.0, 0.0, 12.08]\nclass = 0", fillcolor="#8139e5"] ;
434 -> 435 ;
436 [label="RW <= 64.5\nentropy = 0.83\nsamples = 7\nvalue = [0.0, 2.48, 6.9]\nclass = 0", fillcolor="#ae80ee"] ;
434 -> 436 ;
437 [label="entropy = 0.0\nsamples = 3\nvalue = [0.0, 2.48, 0.0]\nclass = 1", fillcolor="#39e581"] ;
436 -> 437 ;
438 [label="entropy = 0.0\nsamples = 4\nvalue = [0.0, 0.0, 6.9]\nclass = 0", fillcolor="#8139e5"] ;
436 -> 438 ;
439 [label="entropy = -0.0\nsamples = 16\nvalue = [0.0, 28.08, 0.0]\nclass = 1", fillcolor="#39e581"] ;
419 -> 439 ;
440 [label="LM <= 66.5\nentropy = 0.96\nsamples = 322\nvalue = [331.53, 109.01, 12.08]\nclass = 2", fillcolor="#eead7f"] ;
322 -> 440 ;
441 [label="Potential <= 71.5\nentropy = 0.59\nsamples = 239\nvalue = [286.06, 47.07, 0.0]\nclass = 2", fillcolor="#e9965a"] ;
440 -> 441 ;
442 [label="Overall <= 65.5\nentropy = 0.9\nsamples = 82\nvalue = [77.71, 36.34, 0.0]\nclass = 2", fillcolor="#f1bc96"] ;
441 -> 442 ;
443 [label="RDM <= 59.5\nentropy = 0.5\nsamples = 62\nvalue = [73.58, 9.08, 0.0]\nclass = 2", fillcolor="#e89151"] ;
442 -> 443 ;
444 [label="entropy = 0.0\nsamples = 37\nvalue = [44.64, 0.0, 0.0]\nclass = 2", fillcolor="#e58139"] ;
443 -> 444 ;
445 [label="CB <= 63.5\nentropy = 0.79\nsamples = 25\nvalue = [28.94, 9.08, 0.0]\nclass = 2", fillcolor="#eda977"] ;
443 -> 445 ;
446 [label="Balance <= 72.0\nentropy = 0.6\nsamples = 20\nvalue = [28.94, 4.95, 0.0]\nclass = 2", fillcolor="#e9975b"] ;
445 -> 446 ;
447 [label="entropy = 0.0\nsamples = 13\nvalue = [23.15, 0.0, 0.0]\nclass = 2", fillcolor="#e58139"] ;
446 -> 447 ;
448 [label="Composure <= 49.0\nentropy = 1.0\nsamples = 7\nvalue = [5.79, 4.95, 0.0]\nclass = 2", fillcolor="#fbede3"] ;
446 -> 448 ;
449 [label="entropy = 0.0\nsamples = 2\nvalue = [4.96, 0.0, 0.0]\nclass = 2", fillcolor="#e58139"] ;
448 -> 449 ;
450 [label="GKHandling <= 11.5\nentropy = 0.59\nsamples = 5\nvalue = [0.83, 4.95, 0.0]\nclass = 1", fillcolor="#5ae996"] ;
448 -> 450 ;
451 [label="entropy = 0.0\nsamples = 4\nvalue = [0.0, 4.95, 0.0]\nclass = 1", fillcolor="#39e581"] ;
450 -> 451 ;
452 [label="entropy = -0.0\nsamples = 1\nvalue = [0.83, 0.0, 0.0]\nclass = 2", fillcolor="#e58139"] ;
450 -> 452 ;
453 [label="entropy = 0.0\nsamples = 5\nvalue = [0.0, 4.13, 0.0]\nclass = 1", fillcolor="#39e581"] ;
445 -> 453 ;
454 [label="Penalties <= 34.0\nentropy = 0.56\nsamples = 20\nvalue = [4.13, 27.25, 0.0]\nclass = 1", fillcolor="#57e994"] ;
442 -> 454 ;
455 [label="entropy = 0.0\nsamples = 2\nvalue = [4.13, 0.0, 0.0]\nclass = 2", fillcolor="#e58139"] ;
454 -> 455 ;
456 [label="entropy = -0.0\nsamples = 18\nvalue = [0.0, 27.25, 0.0]\nclass = 1", fillcolor="#39e581"] ;
454 -> 456 ;
457 [label="LS <= 67.5\nentropy = 0.28\nsamples = 157\nvalue = [208.34, 10.74, 0.0]\nclass = 2", fillcolor="#e68743"] ;
441 -> 457 ;
458 [label="LB <= 68.5\nentropy = 0.12\nsamples = 147\nvalue = [201.73, 3.3, 0.0]\nclass = 2", fillcolor="#e5833c"] ;
457 -> 458 ;
459 [label="RCB <= 67.5\nentropy = 0.07\nsamples = 146\nvalue = [201.73, 1.65, 0.0]\nclass = 2", fillcolor="#e5823b"] ;
458 -> 459 ;
460 [label="entropy = 0.0\nsamples = 139\nvalue = [195.11, 0.0, 0.0]\nclass = 2", fillcolor="#e58139"] ;
459 -> 460 ;
461 [label="Value <= 47250000.0\nentropy = 0.72\nsamples = 7\nvalue = [6.61, 1.65, 0.0]\nclass = 2", fillcolor="#eba06a"] ;
459 -> 461 ;
462 [label="entropy = 0.0\nsamples = 5\nvalue = [6.61, 0.0, 0.0]\nclass = 2", fillcolor="#e58139"] ;
461 -> 462 ;
463 [label="entropy = 0.0\nsamples = 2\nvalue = [0.0, 1.65, 0.0]\nclass = 1", fillcolor="#39e581"] ;
461 -> 463 ;
464 [label="entropy = 0.0\nsamples = 1\nvalue = [0.0, 1.65, 0.0]\nclass = 1", fillcolor="#39e581"] ;
458 -> 464 ;
465 [label="Release Clause <= 2800000.0\nentropy = 1.0\nsamples = 10\nvalue = [6.61, 7.43, 0.0]\nclass = 1", fillcolor="#e9fcf1"] ;
457 -> 465 ;
466 [label="entropy = 0.0\nsamples = 7\nvalue = [0.0, 7.43, 0.0]\nclass = 1", fillcolor="#39e581"] ;
465 -> 466 ;
467 [label="entropy = 0.0\nsamples = 3\nvalue = [6.61, 0.0, 0.0]\nclass = 2", fillcolor="#e58139"] ;
465 -> 467 ;
468 [label="Strength <= 56.5\nentropy = 1.36\nsamples = 83\nvalue = [45.47, 61.94, 12.08]\nclass = 1", fillcolor="#d3f9e3"] ;
440 -> 468 ;
469 [label="BallControl <= 69.5\nentropy = 0.88\nsamples = 32\nvalue = [31.42, 13.21, 0.0]\nclass = 2", fillcolor="#f0b68c"] ;
468 -> 469 ;
470 [label="RCM <= 63.5\nentropy = 0.93\nsamples = 14\nvalue = [6.61, 12.39, 0.0]\nclass = 1", fillcolor="#a3f3c4"] ;
469 -> 470 ;
471 [label="entropy = 0.0\nsamples = 6\nvalue = [6.61, 0.0, 0.0]\nclass = 2", fillcolor="#e58139"] ;
470 -> 471 ;
472 [label="entropy = 0.0\nsamples = 8\nvalue = [0.0, 12.39, 0.0]\nclass = 1", fillcolor="#39e581"] ;
470 -> 472 ;
473 [label="RF <= 71.5\nentropy = 0.21\nsamples = 18\nvalue = [24.8, 0.83, 0.0]\nclass = 2", fillcolor="#e68540"] ;
469 -> 473 ;
474 [label="entropy = 0.0\nsamples = 17\nvalue = [24.8, 0.0, 0.0]\nclass = 2", fillcolor="#e58139"] ;
473 -> 474 ;
475 [label="entropy = 0.0\nsamples = 1\nvalue = [0.0, 0.83, 0.0]\nclass = 1", fillcolor="#39e581"] ;
473 -> 475 ;
476 [label="LongPassing <= 62.5\nentropy = 1.28\nsamples = 51\nvalue = [14.05, 48.72, 12.08]\nclass = 1", fillcolor="#8ef0b7"] ;
468 -> 476 ;
477 [label="Potential <= 73.5\nentropy = 0.7\nsamples = 39\nvalue = [9.92, 42.94, 0.0]\nclass = 1", fillcolor="#67eb9e"] ;
476 -> 477 ;
478 [label="LS <= 62.0\nentropy = 0.16\nsamples = 25\nvalue = [0.83, 33.86, 0.0]\nclass = 1", fillcolor="#3ee684"] ;
477 -> 478 ;
479 [label="StandingTackle <= 61.0\nentropy = 0.92\nsamples = 2\nvalue = [0.83, 1.65, 0.0]\nclass = 1", fillcolor="#9cf2c0"] ;
478 -> 479 ;
480 [label="entropy = 0.0\nsamples = 1\nvalue = [0.0, 1.65, 0.0]\nclass = 1", fillcolor="#39e581"] ;
479 -> 480 ;
481 [label="entropy = 0.0\nsamples = 1\nvalue = [0.83, 0.0, 0.0]\nclass = 2", fillcolor="#e58139"] ;
479 -> 481 ;
482 [label="entropy = 0.0\nsamples = 23\nvalue = [0.0, 32.21, 0.0]\nclass = 1", fillcolor="#39e581"] ;
478 -> 482 ;
483 [label="Finishing <= 69.5\nentropy = 1.0\nsamples = 14\nvalue = [9.09, 9.08, 0.0]\nclass = 2", fillcolor="#ffffff"] ;
477 -> 483 ;
484 [label="Balance <= 60.5\nentropy = 0.41\nsamples = 9\nvalue = [9.09, 0.83, 0.0]\nclass = 2", fillcolor="#e78c4b"] ;
483 -> 484 ;
485 [label="entropy = 0.0\nsamples = 1\nvalue = [0.0, 0.83, 0.0]\nclass = 1", fillcolor="#39e581"] ;
484 -> 485 ;
486 [label="entropy = 0.0\nsamples = 8\nvalue = [9.09, 0.0, 0.0]\nclass = 2", fillcolor="#e58139"] ;
484 -> 486 ;
487 [label="entropy = 0.0\nsamples = 5\nvalue = [0.0, 8.26, 0.0]\nclass = 1", fillcolor="#39e581"] ;
483 -> 487 ;
488 [label="Potential <= 76.5\nentropy = 1.43\nsamples = 12\nvalue = [4.13, 5.78, 12.08]\nclass = 0", fillcolor="#ceb2f5"] ;
476 -> 488 ;
489 [label="Reactions <= 65.5\nentropy = 0.91\nsamples = 9\nvalue = [0.0, 5.78, 12.08]\nclass = 0", fillcolor="#bd98f1"] ;
488 -> 489 ;
490 [label="entropy = 0.0\nsamples = 3\nvalue = [0.0, 4.95, 0.0]\nclass = 1", fillcolor="#39e581"] ;
489 -> 490 ;
491 [label="RDM <= 50.5\nentropy = 0.34\nsamples = 6\nvalue = [0.0, 0.83, 12.08]\nclass = 0", fillcolor="#8a47e7"] ;
489 -> 491 ;
492 [label="entropy = 0.0\nsamples = 1\nvalue = [0.0, 0.83, 0.0]\nclass = 1", fillcolor="#39e581"] ;
491 -> 492 ;
493 [label="entropy = 0.0\nsamples = 5\nvalue = [0.0, 0.0, 12.08]\nclass = 0", fillcolor="#8139e5"] ;
491 -> 493 ;
494 [label="entropy = -0.0\nsamples = 3\nvalue = [4.13, 0.0, 0.0]\nclass = 2", fillcolor="#e58139"] ;
488 -> 494 ;
495 [label="GKPositioning <= 13.5\nentropy = 1.49\nsamples = 289\nvalue = [81.85, 196.55, 201.88]\nclass = 0", fillcolor="#fdfbff"] ;
321 -> 495 ;
496 [label="Potential <= 71.5\nentropy = 1.52\nsamples = 219\nvalue = [73.58, 156.91, 117.33]\nclass = 1", fillcolor="#ddfbe9"] ;
495 -> 496 ;
497 [label="Value <= 33750000.0\nentropy = 1.16\nsamples = 133\nvalue = [6.61, 117.27, 112.16]\nclass = 1", fillcolor="#f7fefa"] ;
496 -> 497 ;
498 [label="Penalties <= 39.5\nentropy = 0.87\nsamples = 49\nvalue = [0.83, 28.9, 84.55]\nclass = 0", fillcolor="#ad7eee"] ;
497 -> 498 ;
499 [label="entropy = 0.0\nsamples = 16\nvalue = [0.0, 0.0, 48.31]\nclass = 0", fillcolor="#8139e5"] ;
498 -> 499 ;
500 [label="Release Clause <= 3250000.0\nentropy = 1.08\nsamples = 33\nvalue = [0.83, 28.9, 36.24]\nclass = 0", fillcolor="#e6d8fa"] ;
498 -> 500 ;
501 [label="Stamina <= 87.0\nentropy = 0.81\nsamples = 13\nvalue = [0.0, 20.65, 6.9]\nclass = 1", fillcolor="#7beeab"] ;
500 -> 501 ;
502 [label="GKHandling <= 14.5\nentropy = 0.39\nsamples = 12\nvalue = [0.0, 20.65, 1.73]\nclass = 1", fillcolor="#4ae78c"] ;
501 -> 502 ;
503 [label="entropy = 0.0\nsamples = 11\nvalue = [0.0, 20.65, 0.0]\nclass = 1", fillcolor="#39e581"] ;
502 -> 503 ;
504 [label="entropy = -0.0\nsamples = 1\nvalue = [0.0, 0.0, 1.73]\nclass = 0", fillcolor="#8139e5"] ;
502 -> 504 ;
505 [label="entropy = 0.0\nsamples = 1\nvalue = [0.0, 0.0, 5.18]\nclass = 0", fillcolor="#8139e5"] ;
501 -> 505 ;
506 [label="Volleys <= 51.0\nentropy = 0.89\nsamples = 20\nvalue = [0.83, 8.26, 29.33]\nclass = 0", fillcolor="#a775ed"] ;
500 -> 506 ;
507 [label="Balance <= 75.5\nentropy = 0.69\nsamples = 17\nvalue = [0.83, 4.13, 29.33]\nclass = 0", fillcolor="#965ae9"] ;
506 -> 507 ;
508 [label="LongPassing <= 40.5\nentropy = 0.47\nsamples = 15\nvalue = [0.83, 1.65, 29.33]\nclass = 0", fillcolor="#8b49e7"] ;
507 -> 508 ;
509 [label="entropy = 0.0\nsamples = 1\nvalue = [0.83, 0.0, 0.0]\nclass = 2", fillcolor="#e58139"] ;
508 -> 509 ;
510 [label="Potential <= 62.5\nentropy = 0.3\nsamples = 14\nvalue = [0.0, 1.65, 29.33]\nclass = 0", fillcolor="#8844e6"] ;
508 -> 510 ;
511 [label="entropy = 0.0\nsamples = 2\nvalue = [0.0, 1.65, 0.0]\nclass = 1", fillcolor="#39e581"] ;
510 -> 511 ;
512 [label="entropy = 0.0\nsamples = 12\nvalue = [0.0, 0.0, 29.33]\nclass = 0", fillcolor="#8139e5"] ;
510 -> 512 ;
513 [label="entropy = 0.0\nsamples = 2\nvalue = [0.0, 2.48, 0.0]\nclass = 1", fillcolor="#39e581"] ;
507 -> 513 ;
514 [label="entropy = 0.0\nsamples = 3\nvalue = [0.0, 4.13, 0.0]\nclass = 1", fillcolor="#39e581"] ;
506 -> 514 ;
515 [label="ShortPassing <= 59.5\nentropy = 1.03\nsamples = 84\nvalue = [5.79, 88.36, 27.61]\nclass = 1", fillcolor="#7feeae"] ;
497 -> 515 ;
516 [label="BallControl <= 44.0\nentropy = 0.59\nsamples = 39\nvalue = [4.13, 47.9, 1.73]\nclass = 1", fillcolor="#50e890"] ;
515 -> 516 ;
517 [label="LAM <= 40.5\nentropy = 0.98\nsamples = 2\nvalue = [2.48, 0.0, 1.73]\nclass = 2", fillcolor="#f7d9c3"] ;
516 -> 517 ;
518 [label="entropy = 0.0\nsamples = 1\nvalue = [0.0, 0.0, 1.73]\nclass = 0", fillcolor="#8139e5"] ;
517 -> 518 ;
519 [label="entropy = 0.0\nsamples = 1\nvalue = [2.48, 0.0, 0.0]\nclass = 2", fillcolor="#e58139"] ;
517 -> 519 ;
520 [label="ShortPassing <= 37.5\nentropy = 0.21\nsamples = 37\nvalue = [1.65, 47.9, 0.0]\nclass = 1", fillcolor="#40e685"] ;
516 -> 520 ;
521 [label="entropy = 0.0\nsamples = 1\nvalue = [1.65, 0.0, 0.0]\nclass = 2", fillcolor="#e58139"] ;
520 -> 521 ;
522 [label="entropy = 0.0\nsamples = 36\nvalue = [0.0, 47.9, 0.0]\nclass = 1", fillcolor="#39e581"] ;
520 -> 522 ;
523 [label="Overall <= 67.5\nentropy = 1.11\nsamples = 45\nvalue = [1.65, 40.47, 25.88]\nclass = 1", fillcolor="#baf6d3"] ;
515 -> 523 ;
524 [label="Interceptions <= 70.0\nentropy = 0.9\nsamples = 29\nvalue = [1.65, 31.38, 6.9]\nclass = 1", fillcolor="#6ceca2"] ;
523 -> 524 ;
525 [label="LongShots <= 22.0\nentropy = 0.56\nsamples = 27\nvalue = [1.65, 31.38, 1.73]\nclass = 1", fillcolor="#4de88e"] ;
524 -> 525 ;
526 [label="entropy = 0.0\nsamples = 1\nvalue = [0.0, 0.0, 1.73]\nclass = 0", fillcolor="#8139e5"] ;
525 -> 526 ;
527 [label="GKHandling <= 12.5\nentropy = 0.29\nsamples = 26\nvalue = [1.65, 31.38, 0.0]\nclass = 1", fillcolor="#43e688"] ;
525 -> 527 ;
528 [label="entropy = 0.0\nsamples = 23\nvalue = [0.0, 30.56, 0.0]\nclass = 1", fillcolor="#39e581"] ;
527 -> 528 ;
529 [label="BallControl <= 64.0\nentropy = 0.92\nsamples = 3\nvalue = [1.65, 0.83, 0.0]\nclass = 2", fillcolor="#f2c09c"] ;
527 -> 529 ;
530 [label="entropy = 0.0\nsamples = 2\nvalue = [1.65, 0.0, 0.0]\nclass = 2", fillcolor="#e58139"] ;
529 -> 530 ;
531 [label="entropy = -0.0\nsamples = 1\nvalue = [0.0, 0.83, 0.0]\nclass = 1", fillcolor="#39e581"] ;
529 -> 531 ;
532 [label="entropy = -0.0\nsamples = 2\nvalue = [0.0, 0.0, 5.18]\nclass = 0", fillcolor="#8139e5"] ;
524 -> 532 ;
533 [label="BallControl <= 70.5\nentropy = 0.91\nsamples = 16\nvalue = [0.0, 9.08, 18.98]\nclass = 0", fillcolor="#bd98f1"] ;
523 -> 533 ;
534 [label="Balance <= 68.5\nentropy = 0.78\nsamples = 14\nvalue = [0.0, 5.78, 18.98]\nclass = 0", fillcolor="#a775ed"] ;
533 -> 534 ;
535 [label="SprintSpeed <= 47.5\nentropy = 0.98\nsamples = 7\nvalue = [0.0, 4.95, 3.45]\nclass = 1", fillcolor="#c3f7d9"] ;
534 -> 535 ;
536 [label="entropy = 0.0\nsamples = 2\nvalue = [0.0, 0.0, 3.45]\nclass = 0", fillcolor="#8139e5"] ;
535 -> 536 ;
537 [label="entropy = 0.0\nsamples = 5\nvalue = [0.0, 4.95, 0.0]\nclass = 1", fillcolor="#39e581"] ;
535 -> 537 ;
538 [label="GKKicking <= 7.5\nentropy = 0.29\nsamples = 7\nvalue = [0.0, 0.83, 15.53]\nclass = 0", fillcolor="#8844e6"] ;
534 -> 538 ;
539 [label="entropy = 0.0\nsamples = 1\nvalue = [0.0, 0.83, 0.0]\nclass = 1", fillcolor="#39e581"] ;
538 -> 539 ;
540 [label="entropy = 0.0\nsamples = 6\nvalue = [0.0, 0.0, 15.53]\nclass = 0", fillcolor="#8139e5"] ;
538 -> 540 ;
541 [label="entropy = 0.0\nsamples = 2\nvalue = [0.0, 3.3, 0.0]\nclass = 1", fillcolor="#39e581"] ;
533 -> 541 ;
542 [label="RCB <= 73.5\nentropy = 1.18\nsamples = 86\nvalue = [66.97, 39.64, 5.18]\nclass = 2", fillcolor="#f5cfb4"] ;
496 -> 542 ;
543 [label="Overall <= 66.5\nentropy = 0.95\nsamples = 82\nvalue = [66.97, 38.81, 0.0]\nclass = 2", fillcolor="#f4caac"] ;
542 -> 543 ;
544 [label="ShortPassing <= 46.0\nentropy = 0.18\nsamples = 21\nvalue = [28.94, 0.83, 0.0]\nclass = 2", fillcolor="#e6853f"] ;
543 -> 544 ;
545 [label="entropy = 0.0\nsamples = 1\nvalue = [0.0, 0.83, 0.0]\nclass = 1", fillcolor="#39e581"] ;
544 -> 545 ;
546 [label="entropy = 0.0\nsamples = 20\nvalue = [28.94, 0.0, 0.0]\nclass = 2", fillcolor="#e58139"] ;
544 -> 546 ;
547 [label="Balance <= 50.5\nentropy = 1.0\nsamples = 61\nvalue = [38.03, 37.99, 0.0]\nclass = 2", fillcolor="#ffffff"] ;
543 -> 547 ;
548 [label="LongPassing <= 44.5\nentropy = 0.32\nsamples = 13\nvalue = [0.83, 13.21, 0.0]\nclass = 1", fillcolor="#45e789"] ;
547 -> 548 ;
549 [label="entropy = 0.0\nsamples = 1\nvalue = [0.83, 0.0, 0.0]\nclass = 2", fillcolor="#e58139"] ;
548 -> 549 ;
550 [label="entropy = 0.0\nsamples = 12\nvalue = [0.0, 13.21, 0.0]\nclass = 1", fillcolor="#39e581"] ;
548 -> 550 ;
551 [label="Potential <= 73.5\nentropy = 0.97\nsamples = 48\nvalue = [37.2, 24.77, 0.0]\nclass = 2", fillcolor="#f6d5bd"] ;
547 -> 551 ;
552 [label="Release Clause <= 1300000.0\nentropy = 0.44\nsamples = 13\nvalue = [1.65, 16.52, 0.0]\nclass = 1", fillcolor="#4de88e"] ;
551 -> 552 ;
553 [label="entropy = 0.0\nsamples = 1\nvalue = [1.65, 0.0, 0.0]\nclass = 2", fillcolor="#e58139"] ;
552 -> 553 ;
554 [label="entropy = 0.0\nsamples = 12\nvalue = [0.0, 16.52, 0.0]\nclass = 1", fillcolor="#39e581"] ;
552 -> 554 ;
555 [label="Special <= 1430.0\nentropy = 0.7\nsamples = 35\nvalue = [35.55, 8.26, 0.0]\nclass = 2", fillcolor="#eb9e67"] ;
551 -> 555 ;
556 [label="entropy = 0.0\nsamples = 2\nvalue = [0.0, 3.3, 0.0]\nclass = 1", fillcolor="#39e581"] ;
555 -> 556 ;
557 [label="CM <= 69.5\nentropy = 0.54\nsamples = 33\nvalue = [35.55, 4.95, 0.0]\nclass = 2", fillcolor="#e99355"] ;
555 -> 557 ;
558 [label="Jumping <= 78.5\nentropy = 0.35\nsamples = 30\nvalue = [35.55, 2.48, 0.0]\nclass = 2", fillcolor="#e78a47"] ;
557 -> 558 ;
559 [label="entropy = 0.0\nsamples = 24\nvalue = [32.24, 0.0, 0.0]\nclass = 2", fillcolor="#e58139"] ;
558 -> 559 ;
560 [label="Vision <= 43.0\nentropy = 0.99\nsamples = 6\nvalue = [3.31, 2.48, 0.0]\nclass = 2", fillcolor="#f8dfcd"] ;
558 -> 560 ;
561 [label="entropy = 0.0\nsamples = 2\nvalue = [0.0, 2.48, 0.0]\nclass = 1", fillcolor="#39e581"] ;
560 -> 561 ;
562 [label="entropy = 0.0\nsamples = 4\nvalue = [3.31, 0.0, 0.0]\nclass = 2", fillcolor="#e58139"] ;
560 -> 562 ;
563 [label="entropy = 0.0\nsamples = 3\nvalue = [0.0, 2.48, 0.0]\nclass = 1", fillcolor="#39e581"] ;
557 -> 563 ;
564 [label="Agility <= 36.5\nentropy = 0.58\nsamples = 4\nvalue = [0.0, 0.83, 5.18]\nclass = 0", fillcolor="#9559e9"] ;
542 -> 564 ;
565 [label="entropy = 0.0\nsamples = 1\nvalue = [0.0, 0.83, 0.0]\nclass = 1", fillcolor="#39e581"] ;
564 -> 565 ;
566 [label="entropy = 0.0\nsamples = 3\nvalue = [0.0, 0.0, 5.18]\nclass = 0", fillcolor="#8139e5"] ;
564 -> 566 ;
567 [label="SprintSpeed <= 57.5\nentropy = 1.18\nsamples = 70\nvalue = [8.27, 39.64, 84.55]\nclass = 0", fillcolor="#c29ff2"] ;
495 -> 567 ;
568 [label="CAM <= 41.5\nentropy = 0.39\nsamples = 23\nvalue = [0.0, 4.95, 60.39]\nclass = 0", fillcolor="#8b49e7"] ;
567 -> 568 ;
569 [label="entropy = 0.0\nsamples = 2\nvalue = [0.0, 2.48, 0.0]\nclass = 1", fillcolor="#39e581"] ;
568 -> 569 ;
570 [label="Vision <= 64.5\nentropy = 0.24\nsamples = 21\nvalue = [0.0, 2.48, 60.39]\nclass = 0", fillcolor="#8641e6"] ;
568 -> 570 ;
571 [label="entropy = 0.0\nsamples = 19\nvalue = [0.0, 0.0, 60.39]\nclass = 0", fillcolor="#8139e5"] ;
570 -> 571 ;
572 [label="entropy = 0.0\nsamples = 2\nvalue = [0.0, 2.48, 0.0]\nclass = 1", fillcolor="#39e581"] ;
570 -> 572 ;
573 [label="Balance <= 59.5\nentropy = 1.39\nsamples = 47\nvalue = [8.27, 34.68, 24.16]\nclass = 1", fillcolor="#cef9e0"] ;
567 -> 573 ;
574 [label="LDM <= 63.5\nentropy = 0.72\nsamples = 17\nvalue = [3.31, 13.21, 0.0]\nclass = 1", fillcolor="#6beca1"] ;
573 -> 574 ;
575 [label="Overall <= 65.5\nentropy = 0.81\nsamples = 4\nvalue = [2.48, 0.83, 0.0]\nclass = 2", fillcolor="#eeab7b"] ;
574 -> 575 ;
576 [label="entropy = 0.0\nsamples = 1\nvalue = [0.0, 0.83, 0.0]\nclass = 1", fillcolor="#39e581"] ;
575 -> 576 ;
577 [label="entropy = -0.0\nsamples = 3\nvalue = [2.48, 0.0, 0.0]\nclass = 2", fillcolor="#e58139"] ;
575 -> 577 ;
578 [label="Curve <= 70.5\nentropy = 0.34\nsamples = 13\nvalue = [0.83, 12.39, 0.0]\nclass = 1", fillcolor="#46e789"] ;
574 -> 578 ;
579 [label="entropy = -0.0\nsamples = 12\nvalue = [0.0, 12.39, 0.0]\nclass = 1", fillcolor="#39e581"] ;
578 -> 579 ;
580 [label="entropy = 0.0\nsamples = 1\nvalue = [0.83, 0.0, 0.0]\nclass = 2", fillcolor="#e58139"] ;
578 -> 580 ;
581 [label="Strength <= 71.5\nentropy = 1.36\nsamples = 30\nvalue = [4.96, 21.47, 24.16]\nclass = 0", fillcolor="#f3edfd"] ;
573 -> 581 ;
582 [label="Finishing <= 45.5\nentropy = 1.39\nsamples = 21\nvalue = [4.96, 16.52, 6.9]\nclass = 1", fillcolor="#a6f3c7"] ;
581 -> 582 ;
583 [label="Acceleration <= 81.5\nentropy = 0.86\nsamples = 15\nvalue = [4.96, 12.39, 0.0]\nclass = 1", fillcolor="#88efb3"] ;
582 -> 583 ;
584 [label="GKKicking <= 8.0\nentropy = 0.74\nsamples = 14\nvalue = [3.31, 12.39, 0.0]\nclass = 1", fillcolor="#6eeca3"] ;
583 -> 584 ;
585 [label="Potential <= 73.5\nentropy = 0.97\nsamples = 5\nvalue = [2.48, 1.65, 0.0]\nclass = 2", fillcolor="#f6d5bd"] ;
584 -> 585 ;
586 [label="entropy = 0.0\nsamples = 2\nvalue = [0.0, 1.65, 0.0]\nclass = 1", fillcolor="#39e581"] ;
585 -> 586 ;
587 [label="entropy = 0.0\nsamples = 3\nvalue = [2.48, 0.0, 0.0]\nclass = 2", fillcolor="#e58139"] ;
585 -> 587 ;
588 [label="Release Clause <= 62850000.0\nentropy = 0.37\nsamples = 9\nvalue = [0.83, 10.74, 0.0]\nclass = 1", fillcolor="#48e78b"] ;
584 -> 588 ;
589 [label="entropy = -0.0\nsamples = 7\nvalue = [0.0, 9.91, 0.0]\nclass = 1", fillcolor="#39e581"] ;
588 -> 589 ;
590 [label="RM <= 60.5\nentropy = 1.0\nsamples = 2\nvalue = [0.83, 0.83, 0.0]\nclass = 2", fillcolor="#ffffff"] ;
588 -> 590 ;
591 [label="entropy = 0.0\nsamples = 1\nvalue = [0.83, 0.0, 0.0]\nclass = 2", fillcolor="#e58139"] ;
590 -> 591 ;
592 [label="entropy = 0.0\nsamples = 1\nvalue = [0.0, 0.83, 0.0]\nclass = 1", fillcolor="#39e581"] ;
590 -> 592 ;
593 [label="entropy = -0.0\nsamples = 1\nvalue = [1.65, 0.0, 0.0]\nclass = 2", fillcolor="#e58139"] ;
583 -> 593 ;
594 [label="SprintSpeed <= 69.5\nentropy = 0.95\nsamples = 6\nvalue = [0.0, 4.13, 6.9]\nclass = 0", fillcolor="#ccaff5"] ;
582 -> 594 ;
595 [label="entropy = 0.0\nsamples = 3\nvalue = [0.0, 0.0, 6.9]\nclass = 0", fillcolor="#8139e5"] ;
594 -> 595 ;
596 [label="entropy = 0.0\nsamples = 3\nvalue = [0.0, 4.13, 0.0]\nclass = 1", fillcolor="#39e581"] ;
594 -> 596 ;
597 [label="Jumping <= 67.5\nentropy = 0.77\nsamples = 9\nvalue = [0.0, 4.95, 17.25]\nclass = 0", fillcolor="#a572ec"] ;
581 -> 597 ;
598 [label="Positioning <= 31.5\nentropy = 0.87\nsamples = 3\nvalue = [0.0, 4.13, 1.73]\nclass = 1", fillcolor="#8cf0b6"] ;
597 -> 598 ;
599 [label="entropy = 0.0\nsamples = 1\nvalue = [0.0, 0.0, 1.73]\nclass = 0", fillcolor="#8139e5"] ;
598 -> 599 ;
600 [label="entropy = 0.0\nsamples = 2\nvalue = [0.0, 4.13, 0.0]\nclass = 1", fillcolor="#39e581"] ;
598 -> 600 ;
601 [label="SprintSpeed <= 60.0\nentropy = 0.29\nsamples = 6\nvalue = [0.0, 0.83, 15.53]\nclass = 0", fillcolor="#8844e6"] ;
597 -> 601 ;
602 [label="entropy = 0.0\nsamples = 1\nvalue = [0.0, 0.83, 0.0]\nclass = 1", fillcolor="#39e581"] ;
601 -> 602 ;
603 [label="entropy = 0.0\nsamples = 5\nvalue = [0.0, 0.0, 15.53]\nclass = 0", fillcolor="#8139e5"] ;
601 -> 603 ;
604 [label="Potential <= 71.5\nentropy = 1.5\nsamples = 4022\nvalue = [1286.43, 2560.06, 3016.17]\nclass = 0", fillcolor="#f2eafc"] ;
0 -> 604 [labeldistance=2.5, labelangle=-45, headlabel="False"] ;
605 [label="Overall <= 64.5\nentropy = 1.21\nsamples = 1689\nvalue = [162.04, 1203.23, 1822.13]\nclass = 0", fillcolor="#d8c1f7"] ;
604 -> 605 ;
606 [label="Release Clause <= 36700000.0\nentropy = 1.51\nsamples = 411\nvalue = [135.59, 269.22, 307.14]\nclass = 0", fillcolor="#f4eefd"] ;
605 -> 606 ;
607 [label="Release Clause <= 1900000.0\nentropy = 1.12\nsamples = 128\nvalue = [45.47, 28.9, 193.26]\nclass = 0", fillcolor="#ab7bee"] ;
606 -> 607 ;
608 [label="BallControl <= 63.5\nentropy = 0.95\nsamples = 24\nvalue = [21.5, 12.39, 0.0]\nclass = 2", fillcolor="#f4caab"] ;
607 -> 608 ;
609 [label="Vision <= 59.5\nentropy = 0.65\nsamples = 7\nvalue = [1.65, 8.26, 0.0]\nclass = 1", fillcolor="#61ea9a"] ;
608 -> 609 ;
610 [label="RW <= 58.5\nentropy = 1.0\nsamples = 3\nvalue = [1.65, 1.65, 0.0]\nclass = 2", fillcolor="#ffffff"] ;
609 -> 610 ;
611 [label="entropy = 0.0\nsamples = 1\nvalue = [0.0, 1.65, 0.0]\nclass = 1", fillcolor="#39e581"] ;
610 -> 611 ;
612 [label="entropy = 0.0\nsamples = 2\nvalue = [1.65, 0.0, 0.0]\nclass = 2", fillcolor="#e58139"] ;
610 -> 612 ;
613 [label="entropy = 0.0\nsamples = 4\nvalue = [0.0, 6.61, 0.0]\nclass = 1", fillcolor="#39e581"] ;
609 -> 613 ;
614 [label="HeadingAccuracy <= 61.0\nentropy = 0.66\nsamples = 17\nvalue = [19.84, 4.13, 0.0]\nclass = 2", fillcolor="#ea9b62"] ;
608 -> 614 ;
615 [label="Vision <= 47.0\nentropy = 0.26\nsamples = 13\nvalue = [18.19, 0.83, 0.0]\nclass = 2", fillcolor="#e68742"] ;
614 -> 615 ;
616 [label="entropy = 0.0\nsamples = 1\nvalue = [0.0, 0.83, 0.0]\nclass = 1", fillcolor="#39e581"] ;
615 -> 616 ;
617 [label="entropy = 0.0\nsamples = 12\nvalue = [18.19, 0.0, 0.0]\nclass = 2", fillcolor="#e58139"] ;
615 -> 617 ;
618 [label="RCM <= 53.5\nentropy = 0.92\nsamples = 4\nvalue = [1.65, 3.3, 0.0]\nclass = 1", fillcolor="#9cf2c0"] ;
614 -> 618 ;
619 [label="entropy = 0.0\nsamples = 1\nvalue = [1.65, 0.0, 0.0]\nclass = 2", fillcolor="#e58139"] ;
618 -> 619 ;
620 [label="entropy = 0.0\nsamples = 3\nvalue = [0.0, 3.3, 0.0]\nclass = 1", fillcolor="#39e581"] ;
618 -> 620 ;
621 [label="Potential <= 64.5\nentropy = 0.83\nsamples = 104\nvalue = [23.98, 16.52, 193.26]\nclass = 0", fillcolor="#995fea"] ;
607 -> 621 ;
622 [label="HeadingAccuracy <= 54.5\nentropy = 0.57\nsamples = 91\nvalue = [5.79, 16.52, 193.26]\nclass = 0", fillcolor="#8f4fe8"] ;
621 -> 622 ;
623 [label="CAM <= 62.5\nentropy = 1.08\nsamples = 39\nvalue = [5.79, 14.86, 55.22]\nclass = 0", fillcolor="#ac7cee"] ;
622 -> 623 ;
624 [label="Aggression <= 54.5\nentropy = 1.44\nsamples = 26\nvalue = [5.79, 14.86, 18.98]\nclass = 0", fillcolor="#eadefb"] ;
623 -> 624 ;
625 [label="RW <= 58.5\nentropy = 0.97\nsamples = 11\nvalue = [4.96, 7.43, 0.0]\nclass = 1", fillcolor="#bdf6d5"] ;
624 -> 625 ;
626 [label="Special <= 1507.5\nentropy = 0.81\nsamples = 6\nvalue = [4.96, 1.65, 0.0]\nclass = 2", fillcolor="#eeab7b"] ;
625 -> 626 ;
627 [label="entropy = 0.0\nsamples = 4\nvalue = [4.96, 0.0, 0.0]\nclass = 2", fillcolor="#e58139"] ;
626 -> 627 ;
628 [label="entropy = 0.0\nsamples = 2\nvalue = [0.0, 1.65, 0.0]\nclass = 1", fillcolor="#39e581"] ;
626 -> 628 ;
629 [label="entropy = 0.0\nsamples = 5\nvalue = [0.0, 5.78, 0.0]\nclass = 1", fillcolor="#39e581"] ;
625 -> 629 ;
630 [label="Stamina <= 69.0\nentropy = 1.03\nsamples = 15\nvalue = [0.83, 7.43, 18.98]\nclass = 0", fillcolor="#b68cf0"] ;
624 -> 630 ;
631 [label="LongPassing <= 56.0\nentropy = 0.73\nsamples = 12\nvalue = [0.83, 2.48, 18.98]\nclass = 0", fillcolor="#965ae9"] ;
630 -> 631 ;
632 [label="Balance <= 58.5\nentropy = 0.4\nsamples = 10\nvalue = [0.0, 1.65, 18.98]\nclass = 0", fillcolor="#8c4ae7"] ;
631 -> 632 ;
633 [label="entropy = 0.0\nsamples = 2\nvalue = [0.0, 1.65, 0.0]\nclass = 1", fillcolor="#39e581"] ;
632 -> 633 ;
634 [label="entropy = 0.0\nsamples = 8\nvalue = [0.0, 0.0, 18.98]\nclass = 0", fillcolor="#8139e5"] ;
632 -> 634 ;
635 [label="Acceleration <= 69.5\nentropy = 1.0\nsamples = 2\nvalue = [0.83, 0.83, 0.0]\nclass = 2", fillcolor="#ffffff"] ;
631 -> 635 ;
636 [label="entropy = 0.0\nsamples = 1\nvalue = [0.83, 0.0, 0.0]\nclass = 2", fillcolor="#e58139"] ;
635 -> 636 ;
637 [label="entropy = 0.0\nsamples = 1\nvalue = [0.0, 0.83, 0.0]\nclass = 1", fillcolor="#39e581"] ;
635 -> 637 ;
638 [label="entropy = 0.0\nsamples = 3\nvalue = [0.0, 4.95, 0.0]\nclass = 1", fillcolor="#39e581"] ;
630 -> 638 ;
639 [label="entropy = 0.0\nsamples = 13\nvalue = [0.0, 0.0, 36.24]\nclass = 0", fillcolor="#8139e5"] ;
623 -> 639 ;
640 [label="Value <= 20500000.0\nentropy = 0.09\nsamples = 52\nvalue = [0.0, 1.65, 138.04]\nclass = 0", fillcolor="#833be5"] ;
622 -> 640 ;
641 [label="entropy = 0.0\nsamples = 44\nvalue = [0.0, 0.0, 115.61]\nclass = 0", fillcolor="#8139e5"] ;
640 -> 641 ;
642 [label="Potential <= 62.0\nentropy = 0.36\nsamples = 8\nvalue = [0.0, 1.65, 22.43]\nclass = 0", fillcolor="#8a48e7"] ;
640 -> 642 ;
643 [label="entropy = 0.0\nsamples = 2\nvalue = [0.0, 1.65, 0.0]\nclass = 1", fillcolor="#39e581"] ;
642 -> 643 ;
644 [label="entropy = 0.0\nsamples = 6\nvalue = [0.0, 0.0, 22.43]\nclass = 0", fillcolor="#8139e5"] ;
642 -> 644 ;
645 [label="entropy = 0.0\nsamples = 13\nvalue = [18.19, 0.0, 0.0]\nclass = 2", fillcolor="#e58139"] ;
621 -> 645 ;
646 [label="Potential <= 64.5\nentropy = 1.45\nsamples = 283\nvalue = [90.12, 240.32, 113.88]\nclass = 1", fillcolor="#b3f5cf"] ;
606 -> 646 ;
647 [label="SprintSpeed <= 61.5\nentropy = 0.99\nsamples = 139\nvalue = [0.0, 141.22, 113.88]\nclass = 1", fillcolor="#d9fae7"] ;
646 -> 647 ;
648 [label="LF <= 61.5\nentropy = 0.92\nsamples = 46\nvalue = [0.0, 35.51, 70.75]\nclass = 0", fillcolor="#c09cf2"] ;
647 -> 648 ;
649 [label="Aggression <= 69.0\nentropy = 1.0\nsamples = 36\nvalue = [0.0, 34.68, 36.24]\nclass = 0", fillcolor="#faf7fe"] ;
648 -> 649 ;
650 [label="Interceptions <= 31.5\nentropy = 0.87\nsamples = 22\nvalue = [0.0, 29.73, 12.08]\nclass = 1", fillcolor="#89f0b4"] ;
649 -> 650 ;
651 [label="entropy = 0.0\nsamples = 2\nvalue = [0.0, 0.0, 10.35]\nclass = 0", fillcolor="#8139e5"] ;
650 -> 651 ;
652 [label="Value <= 22000000.0\nentropy = 0.31\nsamples = 20\nvalue = [0.0, 29.73, 1.73]\nclass = 1", fillcolor="#44e788"] ;
650 -> 652 ;
653 [label="entropy = 0.0\nsamples = 1\nvalue = [0.0, 0.0, 1.73]\nclass = 0", fillcolor="#8139e5"] ;
652 -> 653 ;
654 [label="entropy = 0.0\nsamples = 19\nvalue = [0.0, 29.73, 0.0]\nclass = 1", fillcolor="#39e581"] ;
652 -> 654 ;
655 [label="RCB <= 63.5\nentropy = 0.66\nsamples = 14\nvalue = [0.0, 4.95, 24.16]\nclass = 0", fillcolor="#9b62ea"] ;
649 -> 655 ;
656 [label="Positioning <= 65.0\nentropy = 1.0\nsamples = 6\nvalue = [0.0, 4.95, 5.18]\nclass = 0", fillcolor="#faf7fe"] ;
655 -> 656 ;
657 [label="entropy = 0.0\nsamples = 4\nvalue = [0.0, 4.95, 0.0]\nclass = 1", fillcolor="#39e581"] ;
656 -> 657 ;
658 [label="entropy = -0.0\nsamples = 2\nvalue = [0.0, 0.0, 5.18]\nclass = 0", fillcolor="#8139e5"] ;
656 -> 658 ;
659 [label="entropy = 0.0\nsamples = 8\nvalue = [0.0, 0.0, 18.98]\nclass = 0", fillcolor="#8139e5"] ;
655 -> 659 ;
660 [label="Weight <= 148.0\nentropy = 0.16\nsamples = 10\nvalue = [0.0, 0.83, 34.51]\nclass = 0", fillcolor="#843ee6"] ;
648 -> 660 ;
661 [label="entropy = 0.0\nsamples = 1\nvalue = [0.0, 0.83, 0.0]\nclass = 1", fillcolor="#39e581"] ;
660 -> 661 ;
662 [label="entropy = 0.0\nsamples = 9\nvalue = [0.0, 0.0, 34.51]\nclass = 0", fillcolor="#8139e5"] ;
660 -> 662 ;
663 [label="Aggression <= 64.5\nentropy = 0.87\nsamples = 93\nvalue = [0.0, 105.71, 43.14]\nclass = 1", fillcolor="#8af0b4"] ;
647 -> 663 ;
664 [label="GKKicking <= 10.5\nentropy = 0.53\nsamples = 55\nvalue = [0.0, 75.98, 10.35]\nclass = 1", fillcolor="#54e992"] ;
663 -> 664 ;
665 [label="entropy = 0.0\nsamples = 29\nvalue = [0.0, 48.72, 0.0]\nclass = 1", fillcolor="#39e581"] ;
664 -> 665 ;
666 [label="Agility <= 71.5\nentropy = 0.85\nsamples = 26\nvalue = [0.0, 27.25, 10.35]\nclass = 1", fillcolor="#84efb1"] ;
664 -> 666 ;
667 [label="entropy = 0.0\nsamples = 16\nvalue = [0.0, 19.82, 0.0]\nclass = 1", fillcolor="#39e581"] ;
666 -> 667 ;
668 [label="Release Clause <= 70700000.0\nentropy = 0.98\nsamples = 10\nvalue = [0.0, 7.43, 10.35]\nclass = 0", fillcolor="#dbc7f8"] ;
666 -> 668 ;
669 [label="FKAccuracy <= 48.0\nentropy = 0.71\nsamples = 7\nvalue = [0.0, 2.48, 10.35]\nclass = 0", fillcolor="#9f68eb"] ;
668 -> 669 ;
670 [label="entropy = 0.0\nsamples = 3\nvalue = [0.0, 0.0, 8.63]\nclass = 0", fillcolor="#8139e5"] ;
669 -> 670 ;
671 [label="RAM <= 64.5\nentropy = 0.98\nsamples = 4\nvalue = [0.0, 2.48, 1.73]\nclass = 1", fillcolor="#c3f7d9"] ;
669 -> 671 ;
672 [label="entropy = 0.0\nsamples = 3\nvalue = [0.0, 2.48, 0.0]\nclass = 1", fillcolor="#39e581"] ;
671 -> 672 ;
673 [label="entropy = 0.0\nsamples = 1\nvalue = [0.0, 0.0, 1.73]\nclass = 0", fillcolor="#8139e5"] ;
671 -> 673 ;
674 [label="entropy = 0.0\nsamples = 3\nvalue = [0.0, 4.95, 0.0]\nclass = 1", fillcolor="#39e581"] ;
668 -> 674 ;
675 [label="Volleys <= 39.5\nentropy = 1.0\nsamples = 38\nvalue = [0.0, 29.73, 32.78]\nclass = 0", fillcolor="#f3edfd"] ;
663 -> 675 ;
676 [label="entropy = 0.0\nsamples = 10\nvalue = [0.0, 12.39, 0.0]\nclass = 1", fillcolor="#39e581"] ;
675 -> 676 ;
677 [label="Balance <= 72.5\nentropy = 0.93\nsamples = 28\nvalue = [0.0, 17.34, 32.78]\nclass = 0", fillcolor="#c4a2f3"] ;
675 -> 677 ;
678 [label="Release Clause <= 38000000.0\nentropy = 0.75\nsamples = 23\nvalue = [0.0, 9.08, 32.78]\nclass = 0", fillcolor="#a470ec"] ;
677 -> 678 ;
679 [label="entropy = 0.0\nsamples = 2\nvalue = [0.0, 2.48, 0.0]\nclass = 1", fillcolor="#39e581"] ;
678 -> 679 ;
680 [label="Release Clause <= 62750000.0\nentropy = 0.65\nsamples = 21\nvalue = [0.0, 6.61, 32.78]\nclass = 0", fillcolor="#9a61ea"] ;
678 -> 680 ;
681 [label="GKHandling <= 8.5\nentropy = 0.51\nsamples = 19\nvalue = [0.0, 4.13, 32.78]\nclass = 0", fillcolor="#9152e8"] ;
680 -> 681 ;
682 [label="Value <= 28500000.0\nentropy = 0.96\nsamples = 7\nvalue = [0.0, 3.3, 5.18]\nclass = 0", fillcolor="#d1b7f6"] ;
681 -> 682 ;
683 [label="entropy = 0.0\nsamples = 3\nvalue = [0.0, 0.0, 5.18]\nclass = 0", fillcolor="#8139e5"] ;
682 -> 683 ;
684 [label="entropy = 0.0\nsamples = 4\nvalue = [0.0, 3.3, 0.0]\nclass = 1", fillcolor="#39e581"] ;
682 -> 684 ;
685 [label="FKAccuracy <= 62.5\nentropy = 0.19\nsamples = 12\nvalue = [0.0, 0.83, 27.61]\nclass = 0", fillcolor="#853fe6"] ;
681 -> 685 ;
686 [label="entropy = 0.0\nsamples = 10\nvalue = [0.0, 0.0, 25.88]\nclass = 0", fillcolor="#8139e5"] ;
685 -> 686 ;
687 [label="Volleys <= 50.5\nentropy = 0.91\nsamples = 2\nvalue = [0.0, 0.83, 1.73]\nclass = 0", fillcolor="#bd98f1"] ;
685 -> 687 ;
688 [label="entropy = 0.0\nsamples = 1\nvalue = [0.0, 0.0, 1.73]\nclass = 0", fillcolor="#8139e5"] ;
687 -> 688 ;
689 [label="entropy = -0.0\nsamples = 1\nvalue = [0.0, 0.83, 0.0]\nclass = 1", fillcolor="#39e581"] ;
687 -> 689 ;
690 [label="entropy = 0.0\nsamples = 2\nvalue = [0.0, 2.48, 0.0]\nclass = 1", fillcolor="#39e581"] ;
680 -> 690 ;
691 [label="entropy = 0.0\nsamples = 5\nvalue = [0.0, 8.26, 0.0]\nclass = 1", fillcolor="#39e581"] ;
677 -> 691 ;
692 [label="Overall <= 60.5\nentropy = 1.0\nsamples = 144\nvalue = [90.12, 99.1, 0.0]\nclass = 1", fillcolor="#edfdf4"] ;
646 -> 692 ;
693 [label="entropy = 0.0\nsamples = 26\nvalue = [33.9, 0.0, 0.0]\nclass = 2", fillcolor="#e58139"] ;
692 -> 693 ;
694 [label="HeadingAccuracy <= 40.5\nentropy = 0.94\nsamples = 118\nvalue = [56.22, 99.1, 0.0]\nclass = 1", fillcolor="#a9f4c8"] ;
692 -> 694 ;
695 [label="ShotPower <= 62.0\nentropy = 0.63\nsamples = 13\nvalue = [13.23, 2.48, 0.0]\nclass = 2", fillcolor="#ea995e"] ;
694 -> 695 ;
696 [label="RM <= 65.5\nentropy = 0.32\nsamples = 11\nvalue = [13.23, 0.83, 0.0]\nclass = 2", fillcolor="#e78945"] ;
695 -> 696 ;
697 [label="entropy = 0.0\nsamples = 10\nvalue = [13.23, 0.0, 0.0]\nclass = 2", fillcolor="#e58139"] ;
696 -> 697 ;
698 [label="entropy = 0.0\nsamples = 1\nvalue = [0.0, 0.83, 0.0]\nclass = 1", fillcolor="#39e581"] ;
696 -> 698 ;
699 [label="entropy = 0.0\nsamples = 2\nvalue = [0.0, 1.65, 0.0]\nclass = 1", fillcolor="#39e581"] ;
695 -> 699 ;
700 [label="Release Clause <= 87850000.0\nentropy = 0.89\nsamples = 105\nvalue = [42.99, 96.62, 0.0]\nclass = 1", fillcolor="#91f1b9"] ;
694 -> 700 ;
701 [label="ShortPassing <= 62.5\nentropy = 0.84\nsamples = 96\nvalue = [34.72, 95.8, 0.0]\nclass = 1", fillcolor="#81eeaf"] ;
700 -> 701 ;
702 [label="Jumping <= 68.5\nentropy = 0.61\nsamples = 55\nvalue = [11.57, 65.24, 0.0]\nclass = 1", fillcolor="#5cea97"] ;
701 -> 702 ;
703 [label="Agility <= 46.5\nentropy = 0.15\nsamples = 27\nvalue = [0.83, 36.34, 0.0]\nclass = 1", fillcolor="#3ee684"] ;
702 -> 703 ;
704 [label="Acceleration <= 68.0\nentropy = 0.81\nsamples = 4\nvalue = [0.83, 2.48, 0.0]\nclass = 1", fillcolor="#7beeab"] ;
703 -> 704 ;
705 [label="entropy = 0.0\nsamples = 3\nvalue = [0.0, 2.48, 0.0]\nclass = 1", fillcolor="#39e581"] ;
704 -> 705 ;
706 [label="entropy = -0.0\nsamples = 1\nvalue = [0.83, 0.0, 0.0]\nclass = 2", fillcolor="#e58139"] ;
704 -> 706 ;
707 [label="entropy = 0.0\nsamples = 23\nvalue = [0.0, 33.86, 0.0]\nclass = 1", fillcolor="#39e581"] ;
703 -> 707 ;
708 [label="Dribbling <= 60.0\nentropy = 0.84\nsamples = 28\nvalue = [10.75, 28.9, 0.0]\nclass = 1", fillcolor="#83efb0"] ;
702 -> 708 ;
709 [label="Stamina <= 65.5\nentropy = 0.6\nsamples = 23\nvalue = [4.96, 28.9, 0.0]\nclass = 1", fillcolor="#5be997"] ;
708 -> 709 ;
710 [label="GKHandling <= 11.0\nentropy = 0.99\nsamples = 5\nvalue = [4.13, 3.3, 0.0]\nclass = 2", fillcolor="#fae6d7"] ;
709 -> 710 ;
711 [label="entropy = 0.0\nsamples = 3\nvalue = [4.13, 0.0, 0.0]\nclass = 2", fillcolor="#e58139"] ;
710 -> 711 ;
712 [label="entropy = -0.0\nsamples = 2\nvalue = [0.0, 3.3, 0.0]\nclass = 1", fillcolor="#39e581"] ;
710 -> 712 ;
713 [label="GKReflexes <= 14.5\nentropy = 0.2\nsamples = 18\nvalue = [0.83, 25.6, 0.0]\nclass = 1", fillcolor="#3fe685"] ;
709 -> 713 ;
714 [label="entropy = 0.0\nsamples = 15\nvalue = [0.0, 23.95, 0.0]\nclass = 1", fillcolor="#39e581"] ;
713 -> 714 ;
715 [label="RCB <= 63.0\nentropy = 0.92\nsamples = 3\nvalue = [0.83, 1.65, 0.0]\nclass = 1", fillcolor="#9cf2c0"] ;
713 -> 715 ;
716 [label="entropy = 0.0\nsamples = 1\nvalue = [0.83, 0.0, 0.0]\nclass = 2", fillcolor="#e58139"] ;
715 -> 716 ;
717 [label="entropy = 0.0\nsamples = 2\nvalue = [0.0, 1.65, 0.0]\nclass = 1", fillcolor="#39e581"] ;
715 -> 717 ;
718 [label="entropy = -0.0\nsamples = 5\nvalue = [5.79, 0.0, 0.0]\nclass = 2", fillcolor="#e58139"] ;
708 -> 718 ;
719 [label="Stamina <= 73.5\nentropy = 0.99\nsamples = 41\nvalue = [23.15, 30.56, 0.0]\nclass = 1", fillcolor="#cff9e0"] ;
701 -> 719 ;
720 [label="Potential <= 67.5\nentropy = 0.93\nsamples = 25\nvalue = [21.5, 11.56, 0.0]\nclass = 2", fillcolor="#f3c5a3"] ;
719 -> 720 ;
721 [label="GKHandling <= 8.5\nentropy = 0.62\nsamples = 10\nvalue = [1.65, 9.08, 0.0]\nclass = 1", fillcolor="#5dea98"] ;
720 -> 721 ;
722 [label="SlidingTackle <= 57.0\nentropy = 0.92\nsamples = 2\nvalue = [1.65, 0.83, 0.0]\nclass = 2", fillcolor="#f2c09c"] ;
721 -> 722 ;
723 [label="entropy = 0.0\nsamples = 1\nvalue = [1.65, 0.0, 0.0]\nclass = 2", fillcolor="#e58139"] ;
722 -> 723 ;
724 [label="entropy = -0.0\nsamples = 1\nvalue = [0.0, 0.83, 0.0]\nclass = 1", fillcolor="#39e581"] ;
722 -> 724 ;
725 [label="entropy = 0.0\nsamples = 8\nvalue = [0.0, 8.26, 0.0]\nclass = 1", fillcolor="#39e581"] ;
721 -> 725 ;
726 [label="CF <= 63.5\nentropy = 0.5\nsamples = 15\nvalue = [19.84, 2.48, 0.0]\nclass = 2", fillcolor="#e89152"] ;
720 -> 726 ;
727 [label="SlidingTackle <= 20.0\nentropy = 0.24\nsamples = 14\nvalue = [19.84, 0.83, 0.0]\nclass = 2", fillcolor="#e68641"] ;
726 -> 727 ;
728 [label="entropy = 0.0\nsamples = 1\nvalue = [0.0, 0.83, 0.0]\nclass = 1", fillcolor="#39e581"] ;
727 -> 728 ;
729 [label="entropy = 0.0\nsamples = 13\nvalue = [19.84, 0.0, 0.0]\nclass = 2", fillcolor="#e58139"] ;
727 -> 729 ;
730 [label="entropy = 0.0\nsamples = 1\nvalue = [0.0, 1.65, 0.0]\nclass = 1", fillcolor="#39e581"] ;
726 -> 730 ;
731 [label="GKPositioning <= 6.5\nentropy = 0.4\nsamples = 16\nvalue = [1.65, 18.99, 0.0]\nclass = 1", fillcolor="#4ae78c"] ;
719 -> 731 ;
732 [label="Special <= 1755.5\nentropy = 0.97\nsamples = 3\nvalue = [1.65, 2.48, 0.0]\nclass = 1", fillcolor="#bdf6d5"] ;
731 -> 732 ;
733 [label="entropy = -0.0\nsamples = 2\nvalue = [1.65, 0.0, 0.0]\nclass = 2", fillcolor="#e58139"] ;
732 -> 733 ;
734 [label="entropy = 0.0\nsamples = 1\nvalue = [0.0, 2.48, 0.0]\nclass = 1", fillcolor="#39e581"] ;
732 -> 734 ;
735 [label="entropy = 0.0\nsamples = 13\nvalue = [0.0, 16.52, 0.0]\nclass = 1", fillcolor="#39e581"] ;
731 -> 735 ;
736 [label="Vision <= 65.5\nentropy = 0.44\nsamples = 9\nvalue = [8.27, 0.83, 0.0]\nclass = 2", fillcolor="#e88e4d"] ;
700 -> 736 ;
737 [label="entropy = 0.0\nsamples = 8\nvalue = [8.27, 0.0, 0.0]\nclass = 2", fillcolor="#e58139"] ;
736 -> 737 ;
738 [label="entropy = 0.0\nsamples = 1\nvalue = [0.0, 0.83, 0.0]\nclass = 1", fillcolor="#39e581"] ;
736 -> 738 ;
739 [label="Release Clause <= 8700000.0\nentropy = 1.03\nsamples = 1278\nvalue = [26.46, 934.01, 1514.99]\nclass = 0", fillcolor="#d0b4f5"] ;
605 -> 739 ;
740 [label="Reactions <= 68.5\nentropy = 1.1\nsamples = 859\nvalue = [23.98, 751.5, 738.51]\nclass = 1", fillcolor="#fcfffd"] ;
739 -> 740 ;
741 [label="Overall <= 68.5\nentropy = 1.11\nsamples = 684\nvalue = [23.98, 654.88, 479.69]\nclass = 1", fillcolor="#ccf8de"] ;
740 -> 741 ;
742 [label="Overall <= 66.5\nentropy = 1.08\nsamples = 374\nvalue = [23.98, 403.83, 163.92]\nclass = 1", fillcolor="#90f0b8"] ;
741 -> 742 ;
743 [label="ST <= 61.5\nentropy = 1.09\nsamples = 99\nvalue = [16.54, 104.88, 20.71]\nclass = 1", fillcolor="#76eda8"] ;
742 -> 743 ;
744 [label="Special <= 1675.5\nentropy = 0.76\nsamples = 41\nvalue = [13.23, 47.07, 0.0]\nclass = 1", fillcolor="#71eca4"] ;
743 -> 744 ;
745 [label="entropy = 0.0\nsamples = 22\nvalue = [0.0, 33.03, 0.0]\nclass = 1", fillcolor="#39e581"] ;
744 -> 745 ;
746 [label="Agility <= 78.5\nentropy = 1.0\nsamples = 19\nvalue = [13.23, 14.04, 0.0]\nclass = 1", fillcolor="#f4fdf8"] ;
744 -> 746 ;
747 [label="LS <= 59.5\nentropy = 0.89\nsamples = 13\nvalue = [13.23, 5.78, 0.0]\nclass = 2", fillcolor="#f0b890"] ;
746 -> 747 ;
748 [label="entropy = 0.0\nsamples = 6\nvalue = [9.92, 0.0, 0.0]\nclass = 2", fillcolor="#e58139"] ;
747 -> 748 ;
749 [label="LongPassing <= 67.5\nentropy = 0.95\nsamples = 7\nvalue = [3.31, 5.78, 0.0]\nclass = 1", fillcolor="#aaf4c9"] ;
747 -> 749 ;
750 [label="Volleys <= 56.5\nentropy = 0.72\nsamples = 4\nvalue = [3.31, 0.83, 0.0]\nclass = 2", fillcolor="#eba06a"] ;
749 -> 750 ;
751 [label="entropy = 0.0\nsamples = 3\nvalue = [3.31, 0.0, 0.0]\nclass = 2", fillcolor="#e58139"] ;
750 -> 751 ;
752 [label="entropy = -0.0\nsamples = 1\nvalue = [0.0, 0.83, 0.0]\nclass = 1", fillcolor="#39e581"] ;
750 -> 752 ;
753 [label="entropy = 0.0\nsamples = 3\nvalue = [0.0, 4.95, 0.0]\nclass = 1", fillcolor="#39e581"] ;
749 -> 753 ;
754 [label="entropy = 0.0\nsamples = 6\nvalue = [0.0, 8.26, 0.0]\nclass = 1", fillcolor="#39e581"] ;
746 -> 754 ;
755 [label="LongShots <= 59.5\nentropy = 1.04\nsamples = 58\nvalue = [3.31, 57.81, 20.71]\nclass = 1", fillcolor="#87efb3"] ;
743 -> 755 ;
756 [label="entropy = 0.0\nsamples = 26\nvalue = [0.0, 27.25, 0.0]\nclass = 1", fillcolor="#39e581"] ;
755 -> 756 ;
757 [label="Value <= 63750000.0\nentropy = 1.24\nsamples = 32\nvalue = [3.31, 30.56, 20.71]\nclass = 1", fillcolor="#c5f7da"] ;
755 -> 757 ;
758 [label="Crossing <= 61.5\nentropy = 1.14\nsamples = 14\nvalue = [1.65, 9.08, 20.71]\nclass = 0", fillcolor="#be98f1"] ;
757 -> 758 ;
759 [label="GKKicking <= 14.5\nentropy = 0.89\nsamples = 9\nvalue = [1.65, 3.3, 20.71]\nclass = 0", fillcolor="#9d65eb"] ;
758 -> 759 ;
760 [label="Stamina <= 59.5\nentropy = 0.38\nsamples = 6\nvalue = [1.65, 0.0, 20.71]\nclass = 0", fillcolor="#8b49e7"] ;
759 -> 760 ;
761 [label="entropy = 0.0\nsamples = 1\nvalue = [1.65, 0.0, 0.0]\nclass = 2", fillcolor="#e58139"] ;
760 -> 761 ;
762 [label="entropy = 0.0\nsamples = 5\nvalue = [0.0, 0.0, 20.71]\nclass = 0", fillcolor="#8139e5"] ;
760 -> 762 ;
763 [label="entropy = 0.0\nsamples = 3\nvalue = [0.0, 3.3, 0.0]\nclass = 1", fillcolor="#39e581"] ;
759 -> 763 ;
764 [label="entropy = 0.0\nsamples = 5\nvalue = [0.0, 5.78, 0.0]\nclass = 1", fillcolor="#39e581"] ;
758 -> 764 ;
765 [label="Balance <= 85.5\nentropy = 0.37\nsamples = 18\nvalue = [1.65, 21.47, 0.0]\nclass = 1", fillcolor="#48e78b"] ;
757 -> 765 ;
766 [label="entropy = 0.0\nsamples = 17\nvalue = [0.0, 21.47, 0.0]\nclass = 1", fillcolor="#39e581"] ;
765 -> 766 ;
767 [label="entropy = 0.0\nsamples = 1\nvalue = [1.65, 0.0, 0.0]\nclass = 2", fillcolor="#e58139"] ;
765 -> 767 ;
768 [label="Value <= 88750000.0\nentropy = 1.02\nsamples = 275\nvalue = [7.44, 298.95, 143.22]\nclass = 1", fillcolor="#9af2bf"] ;
742 -> 768 ;
769 [label="Volleys <= 59.5\nentropy = 1.02\nsamples = 199\nvalue = [1.65, 194.9, 143.22]\nclass = 1", fillcolor="#cbf8de"] ;
768 -> 769 ;
770 [label="Value <= 73750000.0\nentropy = 0.89\nsamples = 138\nvalue = [0.0, 153.6, 67.29]\nclass = 1", fillcolor="#90f0b8"] ;
769 -> 770 ;
771 [label="Potential <= 68.5\nentropy = 1.0\nsamples = 66\nvalue = [0.0, 57.81, 58.67]\nclass = 0", fillcolor="#fdfcff"] ;
770 -> 771 ;
772 [label="Stamina <= 65.0\nentropy = 0.93\nsamples = 46\nvalue = [0.0, 30.56, 58.67]\nclass = 0", fillcolor="#c3a0f3"] ;
771 -> 772 ;
773 [label="CM <= 68.0\nentropy = 0.29\nsamples = 10\nvalue = [0.0, 1.65, 31.06]\nclass = 0", fillcolor="#8844e6"] ;
772 -> 773 ;
774 [label="entropy = 0.0\nsamples = 9\nvalue = [0.0, 0.0, 31.06]\nclass = 0", fillcolor="#8139e5"] ;
773 -> 774 ;
775 [label="entropy = 0.0\nsamples = 1\nvalue = [0.0, 1.65, 0.0]\nclass = 1", fillcolor="#39e581"] ;
773 -> 775 ;
776 [label="Marking <= 56.0\nentropy = 1.0\nsamples = 36\nvalue = [0.0, 28.9, 27.61]\nclass = 1", fillcolor="#f6fef9"] ;
772 -> 776 ;
777 [label="entropy = 0.0\nsamples = 4\nvalue = [0.0, 0.0, 13.8]\nclass = 0", fillcolor="#8139e5"] ;
776 -> 777 ;
778 [label="Value <= 66250000.0\nentropy = 0.91\nsamples = 32\nvalue = [0.0, 28.9, 13.8]\nclass = 1", fillcolor="#98f1bd"] ;
776 -> 778 ;
779 [label="Interceptions <= 64.5\nentropy = 0.91\nsamples = 12\nvalue = [0.0, 6.61, 13.8]\nclass = 0", fillcolor="#bd98f1"] ;
778 -> 779 ;
780 [label="entropy = 0.0\nsamples = 3\nvalue = [0.0, 4.13, 0.0]\nclass = 1", fillcolor="#39e581"] ;
779 -> 780 ;
781 [label="ShotPower <= 66.5\nentropy = 0.62\nsamples = 9\nvalue = [0.0, 2.48, 13.8]\nclass = 0", fillcolor="#985dea"] ;
779 -> 781 ;
782 [label="entropy = 0.0\nsamples = 6\nvalue = [0.0, 0.0, 13.8]\nclass = 0", fillcolor="#8139e5"] ;
781 -> 782 ;
783 [label="entropy = 0.0\nsamples = 3\nvalue = [0.0, 2.48, 0.0]\nclass = 1", fillcolor="#39e581"] ;
781 -> 783 ;
784 [label="entropy = 0.0\nsamples = 20\nvalue = [0.0, 22.3, 0.0]\nclass = 1", fillcolor="#39e581"] ;
778 -> 784 ;
785 [label="entropy = 0.0\nsamples = 20\nvalue = [0.0, 27.25, 0.0]\nclass = 1", fillcolor="#39e581"] ;
771 -> 785 ;
786 [label="RCB <= 47.0\nentropy = 0.41\nsamples = 72\nvalue = [0.0, 95.8, 8.63]\nclass = 1", fillcolor="#4be78c"] ;
770 -> 786 ;
787 [label="Stamina <= 70.0\nentropy = 0.98\nsamples = 12\nvalue = [0.0, 12.39, 8.63]\nclass = 1", fillcolor="#c3f7d9"] ;
786 -> 787 ;
788 [label="entropy = 0.0\nsamples = 7\nvalue = [0.0, 9.91, 0.0]\nclass = 1", fillcolor="#39e581"] ;
787 -> 788 ;
789 [label="Aggression <= 42.5\nentropy = 0.77\nsamples = 5\nvalue = [0.0, 2.48, 8.63]\nclass = 0", fillcolor="#a572ec"] ;
787 -> 789 ;
790 [label="entropy = 0.0\nsamples = 1\nvalue = [0.0, 2.48, 0.0]\nclass = 1", fillcolor="#39e581"] ;
789 -> 790 ;
791 [label="entropy = 0.0\nsamples = 4\nvalue = [0.0, 0.0, 8.63]\nclass = 0", fillcolor="#8139e5"] ;
789 -> 791 ;
792 [label="entropy = 0.0\nsamples = 60\nvalue = [0.0, 83.41, 0.0]\nclass = 1", fillcolor="#39e581"] ;
786 -> 792 ;
793 [label="Vision <= 46.5\nentropy = 1.03\nsamples = 61\nvalue = [1.65, 41.29, 75.92]\nclass = 0", fillcolor="#c7a7f3"] ;
769 -> 793 ;
794 [label="Finishing <= 68.5\nentropy = 0.76\nsamples = 6\nvalue = [1.65, 5.78, 0.0]\nclass = 1", fillcolor="#72eca5"] ;
793 -> 794 ;
