digraph Tree {
node [shape=box, style="filled, rounded", color="black", fontname=helvetica] ;
edge [fontname=helvetica] ;
0 [label="Overall <= 68.5\nmse = 787982781957708.1\nsamples = 11057\nvalue = 29348041.96", fillcolor="#f7dac4"] ;
1 [label="Overall <= 60.5\nmse = 724550699254170.8\nsamples = 6980\nvalue = 40129584.53", fillcolor="#f4cbae"] ;
0 -> 1 [labeldistance=2.5, labelangle=45, headlabel="True"] ;
3 [label="Overall <= 57.5\nmse = 84089590634405.38\nsamples = 2067\nvalue = 18223028.54", fillcolor="#fae8db"] ;
1 -> 3 ;
35 [label="Overall <= 54.5\nmse = 23204669945092.4\nsamples = 1102\nvalue = 12426497.28", fillcolor="#fcf0e7"] ;
3 -> 35 ;
81 [label="Overall <= 51.5\nmse = 9308382414972.89\nsamples = 506\nvalue = 8828063.24", fillcolor="#fdf5ef"] ;
35 -> 81 ;
227 [label="mse = 1364926987560.84\nsamples = 172\nvalue = 5825581.4", fillcolor="#fef9f5"] ;
81 -> 227 ;
228 [label="Potential <= 64.5\nmse = 6365923840940.88\nsamples = 334\nvalue = 10374251.5", fillcolor="#fcf3ec"] ;
81 -> 228 ;
285 [label="Potential <= 55.5\nmse = 3459211939623.48\nsamples = 133\nvalue = 8120300.75", fillcolor="#fdf6f0"] ;
228 -> 285 ;
551 [label="mse = 4010000000000.0\nsamples = 10\nvalue = 3700000.0", fillcolor="#fefbf9"] ;
285 -> 551 ;
552 [label="mse = 1696741357657.47\nsamples = 123\nvalue = 8479674.8", fillcolor="#fdf5ef"] ;
285 -> 552 ;
286 [label="Overall <= 52.5\nmse = 2703348927006.72\nsamples = 201\nvalue = 11865671.64", fillcolor="#fcf1e8"] ;
228 -> 286 ;
561 [label="mse = 673440453686.19\nsamples = 46\nvalue = 10021739.13", fillcolor="#fdf3ec"] ;
286 -> 561 ;
562 [label="mse = 1997252861602.5\nsamples = 155\nvalue = 12412903.23", fillcolor="#fcf0e7"] ;
286 -> 562 ;
82 [label="Potential <= 68.5\nmse = 14675833858835.19\nsamples = 596\nvalue = 15481543.62", fillcolor="#fbece1"] ;
35 -> 82 ;
157 [label="Potential <= 59.5\nmse = 6970602317341.75\nsamples = 354\nvalue = 13033898.31", fillcolor="#fcefe6"] ;
82 -> 157 ;
287 [label="mse = 6441482715535.19\nsamples = 49\nvalue = 8612244.9", fillcolor="#fdf5ef"] ;
157 -> 287 ;
288 [label="Potential <= 65.5\nmse = 3410008062348.81\nsamples = 305\nvalue = 13744262.3", fillcolor="#fceee5"] ;
157 -> 288 ;
407 [label="CF <= 52.5\nmse = 2128549215792.34\nsamples = 172\nvalue = 12668604.65", fillcolor="#fcf0e7"] ;
288 -> 407 ;
597 [label="mse = 944251543209.89\nsamples = 72\nvalue = 11513888.89", fillcolor="#fcf1e9"] ;
407 -> 597 ;
598 [label="mse = 1330000000000.0\nsamples = 100\nvalue = 13500000.0", fillcolor="#fceee5"] ;
407 -> 598 ;
408 [label="mse = 1635818870484.5\nsamples = 133\nvalue = 15135338.35", fillcolor="#fbece2"] ;
288 -> 408 ;
158 [label="RF <= 52.5\nmse = 4363926644354.88\nsamples = 242\nvalue = 19061983.47", fillcolor="#fae7d9"] ;
82 -> 158 ;
495 [label="mse = 2320173066522.44\nsamples = 86\nvalue = 17651162.79", fillcolor="#fae9dc"] ;
158 -> 495 ;
496 [label="Overall <= 56.5\nmse = 3788420447074.31\nsamples = 156\nvalue = 19839743.59", fillcolor="#fae6d8"] ;
158 -> 496 ;
509 [label="mse = 924531325108.19\nsamples = 79\nvalue = 18594936.71", fillcolor="#fae8da"] ;
496 -> 509 ;
510 [label="Potential <= 70.5\nmse = 3505818856468.19\nsamples = 77\nvalue = 21116883.12", fillcolor="#fae4d5"] ;
496 -> 510 ;
585 [label="mse = 1902343750000.0\nsamples = 16\nvalue = 18187500.0", fillcolor="#fae8db"] ;
510 -> 585 ;
586 [label="mse = 1085192152647.06\nsamples = 61\nvalue = 21885245.9", fillcolor="#f9e3d4"] ;
510 -> 586 ;
36 [label="Potential <= 68.5\nmse = 71431148218744.0\nsamples = 965\nvalue = 24842487.05", fillcolor="#f8dfcd"] ;
3 -> 36 ;
49 [label="Potential <= 60.5\nmse = 30372046698607.56\nsamples = 499\nvalue = 19258517.03", fillcolor="#fae7d9"] ;
36 -> 49 ;
141 [label="Age <= 31.5\nmse = 22997727405162.84\nsamples = 131\nvalue = 13480916.03", fillcolor="#fcefe5"] ;
49 -> 141 ;
263 [label="Overall <= 59.5\nmse = 11149401451597.69\nsamples = 103\nvalue = 15271844.66", fillcolor="#fbece1"] ;
141 -> 263 ;
359 [label="mse = 4249947490023.09\nsamples = 69\nvalue = 13507246.38", fillcolor="#fceee5"] ;
263 -> 359 ;
360 [label="mse = 6007785467128.0\nsamples = 34\nvalue = 18852941.18", fillcolor="#fae7da"] ;
263 -> 360 ;
264 [label="mse = 11381377551020.4\nsamples = 28\nvalue = 6892857.14", fillcolor="#fdf7f3"] ;
141 -> 264 ;
142 [label="Overall <= 59.5\nmse = 16884333648393.19\nsamples = 368\nvalue = 21315217.39", fillcolor="#f9e4d5"] ;
49 -> 142 ;
179 [label="StandingTackle <= 52.5\nmse = 6312343750000.0\nsamples = 240\nvalue = 18987500.0", fillcolor="#fae7da"] ;
142 -> 179 ;
403 [label="Overall <= 58.5\nmse = 4503055555555.56\nsamples = 120\nvalue = 20383333.33", fillcolor="#fae5d7"] ;
179 -> 403 ;
507 [label="mse = 2158284023668.62\nsamples = 52\nvalue = 18730769.23", fillcolor="#fae8da"] ;
403 -> 507 ;
508 [label="mse = 2610726643598.62\nsamples = 68\nvalue = 21647058.82", fillcolor="#f9e4d4"] ;
403 -> 508 ;
404 [label="mse = 4224930555555.56\nsamples = 120\nvalue = 17591666.67", fillcolor="#fae9dd"] ;
179 -> 404 ;
180 [label="CF <= 56.5\nmse = 7498962402343.75\nsamples = 128\nvalue = 25679687.5", fillcolor="#f8decc"] ;
142 -> 180 ;
421 [label="mse = 4412946428571.44\nsamples = 56\nvalue = 23625000.0", fillcolor="#f9e1d0"] ;
180 -> 421 ;
422 [label="mse = 4061728395061.75\nsamples = 72\nvalue = 27277777.78", fillcolor="#f8dcc8"] ;
180 -> 422 ;
50 [label="Overall <= 59.5\nmse = 46255829910294.88\nsamples = 466\nvalue = 30821888.41", fillcolor="#f7d8c1"] ;
36 -> 50 ;
83 [label="Potential <= 71.5\nmse = 15230566037735.88\nsamples = 265\nvalue = 26400000.0", fillcolor="#f8ddca"] ;
50 -> 83 ;
257 [label="Overall <= 58.5\nmse = 7261741863905.44\nsamples = 104\nvalue = 23336538.46", fillcolor="#f9e1d1"] ;
83 -> 257 ;
455 [label="mse = 3955851728446.5\nsamples = 49\nvalue = 21408163.27", fillcolor="#f9e4d5"] ;
257 -> 455 ;
456 [label="mse = 3942479338843.0\nsamples = 55\nvalue = 25054545.45", fillcolor="#f8dfcd"] ;
257 -> 456 ;
258 [label="Overall <= 58.5\nmse = 10399926700358.75\nsamples = 161\nvalue = 28378881.99", fillcolor="#f8dbc6"] ;
83 -> 258 ;
307 [label="mse = 2711045706371.12\nsamples = 76\nvalue = 25802631.58", fillcolor="#f8decb"] ;
258 -> 307 ;
308 [label="Potential <= 72.5\nmse = 6034394463667.88\nsamples = 85\nvalue = 30682352.94", fillcolor="#f7d8c1"] ;
258 -> 308 ;
539 [label="mse = 3760000000000.0\nsamples = 15\nvalue = 27200000.0", fillcolor="#f8dcc9"] ;
308 -> 539 ;
540 [label="mse = 3366326530612.25\nsamples = 70\nvalue = 31428571.43", fillcolor="#f7d7c0"] ;
308 -> 540 ;
84 [label="Potential <= 72.5\nmse = 27393641246503.5\nsamples = 201\nvalue = 36651741.29", fillcolor="#f5d0b5"] ;
50 -> 84 ;
183 [label="CF <= 55.5\nmse = 9209919261822.25\nsamples = 102\nvalue = 32470588.24", fillcolor="#f6d5be"] ;
84 -> 183 ;
413 [label="mse = 3708333333333.38\nsamples = 36\nvalue = 29666666.67", fillcolor="#f7d9c3"] ;
183 -> 413 ;
414 [label="Potential <= 70.5\nmse = 5583333333333.25\nsamples = 66\nvalue = 34000000.0", fillcolor="#f6d3ba"] ;
183 -> 414 ;
565 [label="mse = 2999755859375.0\nsamples = 32\nvalue = 32234375.0", fillcolor="#f6d6be"] ;
414 -> 565 ;
566 [label="mse = 2319420415224.75\nsamples = 34\nvalue = 35661764.71", fillcolor="#f6d1b7"] ;
414 -> 566 ;
184 [label="CF <= 57.5\nmse = 9558973574125.5\nsamples = 99\nvalue = 40959595.96", fillcolor="#f4caac"] ;
84 -> 184 ;
451 [label="mse = 5810950413222.75\nsamples = 44\nvalue = 38863636.36", fillcolor="#f5cdb0"] ;
184 -> 451 ;
452 [label="Potential <= 73.5\nmse = 6231404958678.0\nsamples = 55\nvalue = 42636363.64", fillcolor="#f4c8a8"] ;
184 -> 452 ;
579 [label="mse = 1109467455621.5\nsamples = 13\nvalue = 39423076.92", fillcolor="#f5ccaf"] ;
452 -> 579 ;
580 [label="mse = 3631660997732.5\nsamples = 42\nvalue = 43630952.38", fillcolor="#f3c7a6"] ;
452 -> 580 ;
4 [label="Potential <= 65.5\nmse = 707158662453332.0\nsamples = 4913\nvalue = 49346122.53", fillcolor="#f2bf9b"] ;
1 -> 4 ;
5 [label="Age <= 31.5\nmse = 135701954370854.38\nsamples = 1051\nvalue = 32973358.71", fillcolor="#f6d5bd"] ;
4 -> 5 ;
39 [label="Overall <= 63.5\nmse = 87798018732782.5\nsamples = 825\nvalue = 36674545.45", fillcolor="#f5d0b5"] ;
5 -> 39 ;
45 [label="Potential <= 62.5\nmse = 37180846536894.5\nsamples = 470\nvalue = 30997872.34", fillcolor="#f7d7c1"] ;
39 -> 45 ;
135 [label="CB <= 59.5\nmse = 17720742932281.38\nsamples = 156\nvalue = 25794871.79", fillcolor="#f8decb"] ;
45 -> 135 ;
283 [label="Overall <= 61.5\nmse = 9730011216151.12\nsamples = 79\nvalue = 28468354.43", fillcolor="#f8dbc6"] ;
135 -> 283 ;
435 [label="mse = 4415895061728.5\nsamples = 36\nvalue = 26027777.78", fillcolor="#f8decb"] ;
283 -> 435 ;
436 [label="mse = 5017306652244.38\nsamples = 43\nvalue = 30511627.91", fillcolor="#f7d8c2"] ;
283 -> 436 ;
284 [label="Potential <= 61.5\nmse = 11062236464833.88\nsamples = 77\nvalue = 23051948.05", fillcolor="#f9e2d1"] ;
135 -> 284 ;
505 [label="mse = 6566400000000.0\nsamples = 25\nvalue = 20440000.0", fillcolor="#fae5d7"] ;
284 -> 505 ;
506 [label="Age <= 30.5\nmse = 8366863905325.5\nsamples = 52\nvalue = 24307692.31", fillcolor="#f9e0cf"] ;
284 -> 506 ;
589 [label="mse = 5535147392290.25\nsamples = 42\nvalue = 25190476.19", fillcolor="#f8dfcd"] ;
506 -> 589 ;
590 [label="mse = 3240000000000.0\nsamples = 10\nvalue = 20600000.0", fillcolor="#fae5d6"] ;
506 -> 590 ;
136 [label="SlidingTackle <= 52.5\nmse = 26717666031076.25\nsamples = 314\nvalue = 33582802.55", fillcolor="#f6d4bb"] ;
45 -> 136 ;
195 [label="Overall <= 61.5\nmse = 17912021289997.25\nsamples = 126\nvalue = 37448412.7", fillcolor="#f5cfb3"] ;
136 -> 195 ;
331 [label="mse = 2215392561983.5\nsamples = 22\nvalue = 31977272.73", fillcolor="#f7d6bf"] ;
195 -> 331 ;
332 [label="Potential <= 63.5\nmse = 13560928254438.0\nsamples = 104\nvalue = 38605769.23", fillcolor="#f5cdb1"] ;
195 -> 332 ;
387 [label="mse = 3946109693877.75\nsamples = 56\nvalue = 36517857.14", fillcolor="#f5d0b5"] ;
332 -> 387 ;
388 [label="Overall <= 62.5\nmse = 13758680555555.75\nsamples = 48\nvalue = 41041666.67", fillcolor="#f4caac"] ;
332 -> 388 ;
433 [label="mse = 657894736842.0\nsamples = 19\nvalue = 37500000.0", fillcolor="#f5cfb3"] ;
388 -> 433 ;
434 [label="mse = 8739595719382.0\nsamples = 29\nvalue = 43362068.97", fillcolor="#f3c7a7"] ;
388 -> 434 ;
196 [label="Overall <= 61.5\nmse = 15892223574015.38\nsamples = 188\nvalue = 30992021.28", fillcolor="#f7d7c1"] ;
136 -> 196 ;
383 [label="mse = 4244722222222.25\nsamples = 30\nvalue = 27116666.67", fillcolor="#f8dcc9"] ;
196 -> 383 ;
384 [label="Potential <= 63.5\nmse = 14710743470597.62\nsamples = 158\nvalue = 31727848.1", fillcolor="#f7d6bf"] ;
196 -> 384 ;
385 [label="LCM <= 62.5\nmse = 10669777882797.62\nsamples = 92\nvalue = 30097826.09", fillcolor="#f7d9c3"] ;
384 -> 385 ;
395 [label="mse = 4330497794581.0\nsamples = 69\nvalue = 28760869.57", fillcolor="#f7dac5"] ;
385 -> 395 ;
396 [label="mse = 8238185255198.25\nsamples = 23\nvalue = 34108695.65", fillcolor="#f6d3ba"] ;
385 -> 396 ;
386 [label="Overall <= 62.5\nmse = 11477272727272.75\nsamples = 66\nvalue = 34000000.0", fillcolor="#f6d3ba"] ;
384 -> 386 ;
475 [label="mse = 5282222222222.25\nsamples = 30\nvalue = 31633333.33", fillcolor="#f7d6bf"] ;
386 -> 475 ;
476 [label="mse = 8082561728394.75\nsamples = 36\nvalue = 35972222.22", fillcolor="#f5d1b6"] ;
386 -> 476 ;
46 [label="RF <= 61.5\nmse = 55664550684388.0\nsamples = 355\nvalue = 44190140.85", fillcolor="#f3c6a5"] ;
39 -> 46 ;
123 [label="Potential <= 64.5\nmse = 26978017491653.25\nsamples = 166\nvalue = 39262048.19", fillcolor="#f5ccaf"] ;
46 -> 123 ;
255 [label="Marking <= 53.5\nmse = 21110726643598.25\nsamples = 85\nvalue = 36147058.82", fillcolor="#f5d1b6"] ;
123 -> 255 ;
355 [label="mse = 21428571428571.5\nsamples = 14\nvalue = 42500000.0", fillcolor="#f4c8a9"] ;
255 -> 355 ;
356 [label="Age <= 29.5\nmse = 11520531640547.75\nsamples = 71\nvalue = 34894366.2", fillcolor="#f6d2b9"] ;
255 -> 356 ;
471 [label="mse = 5011897679952.75\nsamples = 41\nvalue = 36707317.07", fillcolor="#f5d0b5"] ;
356 -> 471 ;
472 [label="mse = 9784722222222.12\nsamples = 30\nvalue = 32416666.67", fillcolor="#f6d5be"] ;
356 -> 472 ;
256 [label="Age <= 27.5\nmse = 12267565919829.25\nsamples = 81\nvalue = 42530864.2", fillcolor="#f4c8a9"] ;
123 -> 256 ;
419 [label="mse = 11058263971462.75\nsamples = 29\nvalue = 45603448.28", fillcolor="#f3c4a2"] ;
256 -> 419 ;
420 [label="mse = 4740661982248.25\nsamples = 52\nvalue = 40817307.69", fillcolor="#f4caac"] ;
256 -> 420 ;
124 [label="Potential <= 64.5\nmse = 40794630609446.0\nsamples = 189\nvalue = 48518518.52", fillcolor="#f2c09c"] ;
46 -> 124 ;
193 [label="Age <= 28.5\nmse = 20899793582285.5\nsamples = 73\nvalue = 43321917.81", fillcolor="#f3c7a7"] ;
124 -> 193 ;
369 [label="mse = 6687932525951.25\nsamples = 34\nvalue = 46397058.82", fillcolor="#f3c3a1"] ;
193 -> 369 ;
370 [label="Marking <= 57.5\nmse = 17858316896778.5\nsamples = 39\nvalue = 40641025.64", fillcolor="#f4cbad"] ;
193 -> 370 ;
479 [label="mse = 5038831360946.5\nsamples = 26\nvalue = 42596153.85", fillcolor="#f4c8a9"] ;
370 -> 479 ;
480 [label="mse = 20562130177514.75\nsamples = 13\nvalue = 36730769.23", fillcolor="#f5d0b5"] ;
370 -> 480 ;
194 [label="RDM <= 61.5\nmse = 25625650267538.5\nsamples = 116\nvalue = 51788793.1", fillcolor="#f1bc95"] ;
124 -> 194 ;
317 [label="Age <= 29.5\nmse = 11429838988920.0\nsamples = 76\nvalue = 53782894.74", fillcolor="#f1b991"] ;
194 -> 317 ;
373 [label="mse = 3968032525510.0\nsamples = 56\nvalue = 55401785.71", fillcolor="#f0b78e"] ;
317 -> 373 ;
374 [label="mse = 4437500000000.0\nsamples = 20\nvalue = 49250000.0", fillcolor="#f2bf9b"] ;
317 -> 374 ;
318 [label="Acceleration <= 70.5\nmse = 30687500000000.0\nsamples = 40\nvalue = 48000000.0", fillcolor="#f2c19d"] ;
194 -> 318 ;
515 [label="mse = 23039940828403.0\nsamples = 26\nvalue = 49807692.31", fillcolor="#f2be9a"] ;
318 -> 515 ;
516 [label="mse = 27551020408163.25\nsamples = 14\nvalue = 44642857.14", fillcolor="#f3c5a4"] ;
318 -> 516 ;
40 [label="Age <= 33.5\nmse = 78019603140418.25\nsamples = 226\nvalue = 19462389.38", fillcolor="#fae7d9"] ;
5 -> 40 ;
137 [label="Overall <= 63.5\nmse = 64673196159122.0\nsamples = 135\nvalue = 23729629.63", fillcolor="#f9e1d0"] ;
40 -> 137 ;
199 [label="LCB <= 60.5\nmse = 19899218946838.0\nsamples = 63\nvalue = 18682539.68", fillcolor="#fae8da"] ;
137 -> 199 ;
447 [label="mse = 12900826446281.0\nsamples = 22\nvalue = 21909090.91", fillcolor="#f9e3d4"] ;
199 -> 447 ;
448 [label="Age <= 32.5\nmse = 15070791195716.81\nsamples = 41\nvalue = 16951219.51", fillcolor="#fbeade"] ;
199 -> 448 ;
537 [label="mse = 9764565992865.62\nsamples = 29\nvalue = 18448275.86", fillcolor="#fae8db"] ;
448 -> 537 ;
538 [label="mse = 9388888888888.88\nsamples = 12\nvalue = 13333333.33", fillcolor="#fcefe5"] ;
448 -> 538 ;
200 [label="Marking <= 55.5\nmse = 62058593750000.0\nsamples = 72\nvalue = 28145833.33", fillcolor="#f8dbc7"] ;
137 -> 200 ;
225 [label="Stamina <= 62.5\nmse = 23741600000000.0\nsamples = 25\nvalue = 36220000.0", fillcolor="#f5d0b6"] ;
200 -> 225 ;
559 [label="mse = 17545454545454.5\nsamples = 11\nvalue = 33000000.0", fillcolor="#f6d5bd"] ;
225 -> 559 ;
560 [label="mse = 14062500000000.0\nsamples = 14\nvalue = 38750000.0", fillcolor="#f5cdb1"] ;
225 -> 560 ;
226 [label="Age <= 32.5\nmse = 29318243549117.12\nsamples = 47\nvalue = 23851063.83", fillcolor="#f9e1d0"] ;
200 -> 226 ;
325 [label="mse = 13360000000000.0\nsamples = 20\nvalue = 28800000.0", fillcolor="#f7dac5"] ;
226 -> 325 ;
326 [label="mse = 9558299039780.44\nsamples = 27\nvalue = 20185185.19", fillcolor="#fae6d7"] ;
226 -> 326 ;
138 [label="StandingTackle <= 59.5\nmse = 30729863543050.38\nsamples = 91\nvalue = 13131868.13", fillcolor="#fcefe6"] ;
40 -> 138 ;
323 [label="Potential <= 63.5\nmse = 26520833333333.31\nsamples = 36\nvalue = 16916666.67", fillcolor="#fbeade"] ;
138 -> 323 ;
445 [label="mse = 13395061728395.06\nsamples = 18\nvalue = 13777777.78", fillcolor="#fceee4"] ;
323 -> 445 ;
446 [label="mse = 19941358024691.38\nsamples = 18\nvalue = 20055555.56", fillcolor="#fae6d7"] ;
323 -> 446 ;
324 [label="Age <= 35.5\nmse = 17971570247933.88\nsamples = 55\nvalue = 10654545.45", fillcolor="#fcf2eb"] ;
138 -> 324 ;
405 [label="Potential <= 63.5\nmse = 9844375000000.0\nsamples = 40\nvalue = 12425000.0", fillcolor="#fcf0e7"] ;
324 -> 405 ;
593 [label="mse = 6916666666666.69\nsamples = 18\nvalue = 10166666.67", fillcolor="#fdf3ec"] ;
405 -> 593 ;
594 [label="mse = 4652892561983.47\nsamples = 22\nvalue = 14272727.27", fillcolor="#fbede3"] ;
405 -> 594 ;
406 [label="mse = 8995555555555.56\nsamples = 15\nvalue = 5933333.33", fillcolor="#fef9f5"] ;
324 -> 406 ;
6 [label="Potential <= 77.5\nmse = 769869719749172.0\nsamples = 3862\nvalue = 53801786.64", fillcolor="#f1b991"] ;
4 -> 6 ;
9 [label="Age <= 32.5\nmse = 666740947833898.5\nsamples = 3510\nvalue = 55770170.94", fillcolor="#f0b78d"] ;
6 -> 9 ;
17 [label="Overall <= 63.5\nmse = 658259210194751.5\nsamples = 3347\nvalue = 57055213.62", fillcolor="#f0b58a"] ;
9 -> 17 ;
19 [label="Potential <= 72.5\nmse = 96605690796774.5\nsamples = 857\nvalue = 45701866.98", fillcolor="#f3c4a2"] ;
17 -> 19 ;
47 [label="Overall <= 62.5\nmse = 45782717926254.0\nsamples = 591\nvalue = 41411167.51", fillcolor="#f4caab"] ;
19 -> 47 ;
89 [label="CF <= 58.5\nmse = 23081834545948.75\nsamples = 364\nvalue = 37902472.53", fillcolor="#f5ceb2"] ;
47 -> 89 ;
229 [label="Potential <= 69.5\nmse = 15297335246177.0\nsamples = 181\nvalue = 35367403.31", fillcolor="#f6d2b8"] ;
89 -> 229 ;
277 [label="Overall <= 61.5\nmse = 9676752798586.0\nsamples = 109\nvalue = 33270642.2", fillcolor="#f6d4bc"] ;
229 -> 277 ;
427 [label="mse = 6501457475994.5\nsamples = 54\nvalue = 31324074.07", fillcolor="#f7d7c0"] ;
277 -> 427 ;
428 [label="mse = 5421487603306.0\nsamples = 55\nvalue = 35181818.18", fillcolor="#f6d2b8"] ;
277 -> 428 ;
278 [label="mse = 7074652777778.0\nsamples = 72\nvalue = 38541666.67", fillcolor="#f5cdb1"] ;
229 -> 278 ;
230 [label="Overall <= 61.5\nmse = 18138045328317.25\nsamples = 183\nvalue = 40409836.07", fillcolor="#f4cbad"] ;
89 -> 230 ;
289 [label="Potential <= 69.5\nmse = 10420795349451.5\nsamples = 87\nvalue = 37873563.22", fillcolor="#f5ceb2"] ;
230 -> 289 ;
391 [label="mse = 3854560491493.25\nsamples = 46\nvalue = 35597826.09", fillcolor="#f6d1b7"] ;
289 -> 391 ;
392 [label="mse = 5458060678168.0\nsamples = 41\nvalue = 40426829.27", fillcolor="#f4cbad"] ;
289 -> 392 ;
290 [label="Potential <= 70.5\nmse = 14019097222222.0\nsamples = 96\nvalue = 42708333.33", fillcolor="#f4c8a8"] ;
230 -> 290 ;
353 [label="StandingTackle <= 56.5\nmse = 7226666666666.75\nsamples = 75\nvalue = 41300000.0", fillcolor="#f4caab"] ;
290 -> 353 ;
573 [label="mse = 3587745229777.25\nsamples = 61\nvalue = 42049180.33", fillcolor="#f4c9aa"] ;
353 -> 573 ;
574 [label="mse = 9980867346938.75\nsamples = 14\nvalue = 38035714.29", fillcolor="#f5ceb2"] ;
353 -> 574 ;
354 [label="mse = 5895691609977.0\nsamples = 21\nvalue = 47738095.24", fillcolor="#f2c19e"] ;
290 -> 354 ;
90 [label="LF <= 58.5\nmse = 30788245454016.25\nsamples = 227\nvalue = 47037444.93", fillcolor="#f2c29f"] ;
47 -> 90 ;
201 [label="Potential <= 68.5\nmse = 18188208616780.0\nsamples = 105\nvalue = 43119047.62", fillcolor="#f4c7a7"] ;
90 -> 201 ;
279 [label="mse = 4209683161267.75\nsamples = 53\nvalue = 39811320.75", fillcolor="#f4ccae"] ;
201 -> 279 ;
280 [label="Potential <= 70.5\nmse = 9918176775148.0\nsamples = 52\nvalue = 46490384.62", fillcolor="#f3c3a0"] ;
201 -> 280 ;
513 [label="mse = 5556582840236.25\nsamples = 26\nvalue = 44326923.08", fillcolor="#f3c6a5"] ;
280 -> 513 ;
514 [label="mse = 4918639053254.5\nsamples = 26\nvalue = 48653846.15", fillcolor="#f2c09c"] ;
280 -> 514 ;
202 [label="Potential <= 69.5\nmse = 17045149153454.0\nsamples = 122\nvalue = 50409836.07", fillcolor="#f2be98"] ;
90 -> 202 ;
305 [label="Special <= 1732.0\nmse = 9338010204081.5\nsamples = 70\nvalue = 47964285.71", fillcolor="#f2c19d"] ;
202 -> 305 ;
473 [label="mse = 4055555555555.5\nsamples = 60\nvalue = 48833333.33", fillcolor="#f2c09c"] ;
305 -> 473 ;
474 [label="mse = 9312500000000.0\nsamples = 10\nvalue = 42750000.0", fillcolor="#f4c8a8"] ;
305 -> 474 ;
306 [label="mse = 8531342455621.0\nsamples = 52\nvalue = 53701923.08", fillcolor="#f1b991"] ;
202 -> 306 ;
48 [label="Overall <= 62.5\nmse = 77740845299338.5\nsamples = 266\nvalue = 55234962.41", fillcolor="#f0b78e"] ;
19 -> 48 ;
129 [label="Potential <= 74.5\nmse = 50856288809618.5\nsamples = 174\nvalue = 51494252.87", fillcolor="#f1bc96"] ;
48 -> 129 ;
175 [label="RF <= 59.5\nmse = 17157923201730.5\nsamples = 86\nvalue = 46569767.44", fillcolor="#f3c3a0"] ;
129 -> 175 ;
397 [label="mse = 9629017013232.5\nsamples = 46\nvalue = 44347826.09", fillcolor="#f3c6a5"] ;
175 -> 397 ;
398 [label="Overall <= 61.5\nmse = 13609375000000.0\nsamples = 40\nvalue = 49125000.0", fillcolor="#f2bf9b"] ;
175 -> 398 ;
417 [label="mse = 2646502835539.0\nsamples = 23\nvalue = 46304347.83", fillcolor="#f3c3a1"] ;
398 -> 417 ;
418 [label="mse = 3114186851211.0\nsamples = 17\nvalue = 52941176.47", fillcolor="#f1ba93"] ;
398 -> 418 ;
176 [label="Overall <= 61.5\nmse = 36928589876033.0\nsamples = 88\nvalue = 56306818.18", fillcolor="#f0b68c"] ;
129 -> 176 ;
275 [label="LAM <= 54.5\nmse = 8093362603306.0\nsamples = 44\nvalue = 52556818.18", fillcolor="#f1bb94"] ;
176 -> 275 ;
533 [label="mse = 2685950413223.5\nsamples = 11\nvalue = 48636363.64", fillcolor="#f2c09c"] ;
275 -> 533 ;
534 [label="mse = 3064738292010.5\nsamples = 33\nvalue = 53863636.36", fillcolor="#f1b991"] ;
275 -> 534 ;
276 [label="Potential <= 75.5\nmse = 37638817148761.0\nsamples = 44\nvalue = 60056818.18", fillcolor="#efb184"] ;
176 -> 276 ;
301 [label="mse = 21093750000000.0\nsamples = 16\nvalue = 53750000.0", fillcolor="#f1b991"] ;
276 -> 301 ;
302 [label="LongShots <= 48.0\nmse = 11375956632653.5\nsamples = 28\nvalue = 63660714.29", fillcolor="#eeac7d"] ;
276 -> 302 ;
549 [label="mse = 6198347107438.5\nsamples = 11\nvalue = 60227272.73", fillcolor="#efb184"] ;
302 -> 549 ;
550 [label="mse = 2162629757785.0\nsamples = 17\nvalue = 65882352.94", fillcolor="#eda978"] ;
302 -> 550 ;
130 [label="Potential <= 76.5\nmse = 52069795604915.5\nsamples = 92\nvalue = 62309782.61", fillcolor="#eeae80"] ;
48 -> 130 ;
223 [label="Finishing <= 40.5\nmse = 24579394327832.0\nsamples = 79\nvalue = 60158227.85", fillcolor="#efb184"] ;
130 -> 223 ;
337 [label="Potential <= 74.5\nmse = 14878121284186.0\nsamples = 29\nvalue = 56034482.76", fillcolor="#f0b68d"] ;
223 -> 337 ;
469 [label="mse = 2032871972318.5\nsamples = 17\nvalue = 53235294.12", fillcolor="#f1ba92"] ;
337 -> 469 ;
470 [label="mse = 6250000000000.0\nsamples = 12\nvalue = 60000000.0", fillcolor="#efb184"] ;
337 -> 470 ;
338 [label="Potential <= 74.5\nmse = 14622500000000.0\nsamples = 50\nvalue = 62550000.0", fillcolor="#eeae7f"] ;
223 -> 338 ;
443 [label="mse = 6183115338882.5\nsamples = 29\nvalue = 60258620.69", fillcolor="#efb184"] ;
338 -> 443 ;
444 [label="mse = 9013605442176.5\nsamples = 21\nvalue = 65714285.71", fillcolor="#eda978"] ;
338 -> 444 ;
224 [label="mse = 20044378698223.0\nsamples = 13\nvalue = 75384615.38", fillcolor="#eb9d64"] ;
130 -> 224 ;
20 [label="Potential <= 72.5\nmse = 791934409188392.5\nsamples = 2490\nvalue = 60962771.08", fillcolor="#efb082"] ;
17 -> 20 ;
21 [label="Potential <= 66.5\nmse = 428116506064031.06\nsamples = 1857\nvalue = 65215185.78", fillcolor="#edaa7a"] ;
20 -> 21 ;
41 [label="CB <= 60.5\nmse = 81542659147658.5\nsamples = 327\nvalue = 55114678.9", fillcolor="#f0b78f"] ;
21 -> 41 ;
79 [label="Age <= 30.5\nmse = 31390714766317.0\nsamples = 139\nvalue = 62302158.27", fillcolor="#eeae80"] ;
41 -> 79 ;
231 [label="Overall <= 64.5\nmse = 16322741660579.5\nsamples = 111\nvalue = 64324324.32", fillcolor="#eeab7b"] ;
79 -> 231 ;
299 [label="mse = 562500000000.0\nsamples = 10\nvalue = 54750000.0", fillcolor="#f0b88f"] ;
231 -> 299 ;
300 [label="Age <= 28.5\nmse = 7908538378590.5\nsamples = 101\nvalue = 65272277.23", fillcolor="#edaa79"] ;
231 -> 300 ;
543 [label="Overall <= 65.5\nmse = 7048888888888.5\nsamples = 75\nvalue = 66133333.33", fillcolor="#eda978"] ;
300 -> 543 ;
545 [label="mse = 7037706611570.0\nsamples = 22\nvalue = 63295454.55", fillcolor="#eead7e"] ;
543 -> 545 ;
546 [label="mse = 2322890708437.0\nsamples = 53\nvalue = 67311320.75", fillcolor="#eda775"] ;
543 -> 546 ;
544 [label="mse = 2080251479290.5\nsamples = 26\nvalue = 62788461.54", fillcolor="#eead7f"] ;
300 -> 544 ;
232 [label="Age <= 31.5\nmse = 10650510204081.5\nsamples = 28\nvalue = 54285714.29", fillcolor="#f0b990"] ;
79 -> 232 ;
499 [label="mse = 414540816326.5\nsamples = 14\nvalue = 57321428.57", fillcolor="#f0b58a"] ;
232 -> 499 ;
500 [label="mse = 2455357142857.0\nsamples = 14\nvalue = 51250000.0", fillcolor="#f1bd97"] ;
232 -> 500 ;
80 [label="Age <= 30.5\nmse = 52187606100045.0\nsamples = 188\nvalue = 49800531.91", fillcolor="#f2be9a"] ;
41 -> 80 ;
189 [label="RF <= 62.5\nmse = 36924071589335.0\nsamples = 152\nvalue = 51891447.37", fillcolor="#f1bc95"] ;
80 -> 189 ;
217 [label="Overall <= 64.5\nmse = 10938461834410.5\nsamples = 114\nvalue = 49451754.39", fillcolor="#f2bf9a"] ;
189 -> 217 ;
381 [label="mse = 562500000000.0\nsamples = 20\nvalue = 44750000.0", fillcolor="#f3c5a4"] ;
217 -> 381 ;
382 [label="Age <= 28.5\nmse = 7441857175192.0\nsamples = 94\nvalue = 50452127.66", fillcolor="#f2be98"] ;
217 -> 382 ;
535 [label="mse = 5640000000000.0\nsamples = 50\nvalue = 51900000.0", fillcolor="#f1bc95"] ;
382 -> 535 ;
536 [label="mse = 4400180785124.5\nsamples = 44\nvalue = 48806818.18", fillcolor="#f2c09c"] ;
382 -> 536 ;
218 [label="Interceptions <= 65.5\nmse = 43455678670360.0\nsamples = 38\nvalue = 59210526.32", fillcolor="#efb286"] ;
189 -> 218 ;
467 [label="Jumping <= 67.0\nmse = 28858024691358.0\nsamples = 27\nvalue = 61111111.11", fillcolor="#efaf82"] ;
218 -> 467 ;
581 [label="mse = 30722222222222.0\nsamples = 15\nvalue = 58833333.33", fillcolor="#efb387"] ;
467 -> 581 ;
582 [label="mse = 11935763888888.5\nsamples = 12\nvalue = 63958333.33", fillcolor="#eeac7c"] ;
467 -> 582 ;
468 [label="mse = 48657024793388.5\nsamples = 11\nvalue = 54545454.55", fillcolor="#f0b890"] ;
218 -> 468 ;
190 [label="Volleys <= 48.5\nmse = 20235339506172.5\nsamples = 36\nvalue = 40972222.22", fillcolor="#f4caac"] ;
80 -> 190 ;
527 [label="Age <= 31.5\nmse = 8760000000000.0\nsamples = 25\nvalue = 39300000.0", fillcolor="#f5ccaf"] ;
190 -> 527 ;
563 [label="mse = 0.0\nsamples = 11\nvalue = 42500000.0", fillcolor="#f4c8a9"] ;
527 -> 563 ;
564 [label="mse = 1275510204081.75\nsamples = 14\nvalue = 36785714.29", fillcolor="#f5d0b5"] ;
527 -> 564 ;
528 [label="mse = 25516528925619.75\nsamples = 11\nvalue = 44772727.27", fillcolor="#f3c5a4"] ;
190 -> 528 ;
42 [label="Overall <= 64.5\nmse = 475723705536332.0\nsamples = 1530\nvalue = 67373921.57", fillcolor="#eda775"] ;
21 -> 42 ;
57 [label="RF <= 59.5\nmse = 36145214647567.0\nsamples = 214\nvalue = 56787383.18", fillcolor="#f0b58b"] ;
42 -> 57 ;
173 [label="Potential <= 70.5\nmse = 15576216712580.0\nsamples = 99\nvalue = 52045454.55", fillcolor="#f1bb95"] ;
57 -> 173 ;
297 [label="Potential <= 69.5\nmse = 5440771349862.0\nsamples = 66\nvalue = 49772727.27", fillcolor="#f2be9a"] ;
173 -> 297 ;
587 [label="mse = 3852561432736.5\nsamples = 49\nvalue = 48826530.61", fillcolor="#f2c09c"] ;
297 -> 587 ;
588 [label="mse = 0.0\nsamples = 17\nvalue = 52500000.0", fillcolor="#f1bb94"] ;
297 -> 588 ;
298 [label="mse = 4855371900826.0\nsamples = 33\nvalue = 56590909.09", fillcolor="#f0b58b"] ;
173 -> 298 ;
174 [label="Potential <= 70.5\nmse = 17830812854442.0\nsamples = 115\nvalue = 60869565.22", fillcolor="#efb083"] ;
57 -> 174 ;
327 [label="Marking <= 51.5\nmse = 9797183336144.0\nsamples = 77\nvalue = 58961038.96", fillcolor="#efb287"] ;
174 -> 327 ;
493 [label="mse = 3504132231405.0\nsamples = 55\nvalue = 60136363.64", fillcolor="#efb184"] ;
327 -> 493 ;
494 [label="mse = 13442665289256.5\nsamples = 22\nvalue = 56022727.27", fillcolor="#f0b68d"] ;
327 -> 494 ;
328 [label="SlidingTackle <= 55.5\nmse = 11772853185595.5\nsamples = 38\nvalue = 64736842.11", fillcolor="#eeab7b"] ;
174 -> 328 ;
575 [label="mse = 2469135802469.0\nsamples = 27\nvalue = 66111111.11", fillcolor="#eda978"] ;
328 -> 575 ;
576 [label="mse = 18595041322313.5\nsamples = 11\nvalue = 61363636.36", fillcolor="#efaf82"] ;
328 -> 576 ;
58 [label="LW <= 68.5\nmse = 526016757328555.06\nsamples = 1316\nvalue = 69095440.73", fillcolor="#eca571"] ;
42 -> 58 ;
61 [label="Age <= 30.5\nmse = 406992989838668.0\nsamples = 1187\nvalue = 70504212.3", fillcolor="#eca36f"] ;
58 -> 61 ;
75 [label="Overall <= 65.5\nmse = 421084594420708.0\nsamples = 1089\nvalue = 71566574.84", fillcolor="#eca26c"] ;
61 -> 75 ;
91 [label="StandingTackle <= 59.5\nmse = 50168538470903.0\nsamples = 222\nvalue = 65168918.92", fillcolor="#edaa7a"] ;
75 -> 91 ;
149 [label="Potential <= 68.5\nmse = 17217123535806.0\nsamples = 91\nvalue = 71318681.32", fillcolor="#eca26d"] ;
91 -> 149 ;
319 [label="mse = 7427159209157.5\nsamples = 31\nvalue = 67016129.03", fillcolor="#eda876"] ;
149 -> 319 ;
320 [label="mse = 7769097222221.0\nsamples = 60\nvalue = 73541666.67", fillcolor="#eb9f68"] ;
149 -> 320 ;
150 [label="Potential <= 69.5\nmse = 28537089913175.0\nsamples = 131\nvalue = 60896946.56", fillcolor="#efb083"] ;
91 -> 150 ;
259 [label="RCM <= 64.5\nmse = 16485969387755.5\nsamples = 70\nvalue = 57678571.43", fillcolor="#f0b489"] ;
150 -> 259 ;
379 [label="Potential <= 68.5\nmse = 5321746624533.5\nsamples = 59\nvalue = 56483050.85", fillcolor="#f0b68c"] ;
259 -> 379 ;
553 [label="mse = 1959183673470.0\nsamples = 35\nvalue = 54928571.43", fillcolor="#f0b88f"] ;
379 -> 553 ;
554 [label="mse = 1562500000000.0\nsamples = 24\nvalue = 58750000.0", fillcolor="#efb387"] ;
379 -> 554 ;
380 [label="mse = 27582644628098.5\nsamples = 11\nvalue = 64090909.09", fillcolor="#eeac7c"] ;
259 -> 380 ;
260 [label="CM <= 64.5\nmse = 16840231120666.0\nsamples = 61\nvalue = 64590163.93", fillcolor="#eeab7b"] ;
150 -> 260 ;
409 [label="Potential <= 71.5\nmse = 6703016493055.0\nsamples = 48\nvalue = 63177083.33", fillcolor="#eead7e"] ;
260 -> 409 ;
571 [label="mse = 1490752551020.5\nsamples = 28\nvalue = 61517857.14", fillcolor="#eeaf81"] ;
409 -> 571 ;
572 [label="mse = 4750000000000.0\nsamples = 20\nvalue = 65500000.0", fillcolor="#edaa79"] ;
409 -> 572 ;
410 [label="mse = 19674556213019.0\nsamples = 13\nvalue = 69807692.31", fillcolor="#eca470"] ;
260 -> 410 ;
92 [label="ST <= 67.5\nmse = 502895744649716.0\nsamples = 867\nvalue = 73204728.95", fillcolor="#eb9f69"] ;
75 -> 92 ;
93 [label="Potential <= 67.5\nmse = 354928283208518.0\nsamples = 761\nvalue = 74521944.81", fillcolor="#eb9e66"] ;
92 -> 93 ;
107 [label="CB <= 62.5\nmse = 80792653061224.0\nsamples = 175\nvalue = 67914285.71", fillcolor="#eda674"] ;
93 -> 107 ;
109 [label="Age <= 28.5\nmse = 16796018991965.0\nsamples = 74\nvalue = 76621621.62", fillcolor="#ea9b62"] ;
107 -> 109 ;
487 [label="Interceptions <= 54.5\nmse = 16516528925621.0\nsamples = 55\nvalue = 77772727.27", fillcolor="#ea995f"] ;
109 -> 487 ;
497 [label="mse = 5526859504133.0\nsamples = 44\nvalue = 78863636.36", fillcolor="#ea985d"] ;
487 -> 497 ;
498 [label="mse = 36673553719009.0\nsamples = 11\nvalue = 73409090.91", fillcolor="#eb9f68"] ;
487 -> 498 ;
488 [label="mse = 2666204986150.0\nsamples = 19\nvalue = 73289473.68", fillcolor="#eb9f69"] ;
109 -> 488 ;
110 [label="CM <= 65.5\nmse = 31431967454171.0\nsamples = 101\nvalue = 61534653.47", fillcolor="#eeaf81"] ;
107 -> 110 ;
271 [label="Age <= 28.5\nmse = 8250471766584.0\nsamples = 83\nvalue = 59819277.11", fillcolor="#efb185"] ;
110 -> 271 ;
503 [label="mse = 7308004326663.5\nsamples = 43\nvalue = 61511627.91", fillcolor="#eeaf81"] ;
271 -> 503 ;
504 [label="mse = 2875000000000.0\nsamples = 40\nvalue = 58000000.0", fillcolor="#efb489"] ;
271 -> 504 ;
272 [label="mse = 62191358024691.0\nsamples = 18\nvalue = 69444444.44", fillcolor="#eca471"] ;
110 -> 272 ;
108 [label="CM <= 68.5\nmse = 419862161469556.94\nsamples = 586\nvalue = 76495221.84", fillcolor="#ea9b62"] ;
93 -> 108 ;
119 [label="CF <= 66.5\nmse = 361018424658816.94\nsamples = 566\nvalue = 77206183.75", fillcolor="#ea9a61"] ;
108 -> 119 ;
143 [label="Potential <= 68.5\nmse = 216060870434779.0\nsamples = 501\nvalue = 78363872.26", fillcolor="#ea995e"] ;
119 -> 143 ;
147 [label="SlidingTackle <= 56.5\nmse = 64214288846980.0\nsamples = 151\nvalue = 73096026.49", fillcolor="#eba069"] ;
143 -> 147 ;
167 [label="Overall <= 66.5\nmse = 32167352537722.0\nsamples = 27\nvalue = 85092592.59", fillcolor="#e89050"] ;
147 -> 167 ;
347 [label="mse = 1549586776860.0\nsamples = 11\nvalue = 78863636.36", fillcolor="#ea985d"] ;
167 -> 347 ;
348 [label="mse = 8203125000000.0\nsamples = 16\nvalue = 89375000.0", fillcolor="#e78a47"] ;
167 -> 348 ;
168 [label="RCM <= 66.5\nmse = 33031997918834.0\nsamples = 124\nvalue = 70483870.97", fillcolor="#eca36f"] ;
147 -> 168 ;
261 [label="Overall <= 66.5\nmse = 14966992455418.0\nsamples = 108\nvalue = 69120370.37", fillcolor="#eca571"] ;
168 -> 261 ;
457 [label="mse = 20325484764543.0\nsamples = 19\nvalue = 65263157.89", fillcolor="#edaa79"] ;
261 -> 457 ;
458 [label="Age <= 28.5\nmse = 9968753945208.0\nsamples = 89\nvalue = 69943820.22", fillcolor="#eca470"] ;
261 -> 458 ;
459 [label="mse = 3964359504132.0\nsamples = 44\nvalue = 72613636.36", fillcolor="#eba06a"] ;
458 -> 459 ;
460 [label="mse = 2055555555556.0\nsamples = 45\nvalue = 67333333.33", fillcolor="#eda775"] ;
458 -> 460 ;
262 [label="mse = 57714843750000.0\nsamples = 16\nvalue = 79687500.0", fillcolor="#ea975b"] ;
168 -> 262 ;
148 [label="Wage <= 250000.0\nmse = 264434433959183.0\nsamples = 350\nvalue = 80636571.43", fillcolor="#e99659"] ;
143 -> 148 ;
159 [label="Composure <= 60.5\nmse = 336215468370175.0\nsamples = 133\nvalue = 75704511.28", fillcolor="#eb9c64"] ;
148 -> 159 ;
209 [label="Positioning <= 59.5\nmse = 463702496570644.94\nsamples = 81\nvalue = 72051851.85", fillcolor="#eca16b"] ;
159 -> 209 ;
211 [label="Overall <= 66.5\nmse = 55401662049862.0\nsamples = 57\nvalue = 76578947.37", fillcolor="#ea9b62"] ;
209 -> 211 ;
293 [label="Finishing <= 51.5\nmse = 40014792899407.0\nsamples = 39\nvalue = 73653846.15", fillcolor="#eb9f68"] ;
211 -> 293 ;
311 [label="mse = 7372175980974.0\nsamples = 29\nvalue = 70775862.07", fillcolor="#eca36e"] ;
293 -> 311 ;
312 [label="mse = 41000000000000.0\nsamples = 10\nvalue = 82000000.0", fillcolor="#e99457"] ;
293 -> 312 ;
294 [label="mse = 30034722222221.0\nsamples = 18\nvalue = 82916666.67", fillcolor="#e99355"] ;
211 -> 294 ;
212 [label="Overall <= 66.5\nmse = 1269140000000000.0\nsamples = 24\nvalue = 61300000.0", fillcolor="#efaf82"] ;
209 -> 212 ;
213 [label="mse = 57684948979593.0\nsamples = 14\nvalue = 79107142.86", fillcolor="#ea985d"] ;
212 -> 213 ;
214 [label="mse = 1899740100000000.0\nsamples = 10\nvalue = 36370000.0", fillcolor="#f5d0b6"] ;
212 -> 214 ;
210 [label="Overall <= 66.5\nmse = 84474389792899.0\nsamples = 52\nvalue = 81394230.77", fillcolor="#e99558"] ;
159 -> 210 ;
269 [label="Marking <= 58.0\nmse = 53004807692308.0\nsamples = 26\nvalue = 76250000.0", fillcolor="#ea9b63"] ;
210 -> 269 ;
315 [label="mse = 4062500000000.0\nsamples = 10\nvalue = 83750000.0", fillcolor="#e89253"] ;
269 -> 315 ;
316 [label="mse = 26464843750000.0\nsamples = 16\nvalue = 71562500.0", fillcolor="#eca26c"] ;
269 -> 316 ;
270 [label="SlidingTackle <= 62.5\nmse = 63017751479290.0\nsamples = 26\nvalue = 86538461.54", fillcolor="#e88e4d"] ;
210 -> 270 ;
351 [label="mse = 36284722222223.0\nsamples = 12\nvalue = 92083333.33", fillcolor="#e68742"] ;
270 -> 351 ;
352 [label="mse = 36989795918368.0\nsamples = 14\nvalue = 81785714.29", fillcolor="#e99457"] ;
270 -> 352 ;
160 [label="Overall <= 67.5\nmse = 196392825500649.0\nsamples = 217\nvalue = 83659447.0", fillcolor="#e89253"] ;
148 -> 160 ;
185 [label="Interceptions <= 31.5\nmse = 203803242212334.0\nsamples = 143\nvalue = 80772727.27", fillcolor="#e99559"] ;
160 -> 185 ;
215 [label="Overall <= 66.5\nmse = 29660000000000.0\nsamples = 25\nvalue = 90300000.0", fillcolor="#e78945"] ;
185 -> 215 ;
371 [label="mse = 9566326530613.0\nsamples = 14\nvalue = 86071428.57", fillcolor="#e88e4e"] ;
215 -> 371 ;
372 [label="mse = 3512396694214.0\nsamples = 11\nvalue = 95681818.18", fillcolor="#e5823a"] ;
215 -> 372 ;
216 [label="Vision <= 62.5\nmse = 217392990519966.0\nsamples = 118\nvalue = 78754237.29", fillcolor="#ea985d"] ;
185 -> 216 ;
237 [label="RF <= 64.5\nmse = 244692019628099.0\nsamples = 88\nvalue = 76284090.91", fillcolor="#ea9b63"] ;
216 -> 237 ;
239 [label="Overall <= 66.5\nmse = 43306206780233.0\nsamples = 77\nvalue = 78376623.38", fillcolor="#ea995e"] ;
237 -> 239 ;
247 [label="Interceptions <= 61.5\nmse = 29522497704316.0\nsamples = 33\nvalue = 72651515.15", fillcolor="#eba06a"] ;
239 -> 247 ;
465 [label="mse = 41250000000000.0\nsamples = 10\nvalue = 77500000.0", fillcolor="#ea9a60"] ;
247 -> 465 ;
466 [label="mse = 9758979206049.0\nsamples = 23\nvalue = 70543478.26", fillcolor="#eca36e"] ;
247 -> 466 ;
248 [label="Potential <= 71.5\nmse = 10624354338843.0\nsamples = 44\nvalue = 82670454.55", fillcolor="#e99355"] ;
239 -> 248 ;
567 [label="mse = 8645833333333.0\nsamples = 30\nvalue = 81250000.0", fillcolor="#e99558"] ;
248 -> 567 ;
568 [label="mse = 1275510204082.0\nsamples = 14\nvalue = 85714285.71", fillcolor="#e88f4f"] ;
248 -> 568 ;
240 [label="mse = 1409185950413224.0\nsamples = 11\nvalue = 61636363.64", fillcolor="#eeaf81"] ;
237 -> 240 ;
238 [label="Overall <= 66.5\nmse = 66916666666667.0\nsamples = 30\nvalue = 86000000.0", fillcolor="#e88f4e"] ;
216 -> 238 ;
377 [label="mse = 47707100591715.0\nsamples = 13\nvalue = 81153846.15", fillcolor="#e99558"] ;
238 -> 377 ;
378 [label="mse = 49913494809690.0\nsamples = 17\nvalue = 89705882.35", fillcolor="#e78a47"] ;
238 -> 378 ;
186 [label="Potential <= 69.5\nmse = 134851000730459.0\nsamples = 74\nvalue = 89237837.84", fillcolor="#e78a48"] ;
160 -> 186 ;
221 [label="Interceptions <= 65.5\nmse = 279767065972223.0\nsamples = 24\nvalue = 80670833.33", fillcolor="#e99659"] ;
186 -> 221 ;
361 [label="mse = 604718900000000.0\nsamples = 10\nvalue = 74610000.0", fillcolor="#eb9e66"] ;
221 -> 361 ;
362 [label="mse = 2678571428571.0\nsamples = 14\nvalue = 85000000.0", fillcolor="#e89050"] ;
221 -> 362 ;
222 [label="Potential <= 70.5\nmse = 13152500000000.0\nsamples = 50\nvalue = 93350000.0", fillcolor="#e6853f"] ;
186 -> 222 ;
415 [label="mse = 4589843750000.0\nsamples = 16\nvalue = 89062500.0", fillcolor="#e78b48"] ;
222 -> 415 ;
416 [label="mse = 4460423875432.0\nsamples = 34\nvalue = 95367647.06", fillcolor="#e5823b"] ;
222 -> 416 ;
144 [label="Potential <= 70.5\nmse = 1388354636686390.0\nsamples = 65\nvalue = 68283076.92", fillcolor="#eda673"] ;
119 -> 144 ;
145 [label="RCB <= 53.5\nmse = 645410529300567.0\nsamples = 46\nvalue = 80634782.61", fillcolor="#e99659"] ;
144 -> 145 ;
161 [label="mse = 31345663265307.0\nsamples = 28\nvalue = 89107142.86", fillcolor="#e78a48"] ;
145 -> 161 ;
162 [label="mse = 1315271358024691.0\nsamples = 18\nvalue = 67455555.56", fillcolor="#eda775"] ;
145 -> 162 ;
146 [label="mse = 1923437451523545.5\nsamples = 19\nvalue = 38378947.37", fillcolor="#f5ceb1"] ;
144 -> 146 ;
120 [label="mse = 1666011875000000.0\nsamples = 20\nvalue = 56375000.0", fillcolor="#f0b68c"] ;
108 -> 120 ;
94 [label="Potential <= 68.5\nmse = 1463306458704164.5\nsamples = 106\nvalue = 63748113.21", fillcolor="#eeac7d"] ;
92 -> 94 ;
95 [label="Potential <= 67.5\nmse = 70269097222222.0\nsamples = 72\nvalue = 85625000.0", fillcolor="#e88f4f"] ;
94 -> 95 ;
177 [label="Weight <= 173.0\nmse = 20340236686391.0\nsamples = 26\nvalue = 75576923.08", fillcolor="#eb9c64"] ;
95 -> 177 ;
591 [label="mse = 12882653061224.0\nsamples = 14\nvalue = 73214285.71", fillcolor="#eb9f69"] ;
177 -> 591 ;
592 [label="mse = 14930555555557.0\nsamples = 12\nvalue = 78333333.33", fillcolor="#ea995e"] ;
177 -> 592 ;
178 [label="Age <= 28.5\nmse = 9168241965974.0\nsamples = 46\nvalue = 91304347.83", fillcolor="#e68843"] ;
95 -> 178 ;
547 [label="mse = 5070153061225.0\nsamples = 28\nvalue = 93035714.29", fillcolor="#e68540"] ;
178 -> 547 ;
548 [label="mse = 3626543209878.0\nsamples = 18\nvalue = 88611111.11", fillcolor="#e78b49"] ;
178 -> 548 ;
96 [label="LongShots <= 62.5\nmse = 1253526340830450.0\nsamples = 34\nvalue = 17420588.24", fillcolor="#fbe9dd"] ;
94 -> 96 ;
97 [label="LongPassing <= 42.5\nmse = 371412708333333.25\nsamples = 24\nvalue = 5075000.0", fillcolor="#fefaf7"] ;
96 -> 97 ;
375 [label="mse = 836566100000000.0\nsamples = 10\nvalue = 10730000.0", fillcolor="#fcf2eb"] ;
97 -> 375 ;
376 [label="mse = 2295918367.35\nsamples = 14\nvalue = 1035714.29", fillcolor="#ffffff"] ;
97 -> 376 ;
98 [label="mse = 2126904500000000.0\nsamples = 10\nvalue = 47050000.0", fillcolor="#f2c29f"] ;
96 -> 98 ;
76 [label="CF <= 64.5\nmse = 98498672428155.0\nsamples = 98\nvalue = 58698979.59", fillcolor="#efb387"] ;
61 -> 76 ;
165 [label="Age <= 31.5\nmse = 38869822485207.0\nsamples = 65\nvalue = 53730769.23", fillcolor="#f1b991"] ;
76 -> 165 ;
399 [label="Overall <= 67.5\nmse = 34304236669102.0\nsamples = 37\nvalue = 56081081.08", fillcolor="#f0b68d"] ;
165 -> 399 ;
401 [label="mse = 19111570247934.0\nsamples = 22\nvalue = 52954545.45", fillcolor="#f1ba93"] ;
399 -> 401 ;
402 [label="mse = 21222222222222.5\nsamples = 15\nvalue = 60666666.67", fillcolor="#efb083"] ;
399 -> 402 ;
400 [label="Volleys <= 48.0\nmse = 27957589285714.5\nsamples = 28\nvalue = 50625000.0", fillcolor="#f1bd98"] ;
165 -> 400 ;
481 [label="mse = 21392746913579.5\nsamples = 18\nvalue = 48194444.44", fillcolor="#f2c19d"] ;
400 -> 481 ;
482 [label="mse = 10000000000000.0\nsamples = 10\nvalue = 55000000.0", fillcolor="#f0b88f"] ;
400 -> 482 ;
166 [label="HeadingAccuracy <= 54.0\nmse = 71567952249770.0\nsamples = 33\nvalue = 68484848.48", fillcolor="#eda673"] ;
76 -> 166 ;
321 [label="mse = 57544378698224.5\nsamples = 13\nvalue = 62115384.62", fillcolor="#eeae80"] ;
166 -> 321 ;
322 [label="mse = 37171875000000.0\nsamples = 20\nvalue = 72625000.0", fillcolor="#eba06a"] ;
166 -> 322 ;
62 [label="Potential <= 68.5\nmse = 1434921885703984.0\nsamples = 129\nvalue = 56132558.14", fillcolor="#f0b68c"] ;
58 -> 62 ;
63 [label="Age <= 30.5\nmse = 107214982472184.0\nsamples = 81\nvalue = 80339506.17", fillcolor="#e9965a"] ;
62 -> 63 ;
181 [label="Potential <= 67.5\nmse = 58534205693296.0\nsamples = 66\nvalue = 83560606.06", fillcolor="#e89253"] ;
63 -> 181 ;
265 [label="mse = 15740000000000.0\nsamples = 25\nvalue = 77400000.0", fillcolor="#ea9a60"] ;
181 -> 265 ;
266 [label="Interceptions <= 54.5\nmse = 47375074360500.0\nsamples = 41\nvalue = 87317073.17", fillcolor="#e78d4c"] ;
181 -> 266 ;
345 [label="Age <= 28.5\nmse = 14255983350676.0\nsamples = 31\nvalue = 89758064.52", fillcolor="#e78a46"] ;
266 -> 345 ;
453 [label="mse = 3602430555556.0\nsamples = 12\nvalue = 93958333.33", fillcolor="#e6843e"] ;
345 -> 453 ;
454 [label="mse = 2804709141275.0\nsamples = 19\nvalue = 87105263.16", fillcolor="#e78d4c"] ;
345 -> 454 ;
346 [label="mse = 74312500000000.0\nsamples = 10\nvalue = 79750000.0", fillcolor="#ea975b"] ;
266 -> 346 ;
182 [label="mse = 74888888888889.0\nsamples = 15\nvalue = 66166666.67", fillcolor="#eda978"] ;
63 -> 182 ;
64 [label="Overall <= 67.5\nmse = 1017933055555555.5\nsamples = 48\nvalue = 15283333.33", fillcolor="#fbece1"] ;
62 -> 64 ;
65 [label="mse = 1583660000000000.0\nsamples = 10\nvalue = 60800000.0", fillcolor="#efb083"] ;
64 -> 65 ;
66 [label="GKHandling <= 12.5\nmse = 180381551246537.4\nsamples = 38\nvalue = 3305263.16", fillcolor="#fefcfa"] ;
64 -> 66 ;
389 [label="mse = 3201530612.25\nsamples = 28\nvalue = 1096428.57", fillcolor="#ffffff"] ;
66 -> 389 ;
390 [label="mse = 633528900000000.0\nsamples = 10\nvalue = 9490000.0", fillcolor="#fdf4ed"] ;
66 -> 390 ;
22 [label="Overall <= 66.5\nmse = 1650571317355490.5\nsamples = 633\nvalue = 48487677.73", fillcolor="#f2c09c"] ;
20 -> 22 ;
23 [label="RS <= 65.5\nmse = 673373816498006.0\nsamples = 353\nvalue = 72131161.47", fillcolor="#eca16b"] ;
22 -> 23 ;
51 [label="Finishing <= 59.5\nmse = 461455241591504.94\nsamples = 323\nvalue = 74916408.67", fillcolor="#eb9d65"] ;
23 -> 51 ;
113 [label="Overall <= 64.5\nmse = 258347528960000.0\nsamples = 250\nvalue = 77684800.0", fillcolor="#ea9a60"] ;
51 -> 113 ;
127 [label="RCB <= 57.5\nmse = 53228888888888.0\nsamples = 75\nvalue = 69566666.67", fillcolor="#eca470"] ;
113 -> 127 ;
243 [label="GKDiving <= 10.5\nmse = 22905815972222.0\nsamples = 24\nvalue = 76979166.67", fillcolor="#ea9a61"] ;
127 -> 243 ;
517 [label="mse = 17729591836734.0\nsamples = 14\nvalue = 79642857.14", fillcolor="#ea975c"] ;
243 -> 517 ;
518 [label="mse = 6312500000000.0\nsamples = 10\nvalue = 73250000.0", fillcolor="#eb9f69"] ;
243 -> 518 ;
244 [label="Potential <= 74.5\nmse = 29474240676663.0\nsamples = 51\nvalue = 66078431.37", fillcolor="#eda978"] ;
127 -> 244 ;
339 [label="mse = 13648834019204.0\nsamples = 27\nvalue = 62407407.41", fillcolor="#eeae7f"] ;
244 -> 339 ;
340 [label="Potential <= 75.5\nmse = 15060763888889.0\nsamples = 24\nvalue = 70208333.33", fillcolor="#eca36f"] ;
244 -> 340 ;
569 [label="mse = 4336734693878.0\nsamples = 14\nvalue = 67857142.86", fillcolor="#eda774"] ;
340 -> 569 ;
570 [label="mse = 11500000000000.0\nsamples = 10\nvalue = 73500000.0", fillcolor="#eb9f68"] ;
340 -> 570 ;
128 [label="Vision <= 66.5\nmse = 305906075428571.0\nsamples = 175\nvalue = 81164000.0", fillcolor="#e99558"] ;
113 -> 128 ;
205 [label="Vision <= 57.5\nmse = 167638980932543.0\nsamples = 158\nvalue = 82497468.35", fillcolor="#e99356"] ;
128 -> 205 ;
207 [label="Vision <= 53.5\nmse = 209793294270833.0\nsamples = 96\nvalue = 79006250.0", fillcolor="#ea985d"] ;
205 -> 207 ;
233 [label="Potential <= 75.5\nmse = 85640495867769.0\nsamples = 77\nvalue = 81363636.36", fillcolor="#e99558"] ;
207 -> 233 ;
235 [label="Overall <= 65.5\nmse = 39057093425605.0\nsamples = 51\nvalue = 76323529.41", fillcolor="#ea9b62"] ;
233 -> 235 ;
281 [label="Potential <= 74.5\nmse = 19116210937500.0\nsamples = 32\nvalue = 72656250.0", fillcolor="#eba06a"] ;
235 -> 281 ;
431 [label="mse = 10457063711911.0\nsamples = 19\nvalue = 69736842.11", fillcolor="#eca470"] ;
281 -> 431 ;
432 [label="mse = 1109467455621.0\nsamples = 13\nvalue = 76923076.92", fillcolor="#ea9b61"] ;
281 -> 432 ;
282 [label="mse = 11842105263158.0\nsamples = 19\nvalue = 82500000.0", fillcolor="#e99356"] ;
235 -> 282 ;
236 [label="GKKicking <= 12.5\nmse = 29447115384615.0\nsamples = 26\nvalue = 91250000.0", fillcolor="#e68843"] ;
233 -> 236 ;
555 [label="mse = 21555555555557.0\nsamples = 15\nvalue = 88833333.33", fillcolor="#e78b48"] ;
236 -> 555 ;
556 [label="mse = 21384297520661.0\nsamples = 11\nvalue = 94545454.55", fillcolor="#e5833d"] ;
236 -> 556 ;
234 [label="mse = 599145650969529.0\nsamples = 19\nvalue = 69452631.58", fillcolor="#eca471"] ;
207 -> 234 ;
208 [label="RW <= 62.5\nmse = 54272892819978.0\nsamples = 62\nvalue = 87903225.81", fillcolor="#e78c4a"] ;
205 -> 208 ;
329 [label="RDM <= 65.5\nmse = 62326388888889.0\nsamples = 24\nvalue = 83333333.33", fillcolor="#e99254"] ;
208 -> 329 ;
429 [label="mse = 36500000000000.0\nsamples = 10\nvalue = 78500000.0", fillcolor="#ea985e"] ;
329 -> 429 ;
430 [label="mse = 52168367346939.0\nsamples = 14\nvalue = 86785714.29", fillcolor="#e88e4d"] ;
329 -> 430 ;
330 [label="Potential <= 75.5\nmse = 27666204986150.0\nsamples = 38\nvalue = 90789473.68", fillcolor="#e68844"] ;
208 -> 330 ;
529 [label="ShotPower <= 57.5\nmse = 28337647928993.0\nsamples = 26\nvalue = 89134615.38", fillcolor="#e78a48"] ;
330 -> 529 ;
531 [label="mse = 12250000000000.0\nsamples = 10\nvalue = 84500000.0", fillcolor="#e89151"] ;
529 -> 531 ;
532 [label="mse = 16577148437500.0\nsamples = 16\nvalue = 92031250.0", fillcolor="#e68742"] ;
529 -> 532 ;
530 [label="mse = 7421875000000.0\nsamples = 12\nvalue = 94375000.0", fillcolor="#e6833d"] ;
330 -> 530 ;
206 [label="mse = 1420853840830450.0\nsamples = 17\nvalue = 68770588.24", fillcolor="#eda572"] ;
128 -> 206 ;
114 [label="Overall <= 65.5\nmse = 1040897635578908.0\nsamples = 73\nvalue = 65435616.44", fillcolor="#edaa79"] ;
51 -> 114 ;
115 [label="Overall <= 64.5\nmse = 43880208333333.0\nsamples = 48\nvalue = 78125000.0", fillcolor="#ea995f"] ;
114 -> 115 ;
303 [label="Potential <= 74.5\nmse = 24767517301038.0\nsamples = 34\nvalue = 75220588.24", fillcolor="#eb9d65"] ;
115 -> 303 ;
411 [label="mse = 4368512110727.0\nsamples = 17\nvalue = 71617647.06", fillcolor="#eca26c"] ;
303 -> 411 ;
412 [label="mse = 19204152249135.0\nsamples = 17\nvalue = 78823529.41", fillcolor="#ea985d"] ;
303 -> 412 ;
304 [label="mse = 20057397959183.0\nsamples = 14\nvalue = 85178571.43", fillcolor="#e89050"] ;
115 -> 304 ;
116 [label="Potential <= 74.5\nmse = 2052426016000000.0\nsamples = 25\nvalue = 41072000.0", fillcolor="#f4caac"] ;
114 -> 116 ;
117 [label="mse = 24793388429752.0\nsamples = 11\nvalue = 92045454.55", fillcolor="#e68742"] ;
116 -> 117 ;
118 [label="mse = 1683673469.39\nsamples = 14\nvalue = 1021428.57", fillcolor="#ffffff"] ;
116 -> 118 ;
52 [label="Potential <= 74.5\nmse = 1972237122222221.8\nsamples = 30\nvalue = 42143333.33", fillcolor="#f4c9a9"] ;
23 -> 52 ;
53 [label="mse = 93595041322315.0\nsamples = 11\nvalue = 88863636.36", fillcolor="#e78b48"] ;
52 -> 53 ;
54 [label="mse = 1064526814404432.0\nsamples = 19\nvalue = 15094736.84", fillcolor="#fbece2"] ;
52 -> 54 ;
24 [label="CF <= 63.5\nmse = 1289283171428571.5\nsamples = 280\nvalue = 18680000.0", fillcolor="#fae8da"] ;
22 -> 24 ;
27 [label="Overall <= 67.5\nmse = 2016083887360000.0\nsamples = 125\nvalue = 38920800.0", fillcolor="#f5cdb0"] ;
24 -> 27 ;
29 [label="Potential <= 75.5\nmse = 1698031459777358.0\nsamples = 69\nvalue = 65455072.46", fillcolor="#edaa79"] ;
27 -> 29 ;
37 [label="CAM <= 62.5\nmse = 806222479338843.0\nsamples = 55\nvalue = 81845454.55", fillcolor="#e99457"] ;
29 -> 37 ;
67 [label="Potential <= 74.5\nmse = 8333333333332.0\nsamples = 45\nvalue = 91666666.67", fillcolor="#e68743"] ;
37 -> 67 ;
489 [label="mse = 2193877551022.0\nsamples = 35\nvalue = 90357142.86", fillcolor="#e78945"] ;
67 -> 489 ;
490 [label="mse = 2812500000000.0\nsamples = 10\nvalue = 96250000.0", fillcolor="#e58139"] ;
67 -> 490 ;
68 [label="mse = 2009432500000000.0\nsamples = 10\nvalue = 37650000.0", fillcolor="#f5cfb3"] ;
37 -> 68 ;
38 [label="mse = 3724489795.92\nsamples = 14\nvalue = 1064285.71", fillcolor="#ffffff"] ;
29 -> 38 ;
30 [label="LongShots <= 55.5\nmse = 471559461096938.75\nsamples = 56\nvalue = 6226785.71", fillcolor="#fef8f4"] ;
27 -> 30 ;
131 [label="mse = 5066162570.89\nsamples = 46\nvalue = 1056521.74", fillcolor="#ffffff"] ;
30 -> 131 ;
132 [label="mse = 1952102900000000.0\nsamples = 10\nvalue = 30010000.0", fillcolor="#f7d9c3"] ;
30 -> 132 ;
28 [label="Stamina <= 79.5\nmse = 106310712174817.9\nsamples = 155\nvalue = 2356774.19", fillcolor="#fffdfc"] ;
24 -> 28 ;
249 [label="mse = 9773821230.79\nsamples = 139\nvalue = 1182733.81", fillcolor="#ffffff"] ;
28 -> 249 ;
250 [label="mse = 913796210937500.0\nsamples = 16\nvalue = 12556250.0", fillcolor="#fcf0e7"] ;
28 -> 250 ;
18 [label="SlidingTackle <= 53.5\nmse = 110734878994147.12\nsamples = 163\nvalue = 29383435.58", fillcolor="#f7d9c4"] ;
9 -> 18 ;
153 [label="Age <= 34.5\nmse = 72236629938188.75\nsamples = 61\nvalue = 36967213.11", fillcolor="#f5cfb4"] ;
18 -> 153 ;
241 [label="Overall <= 67.5\nmse = 46282029085872.75\nsamples = 38\nvalue = 41381578.95", fillcolor="#f4caab"] ;
153 -> 241 ;
349 [label="Age <= 33.5\nmse = 30572385204081.5\nsamples = 28\nvalue = 38839285.71", fillcolor="#f5cdb0"] ;
241 -> 349 ;
461 [label="mse = 12603305785124.0\nsamples = 11\nvalue = 43181818.18", fillcolor="#f3c7a7"] ;
349 -> 461 ;
462 [label="mse = 22102076124567.5\nsamples = 17\nvalue = 36029411.76", fillcolor="#f5d1b6"] ;
349 -> 462 ;
350 [label="mse = 21500000000000.0\nsamples = 10\nvalue = 48500000.0", fillcolor="#f2c09c"] ;
241 -> 350 ;
242 [label="mse = 29730623818525.5\nsamples = 23\nvalue = 29673913.04", fillcolor="#f7d9c3"] ;
153 -> 242 ;
154 [label="Age <= 34.5\nmse = 78793084390619.12\nsamples = 102\nvalue = 24848039.22", fillcolor="#f8dfcd"] ;
18 -> 154 ;
197 [label="CM <= 65.5\nmse = 51761066666666.62\nsamples = 75\nvalue = 28160000.0", fillcolor="#f8dbc7"] ;
154 -> 197 ;
253 [label="Age <= 33.5\nmse = 18521852877808.5\nsamples = 57\nvalue = 25491228.07", fillcolor="#f8dfcc"] ;
197 -> 253 ;
425 [label="Potential <= 66.5\nmse = 15130208333333.38\nsamples = 24\nvalue = 28625000.0", fillcolor="#f7dac6"] ;
253 -> 425 ;
511 [label="mse = 213017751479.25\nsamples = 13\nvalue = 25692307.69", fillcolor="#f8decc"] ;
425 -> 511 ;
512 [label="mse = 10582644628099.25\nsamples = 11\nvalue = 32090909.09", fillcolor="#f7d6be"] ;
425 -> 512 ;
426 [label="Overall <= 67.5\nmse = 8651974288337.94\nsamples = 33\nvalue = 23212121.21", fillcolor="#f9e2d1"] ;
253 -> 426 ;
557 [label="mse = 3460317460317.5\nsamples = 21\nvalue = 21333333.33", fillcolor="#f9e4d5"] ;
426 -> 557 ;
558 [label="mse = 750000000000.0\nsamples = 12\nvalue = 26500000.0", fillcolor="#f8ddca"] ;
426 -> 558 ;
254 [label="mse = 63043209876543.25\nsamples = 18\nvalue = 36611111.11", fillcolor="#f5d0b5"] ;
197 -> 254 ;
198 [label="Age <= 35.5\nmse = 38774348422496.6\nsamples = 27\nvalue = 15648148.15", fillcolor="#fbece1"] ;
154 -> 198 ;
463 [label="mse = 22725585937500.0\nsamples = 16\nvalue = 18593750.0", fillcolor="#fae8da"] ;
198 -> 463 ;
464 [label="mse = 31140495867768.61\nsamples = 11\nvalue = 11363636.36", fillcolor="#fcf1e9"] ;
198 -> 464 ;
10 [label="Overall <= 64.5\nmse = 1374336987344453.8\nsamples = 352\nvalue = 34173863.64", fillcolor="#f6d3ba"] ;
6 -> 10 ;
11 [label="Overall <= 62.5\nmse = 402329722984302.0\nsamples = 162\nvalue = 69336419.75", fillcolor="#eca571"] ;
10 -> 11 ;
71 [label="Overall <= 61.5\nmse = 52434948979591.5\nsamples = 70\nvalue = 56107142.86", fillcolor="#f0b68c"] ;
11 -> 71 ;
203 [label="mse = 7562500000000.0\nsamples = 40\nvalue = 50500000.0", fillcolor="#f1be98"] ;
71 -> 203 ;
204 [label="Aggression <= 47.5\nmse = 14451388888888.5\nsamples = 30\nvalue = 63583333.33", fillcolor="#eeac7d"] ;
71 -> 204 ;
595 [label="mse = 7437500000000.0\nsamples = 20\nvalue = 65250000.0", fillcolor="#edaa79"] ;
204 -> 595 ;
596 [label="mse = 11812500000000.0\nsamples = 10\nvalue = 60250000.0", fillcolor="#efb184"] ;
204 -> 596 ;
72 [label="Dribbling <= 70.5\nmse = 434071951795840.0\nsamples = 92\nvalue = 79402173.91", fillcolor="#ea975c"] ;
11 -> 72 ;
85 [label="Overall <= 63.5\nmse = 88515462265663.0\nsamples = 79\nvalue = 84018987.34", fillcolor="#e89152"] ;
72 -> 85 ;
163 [label="SlidingTackle <= 56.5\nmse = 21120293847566.0\nsamples = 33\nvalue = 74696969.7", fillcolor="#eb9e66"] ;
85 -> 163 ;
439 [label="mse = 8206371191135.0\nsamples = 19\nvalue = 77631578.95", fillcolor="#ea9a60"] ;
163 -> 439 ;
440 [label="mse = 11096938775510.0\nsamples = 14\nvalue = 70714285.71", fillcolor="#eca36e"] ;
163 -> 440 ;
164 [label="CB <= 56.5\nmse = 29799740075614.0\nsamples = 46\nvalue = 90706521.74", fillcolor="#e78845"] ;
85 -> 164 ;
313 [label="mse = 5387523629488.0\nsamples = 23\nvalue = 95217391.3", fillcolor="#e5823b"] ;
164 -> 313 ;
314 [label="mse = 13516068052929.0\nsamples = 23\nvalue = 86195652.17", fillcolor="#e88e4e"] ;
164 -> 314 ;
86 [label="mse = 1617322485207100.5\nsamples = 13\nvalue = 51346153.85", fillcolor="#f1bc96"] ;
72 -> 86 ;
12 [label="LS <= 50.5\nmse = 250060111080332.4\nsamples = 190\nvalue = 4193157.89", fillcolor="#fefbf8"] ;
10 -> 12 ;
151 [label="mse = 1383106820987654.2\nsamples = 18\nvalue = 21161111.11", fillcolor="#fae4d5"] ;
12 -> 151 ;
152 [label="Overall <= 65.5\nmse = 98202021362898.86\nsamples = 172\nvalue = 2417441.86", fillcolor="#fffdfc"] ;
12 -> 152 ;
341 [label="SprintSpeed <= 69.5\nmse = 488710927456382.0\nsamples = 33\nvalue = 6724242.42", fillcolor="#fdf7f3"] ;
152 -> 341 ;
343 [label="mse = 1373390400000000.0\nsamples = 10\nvalue = 19640000.0", fillcolor="#fae6d8"] ;
341 -> 343 ;
344 [label="mse = 4272211720.23\nsamples = 23\nvalue = 1108695.65", fillcolor="#ffffff"] ;
341 -> 344 ;
342 [label="mse = 42204854821.18\nsamples = 139\nvalue = 1394964.03", fillcolor="#fffffe"] ;
152 -> 342 ;
2 [label="Potential <= 69.5\nmse = 356855527830457.2\nsamples = 4077\nvalue = 10889575.67", fillcolor="#fcf2ea"] ;
0 -> 2 [labeldistance=2.5, labelangle=-45, headlabel="False"] ;
7 [label="StandingTackle <= 57.0\nmse = 1251506263595938.0\nsamples = 258\nvalue = 46907364.34", fillcolor="#f2c2a0"] ;
2 -> 7 ;
25 [label="Age <= 30.5\nmse = 1053741011000000.0\nsamples = 100\nvalue = 20433000.0", fillcolor="#fae5d7"] ;
7 -> 25 ;
31 [label="mse = 2471731799.25\nsamples = 71\nvalue = 1067605.63", fillcolor="#ffffff"] ;
25 -> 31 ;
32 [label="Age <= 32.5\nmse = 467553507728892.94\nsamples = 29\nvalue = 67844827.59", fillcolor="#eda774"] ;
25 -> 32 ;
87 [label="mse = 24776785714286.0\nsamples = 14\nvalue = 88750000.0", fillcolor="#e78b49"] ;
32 -> 87 ;
88 [label="mse = 92222222222222.0\nsamples = 15\nvalue = 48333333.33", fillcolor="#f2c09d"] ;
32 -> 88 ;
26 [label="Age <= 32.5\nmse = 652310551193719.5\nsamples = 158\nvalue = 63663291.14", fillcolor="#eeac7d"] ;
7 -> 26 ;
55 [label="CF <= 67.5\nmse = 546197936507936.0\nsamples = 126\nvalue = 70466666.67", fillcolor="#eca36f"] ;
26 -> 55 ;
73 [label="Age <= 31.5\nmse = 145411695344573.0\nsamples = 107\nvalue = 75827102.8", fillcolor="#eb9c63"] ;
55 -> 73 ;
139 [label="Age <= 27.5\nmse = 107048415604091.0\nsamples = 89\nvalue = 79196629.21", fillcolor="#ea985c"] ;
73 -> 139 ;
291 [label="mse = 3719008264464.0\nsamples = 11\nvalue = 88409090.91", fillcolor="#e78b49"] ;
139 -> 291 ;
292 [label="Height <= 5.11\nmse = 107963839579223.0\nsamples = 78\nvalue = 77897435.9", fillcolor="#ea995f"] ;
139 -> 292 ;
309 [label="mse = 529152500000000.0\nsamples = 10\nvalue = 68850000.0", fillcolor="#eca572"] ;
292 -> 309 ;
310 [label="Age <= 29.5\nmse = 32216425173010.0\nsamples = 68\nvalue = 79227941.18", fillcolor="#ea985c"] ;
292 -> 310 ;
357 [label="mse = 2184256055362.0\nsamples = 34\nvalue = 82352941.18", fillcolor="#e99356"] ;
310 -> 357 ;
358 [label="LWB <= 68.5\nmse = 42717344290657.0\nsamples = 34\nvalue = 76102941.18", fillcolor="#eb9c63"] ;
310 -> 358 ;
449 [label="mse = 52181440443213.0\nsamples = 19\nvalue = 78947368.42", fillcolor="#ea985d"] ;
358 -> 449 ;
450 [label="mse = 7500000000000.0\nsamples = 15\nvalue = 72500000.0", fillcolor="#eba06a"] ;
358 -> 450 ;
140 [label="mse = 1388888888889.5\nsamples = 18\nvalue = 59166666.67", fillcolor="#efb286"] ;
73 -> 140 ;
74 [label="mse = 1730139556786703.2\nsamples = 19\nvalue = 40278947.37", fillcolor="#f4cbad"] ;
55 -> 74 ;
56 [label="Age <= 33.5\nmse = 170265625000000.0\nsamples = 32\nvalue = 36875000.0", fillcolor="#f5d0b4"] ;
26 -> 56 ;
191 [label="mse = 87888888888889.0\nsamples = 15\nvalue = 47666666.67", fillcolor="#f2c19e"] ;
56 -> 191 ;
192 [label="mse = 49522491349480.88\nsamples = 17\nvalue = 27352941.18", fillcolor="#f8dcc8"] ;
56 -> 192 ;
8 [label="Overall <= 82.5\nmse = 202854578367105.2\nsamples = 3819\nvalue = 8456323.64", fillcolor="#fdf5f0"] ;
2 -> 8 ;
13 [label="Age <= 33.5\nmse = 162714021295694.7\nsamples = 3686\nvalue = 7355995.66", fillcolor="#fdf7f2"] ;
8 -> 13 ;
15 [label="Overall <= 76.5\nmse = 65876604584489.36\nsamples = 3480\nvalue = 5923218.39", fillcolor="#fef9f5"] ;
13 -> 15 ;
43 [label="Age <= 32.5\nmse = 60918410358085.7\nsamples = 2911\nvalue = 4484300.93", fillcolor="#fefaf8"] ;
15 -> 43 ;
101 [label="Overall <= 73.5\nmse = 29999412632105.04\nsamples = 2812\nvalue = 4130938.83", fillcolor="#fefbf9"] ;
43 -> 101 ;
111 [label="Overall <= 71.5\nmse = 36526002820855.47\nsamples = 2002\nvalue = 3022927.07", fillcolor="#fefcfb"] ;
101 -> 111 ;
363 [label="Age <= 31.5\nmse = 57326053644694.16\nsamples = 1251\nvalue = 2595363.71", fillcolor="#fffdfc"] ;
111 -> 363 ;
365 [label="Balance <= 82.5\nmse = 37149151222222.22\nsamples = 1200\nvalue = 2405666.67", fillcolor="#fffdfc"] ;
363 -> 365 ;
483 [label="Finishing <= 20.5\nmse = 24080771923759.92\nsamples = 1097\nvalue = 2253783.04", fillcolor="#fffdfc"] ;
365 -> 483 ;
523 [label="Balance <= 58.5\nmse = 294063703703703.7\nsamples = 27\nvalue = 5133333.33", fillcolor="#fefaf6"] ;
483 -> 523 ;
525 [label="mse = 445259515570.93\nsamples = 17\nvalue = 1605882.35", fillcolor="#fffefe"] ;
523 -> 525 ;
526 [label="mse = 736102100000000.0\nsamples = 10\nvalue = 11130000.0", fillcolor="#fcf2ea"] ;
523 -> 526 ;
524 [label="mse = 17053606218883.74\nsamples = 1070\nvalue = 2181121.5", fillcolor="#fffdfd"] ;
483 -> 524 ;
484 [label="LongShots <= 50.5\nmse = 173471301724950.5\nsamples = 103\nvalue = 4023300.97", fillcolor="#fefbf9"] ;
365 -> 484 ;
485 [label="mse = 1116803928571428.5\nsamples = 14\nvalue = 15650000.0", fillcolor="#fbece1"] ;
484 -> 485 ;
486 [label="mse = 472665067541.98\nsamples = 89\nvalue = 2194382.02", fillcolor="#fffdfd"] ;
484 -> 486 ;
366 [label="RB <= 69.5\nmse = 511307520184544.4\nsamples = 51\nvalue = 7058823.53", fillcolor="#fdf7f2"] ;
363 -> 366 ;
367 [label="mse = 87975000000.0\nsamples = 40\nvalue = 1395000.0", fillcolor="#fffffe"] ;
366 -> 367 ;
368 [label="mse = 1829453388429752.0\nsamples = 11\nvalue = 27654545.45", fillcolor="#f8dcc8"] ;
366 -> 368 ;
364 [label="Potential <= 73.5\nmse = 1065928039134.68\nsamples = 751\nvalue = 3735153.13", fillcolor="#fefbf9"] ;
111 -> 364 ;
441 [label="mse = 377524228838.36\nsamples = 386\nvalue = 3051295.34", fillcolor="#fefcfb"] ;
364 -> 441 ;
442 [label="mse = 776347982735.97\nsamples = 365\nvalue = 4458356.16", fillcolor="#fefaf8"] ;
364 -> 442 ;
112 [label="Potential <= 76.5\nmse = 3334144200579.17\nsamples = 810\nvalue = 6869506.17", fillcolor="#fdf7f3"] ;
101 -> 112 ;
273 [label="Finishing <= 59.5\nmse = 1466052084306.36\nsamples = 451\nvalue = 5729046.56", fillcolor="#fef9f5"] ;
112 -> 273 ;
501 [label="mse = 675793151981.36\nsamples = 203\nvalue = 4895566.5", fillcolor="#fefaf7"] ;
273 -> 501 ;
502 [label="mse = 1078824141519.26\nsamples = 248\nvalue = 6411290.32", fillcolor="#fef8f4"] ;
273 -> 502 ;
274 [label="Potential <= 80.5\nmse = 1994312582925.34\nsamples = 359\nvalue = 8302228.41", fillcolor="#fdf5f0"] ;
112 -> 274 ;
541 [label="mse = 1162716115014.79\nsamples = 208\nvalue = 7637019.23", fillcolor="#fdf6f1"] ;
274 -> 541 ;
542 [label="mse = 1690649532915.2\nsamples = 151\nvalue = 9218543.05", fillcolor="#fdf4ee"] ;
274 -> 542 ;
102 [label="Overall <= 71.5\nmse = 834856620752984.4\nsamples = 99\nvalue = 14521212.12", fillcolor="#fbede3"] ;
43 -> 102 ;
103 [label="SlidingTackle <= 64.5\nmse = 1695873822222222.0\nsamples = 30\nvalue = 41653333.33", fillcolor="#f4c9ab"] ;
102 -> 103 ;
105 [label="mse = 514399843750000.0\nsamples = 16\nvalue = 7162500.0", fillcolor="#fdf7f2"] ;
103 -> 105 ;
106 [label="mse = 132780612244899.0\nsamples = 14\nvalue = 81071428.57", fillcolor="#e99559"] ;
103 -> 106 ;
104 [label="mse = 1276059651333.75\nsamples = 69\nvalue = 2724637.68", fillcolor="#fffdfb"] ;
102 -> 104 ;
44 [label="Potential <= 80.5\nmse = 26458553562658.88\nsamples = 569\nvalue = 13284710.02", fillcolor="#fcefe6"] ;
15 -> 44 ;
133 [label="Potential <= 78.5\nmse = 6508126444024.36\nsamples = 276\nvalue = 9811594.2", fillcolor="#fdf3ed"] ;
44 -> 133 ;
333 [label="Age <= 31.5\nmse = 2955232212575.03\nsamples = 131\nvalue = 8034351.15", fillcolor="#fdf6f0"] ;
133 -> 333 ;
583 [label="mse = 1636212769674.22\nsamples = 107\nvalue = 8579439.25", fillcolor="#fdf5ef"] ;
333 -> 583 ;
584 [label="mse = 1605399305555.55\nsamples = 24\nvalue = 5604166.67", fillcolor="#fef9f5"] ;
333 -> 584 ;
334 [label="Interceptions <= 71.5\nmse = 4286254458977.41\nsamples = 145\nvalue = 11417241.38", fillcolor="#fcf1e9"] ;
133 -> 334 ;
521 [label="mse = 2892290249433.12\nsamples = 63\nvalue = 12857142.86", fillcolor="#fcefe6"] ;
334 -> 521 ;
522 [label="mse = 2540489292088.05\nsamples = 82\nvalue = 10310975.61", fillcolor="#fcf3ec"] ;
334 -> 522 ;
134 [label="Overall <= 79.5\nmse = 23185395287073.84\nsamples = 293\nvalue = 16556313.99", fillcolor="#fbeadf"] ;
44 -> 134 ;
219 [label="Overall <= 78.5\nmse = 4774169886058.0\nsamples = 143\nvalue = 13482517.48", fillcolor="#fcefe5"] ;
134 -> 219 ;
477 [label="mse = 2686766656463.59\nsamples = 99\nvalue = 12510101.01", fillcolor="#fcf0e7"] ;
219 -> 477 ;
478 [label="mse = 2556172520661.19\nsamples = 44\nvalue = 15670454.55", fillcolor="#fbece1"] ;
219 -> 478 ;
220 [label="Potential <= 82.5\nmse = 23143155555555.5\nsamples = 150\nvalue = 19486666.67", fillcolor="#fae7d9"] ;
134 -> 220 ;
267 [label="Age <= 31.5\nmse = 11150488888888.91\nsamples = 75\nvalue = 16386666.67", fillcolor="#fbebdf"] ;
220 -> 267 ;
437 [label="mse = 6528083848427.81\nsamples = 61\nvalue = 17475409.84", fillcolor="#fbe9dd"] ;
267 -> 437 ;
438 [label="mse = 3622448979591.81\nsamples = 14\nvalue = 11642857.14", fillcolor="#fcf1e9"] ;
267 -> 438 ;
268 [label="Overall <= 81.5\nmse = 15915822222222.12\nsamples = 75\nvalue = 22586666.67", fillcolor="#f9e2d2"] ;
220 -> 268 ;
393 [label="mse = 7700023629489.56\nsamples = 46\nvalue = 20532608.7", fillcolor="#fae5d6"] ;
268 -> 393 ;
394 [label="SlidingTackle <= 74.5\nmse = 11639714625445.75\nsamples = 29\nvalue = 25844827.59", fillcolor="#f8decb"] ;
268 -> 394 ;
577 [label="mse = 4571005917159.88\nsamples = 13\nvalue = 28576923.08", fillcolor="#f7dbc6"] ;
394 -> 577 ;
578 [label="mse = 6390625000000.0\nsamples = 16\nvalue = 23625000.0", fillcolor="#f9e1d0"] ;
394 -> 578 ;
16 [label="Potential <= 72.5\nmse = 1178085794137053.5\nsamples = 206\nvalue = 31560194.17", fillcolor="#f7d7c0"] ;
13 -> 16 ;
33 [label="CF <= 69.5\nmse = 981837292899408.0\nsamples = 104\nvalue = 52446153.85", fillcolor="#f1bb94"] ;
16 -> 33 ;
59 [label="Age <= 36.5\nmse = 573531193718955.5\nsamples = 79\nvalue = 61324050.63", fillcolor="#efaf82"] ;
33 -> 59 ;
99 [label="SlidingTackle <= 70.5\nmse = 443636563581315.06\nsamples = 68\nvalue = 65942647.06", fillcolor="#eda978"] ;
59 -> 99 ;
155 [label="Agility <= 62.5\nmse = 431396732026144.0\nsamples = 51\nvalue = 60766666.67", fillcolor="#efb083"] ;
99 -> 155 ;
169 [label="HeadingAccuracy <= 69.0\nmse = 403519540816326.5\nsamples = 28\nvalue = 52378571.43", fillcolor="#f1bb94"] ;
155 -> 169 ;
245 [label="mse = 310260000000000.0\nsamples = 10\nvalue = 41300000.0", fillcolor="#f4caab"] ;
169 -> 245 ;
246 [label="mse = 349263333333333.0\nsamples = 18\nvalue = 58533333.33", fillcolor="#efb387"] ;
169 -> 246 ;
170 [label="mse = 275401701323251.0\nsamples = 23\nvalue = 70978260.87", fillcolor="#eca26e"] ;
155 -> 170 ;
156 [label="mse = 158866782006921.0\nsamples = 17\nvalue = 81470588.24", fillcolor="#e99558"] ;
99 -> 156 ;
100 [label="mse = 429471074380165.25\nsamples = 11\nvalue = 32772727.27", fillcolor="#f6d5bd"] ;
59 -> 100 ;
60 [label="Curve <= 67.5\nmse = 1235987136000000.0\nsamples = 25\nvalue = 24392000.0", fillcolor="#f9e0ce"] ;
33 -> 60 ;
121 [label="mse = 1600540165289256.2\nsamples = 11\nvalue = 44172727.27", fillcolor="#f3c6a5"] ;
60 -> 121 ;
122 [label="mse = 400566785714285.7\nsamples = 14\nvalue = 8850000.0", fillcolor="#fdf5ef"] ;
60 -> 122 ;
34 [label="Finishing <= 35.0\nmse = 479907773933102.75\nsamples = 102\nvalue = 10264705.88", fillcolor="#fcf3ec"] ;
16 -> 34 ;
77 [label="mse = 1300751570247934.0\nsamples = 11\nvalue = 43045454.55", fillcolor="#f4c7a8"] ;
34 -> 77 ;
78 [label="Age <= 35.5\nmse = 235089445719116.03\nsamples = 91\nvalue = 6302197.8", fillcolor="#fef8f4"] ;
34 -> 78 ;
171 [label="mse = 2302498173849.53\nsamples = 74\nvalue = 3051351.35", fillcolor="#fefcfb"] ;
78 -> 171 ;
172 [label="mse = 1002151903114186.9\nsamples = 17\nvalue = 20452941.18", fillcolor="#fae5d7"] ;
78 -> 172 ;
14 [label="Potential <= 88.5\nmse = 351834077675391.25\nsamples = 133\nvalue = 38951127.82", fillcolor="#f5cdb0"] ;
8 -> 14 ;
69 [label="Potential <= 85.5\nmse = 106976777553406.38\nsamples = 97\nvalue = 31005154.64", fillcolor="#f7d7c1"] ;
14 -> 69 ;
187 [label="Finishing <= 63.0\nmse = 57662869348522.5\nsamples = 53\nvalue = 25547169.81", fillcolor="#f8dfcc"] ;
69 -> 187 ;
295 [label="mse = 38948888888888.94\nsamples = 15\nvalue = 18533333.33", fillcolor="#fae8db"] ;
187 -> 295 ;
296 [label="Marking <= 42.5\nmse = 37966066481994.5\nsamples = 38\nvalue = 28315789.47", fillcolor="#f8dbc6"] ;
187 -> 296 ;
423 [label="mse = 32185763888888.88\nsamples = 12\nvalue = 23458333.33", fillcolor="#f9e1d0"] ;
296 -> 423 ;
424 [label="StandingTackle <= 63.0\nmse = 24717825443787.0\nsamples = 26\nvalue = 30557692.31", fillcolor="#f7d8c2"] ;
296 -> 424 ;
519 [label="mse = 21556213017751.5\nsamples = 13\nvalue = 33538461.54", fillcolor="#f6d4bb"] ;
424 -> 519 ;
520 [label="mse = 10109467455621.38\nsamples = 13\nvalue = 27576923.08", fillcolor="#f8dcc8"] ;
424 -> 520 ;
188 [label="LF <= 84.5\nmse = 87272081611570.5\nsamples = 44\nvalue = 37579545.45", fillcolor="#f5cfb3"] ;
69 -> 188 ;
251 [label="Reactions <= 82.5\nmse = 34131313131313.0\nsamples = 33\nvalue = 33833333.33", fillcolor="#f6d4bb"] ;
188 -> 251 ;
491 [label="mse = 11097633136094.62\nsamples = 13\nvalue = 30307692.31", fillcolor="#f7d8c2"] ;
251 -> 491 ;
492 [label="mse = 35771875000000.0\nsamples = 20\nvalue = 36125000.0", fillcolor="#f5d1b6"] ;
251 -> 492 ;
252 [label="mse = 78285123966942.0\nsamples = 11\nvalue = 48818181.82", fillcolor="#f2c09c"] ;
188 -> 252 ;
70 [label="LAM <= 86.5\nmse = 383077932098764.94\nsamples = 36\nvalue = 60361111.11", fillcolor="#efb084"] ;
14 -> 70 ;
125 [label="Overall <= 85.5\nmse = 115753600000000.0\nsamples = 25\nvalue = 50920000.0", fillcolor="#f1bd97"] ;
70 -> 125 ;
335 [label="mse = 34991735537189.75\nsamples = 11\nvalue = 44590909.09", fillcolor="#f3c5a4"] ;
125 -> 335 ;
336 [label="mse = 123006377551020.5\nsamples = 14\nvalue = 55892857.14", fillcolor="#f0b68d"] ;
125 -> 336 ;
126 [label="mse = 327648760330579.0\nsamples = 11\nvalue = 81818181.82", fillcolor="#e99457"] ;
70 -> 126 ;
}